tree
version=v4
num_class=1
num_tree_per_iteration=1
label_index=0
max_feature_idx=151
objective=binary sigmoid:1
feature_names=numero_de_cliente foto_mes internet cliente_edad cliente_antiguedad cproductos cdescubierto_preacordado ctarjeta_visa_transacciones cpayroll_trx ccomisiones_mantenimiento ccallcenter_transacciones chomebanking_transacciones ctrx_quarter Master_status Master_fechaalta Visa_status Visa_fechaalta mrentabilidad_rank mrentabilidad_annual_rank mcomisiones_rank mactivos_margen_rank mpasivos_margen_rank mcuenta_corriente_rank mcaja_ahorro_rank mcuentas_saldo_rank mtarjeta_visa_consumo_rank mtarjeta_master_consumo_rank mprestamos_personales_rank mpayroll_rank Master_mpagominimo_rank Visa_mpagominimo_rank kmes internet_lag1 cliente_edad_lag1 cliente_antiguedad_lag1 cproductos_lag1 cdescubierto_preacordado_lag1 ctarjeta_visa_transacciones_lag1 cpayroll_trx_lag1 ccomisiones_mantenimiento_lag1 ccallcenter_transacciones_lag1 chomebanking_transacciones_lag1 ctrx_quarter_lag1 Master_status_lag1 Master_fechaalta_lag1 Visa_status_lag1 Visa_fechaalta_lag1 mrentabilidad_rank_lag1 mrentabilidad_annual_rank_lag1 mcomisiones_rank_lag1 mactivos_margen_rank_lag1 mpasivos_margen_rank_lag1 mcuenta_corriente_rank_lag1 mcaja_ahorro_rank_lag1 mcuentas_saldo_rank_lag1 mtarjeta_visa_consumo_rank_lag1 mtarjeta_master_consumo_rank_lag1 mprestamos_personales_rank_lag1 mpayroll_rank_lag1 Master_mpagominimo_rank_lag1 Visa_mpagominimo_rank_lag1 kmes_lag1 internet_lag2 cliente_edad_lag2 cliente_antiguedad_lag2 cproductos_lag2 cdescubierto_preacordado_lag2 ctarjeta_visa_transacciones_lag2 cpayroll_trx_lag2 ccomisiones_mantenimiento_lag2 ccallcenter_transacciones_lag2 chomebanking_transacciones_lag2 ctrx_quarter_lag2 Master_status_lag2 Master_fechaalta_lag2 Visa_status_lag2 Visa_fechaalta_lag2 mrentabilidad_rank_lag2 mrentabilidad_annual_rank_lag2 mcomisiones_rank_lag2 mactivos_margen_rank_lag2 mpasivos_margen_rank_lag2 mcuenta_corriente_rank_lag2 mcaja_ahorro_rank_lag2 mcuentas_saldo_rank_lag2 mtarjeta_visa_consumo_rank_lag2 mtarjeta_master_consumo_rank_lag2 mprestamos_personales_rank_lag2 mpayroll_rank_lag2 Master_mpagominimo_rank_lag2 Visa_mpagominimo_rank_lag2 kmes_lag2 internet_delta1 internet_delta2 cliente_edad_delta1 cliente_edad_delta2 cliente_antiguedad_delta1 cliente_antiguedad_delta2 cproductos_delta1 cproductos_delta2 cdescubierto_preacordado_delta1 cdescubierto_preacordado_delta2 ctarjeta_visa_transacciones_delta1 ctarjeta_visa_transacciones_delta2 cpayroll_trx_delta1 cpayroll_trx_delta2 ccomisiones_mantenimiento_delta1 ccomisiones_mantenimiento_delta2 ccallcenter_transacciones_delta1 ccallcenter_transacciones_delta2 chomebanking_transacciones_delta1 chomebanking_transacciones_delta2 ctrx_quarter_delta1 ctrx_quarter_delta2 Master_status_delta1 Master_status_delta2 Master_fechaalta_delta1 Master_fechaalta_delta2 Visa_status_delta1 Visa_status_delta2 Visa_fechaalta_delta1 Visa_fechaalta_delta2 mrentabilidad_rank_delta1 mrentabilidad_rank_delta2 mrentabilidad_annual_rank_delta1 mrentabilidad_annual_rank_delta2 mcomisiones_rank_delta1 mcomisiones_rank_delta2 mactivos_margen_rank_delta1 mactivos_margen_rank_delta2 mpasivos_margen_rank_delta1 mpasivos_margen_rank_delta2 mcuenta_corriente_rank_delta1 mcuenta_corriente_rank_delta2 mcaja_ahorro_rank_delta1 mcaja_ahorro_rank_delta2 mcuentas_saldo_rank_delta1 mcuentas_saldo_rank_delta2 mtarjeta_visa_consumo_rank_delta1 mtarjeta_visa_consumo_rank_delta2 mtarjeta_master_consumo_rank_delta1 mtarjeta_master_consumo_rank_delta2 mprestamos_personales_rank_delta1 mprestamos_personales_rank_delta2 mpayroll_rank_delta1 mpayroll_rank_delta2 Master_mpagominimo_rank_delta1 Master_mpagominimo_rank_delta2 Visa_mpagominimo_rank_delta1 Visa_mpagominimo_rank_delta2 kmes_delta1 kmes_delta2
feature_infos=[29186441:187434871] [202005:202107] [0:4] [0:92] [1:379] [3:18] [0:1] [0:344] [0:55] [0:24] [0:199] [0:2507] [0:2164] [0:9] [1:7724] [0:9] [1:11946] [-1:1] [-1:1] [-1:1] [-1:1] [-1:1] [-1:1] [-1:1] [-1:1] [0:1] [0:1] [0:1] [-1:1] [0:1] [0:1] [1:12] [0:3] [0:92] [1:378] [3:18] [0:1] [0:351] [0:49] [0:30] [0:199] [0:2328] [0:2152] [0:9] [1:7693] [0:9] [1:11915] [-1:1] [-1:1] [-1:1] [-1:1] [-1:1] [-1:1] [-1:1] [-1:1] [0:1] [0:1] [0:1] [-1:1] [0:1] [0:1] [1:12] [0:4] [0:92] [1:377] [4:18] [0:1] [0:328] [0:49] [0:30] [0:199] [0:2328] [0:2141] [0:9] [1:7663] [0:9] [1:11885] [-1:1] [-1:1] [-1:1] [-1:1] [-1:1] [-1:1] [-1:1] [-1:1] [0:1] [0:1] [0:1] [-1:1] [0:1] [0:1] [1:12] [-3:4] [-3:3] [-2:58] [-2:52] [-40:12] [-39:13] [-6:4] [-7:4] [-1:1] [-1:1] [-252:215] [-180:230] [-32:41] [-42:41] [-28:24] [-28:24] [-154:127] [-182:136] [-945:1406] [-1604:1572] [-502:863] [-872:823] [-9:9] [-9:9] [-4875:947] [-4844:1313] [-9:9] [-9:9] [-4394:4803] [-4846:4834] [-1.9979006945800117:1.998453407007919] [-1.9958908699294005:1.9958704839100512] [-1.8096653083872156:1.8859952083006033] [-1.9367038284970786:1.8852478506999859] [-1.9982562969232456:1.998104864181933] [-1.9928903319632549:1.9979958534899791] [-1.9995098110737184:1.9975544142822206] [-1.9993364928909951:1.9959123243140764] [-1.9714838644927204:1.9941026207031873] [-1.9621907441490323:1.9967532804835577] [-1.9383830863922153:1.9370360277681202] [-1.9318383968972204:1.9625703400070251] [-1.2658442660400757:1.1852390714899808] [-1.3261257686966872:1.2484013448480453] [-1.9720715767185344:1.9643000261312453] [-1.9624741896617222:1.9576253793259308] [-0.99992874447769697:0.99985387594067365] [-0.99985438660356751:0.99985387594067365] [-1:1] [-1:0.99982859101816934] [-0.99213025780189956:1] [-1:1] [-1:1.712465304062579] [-1:1.9511437095972153] [-1:1] [-1:0.99980503022031586] [-0.99984853617542446:1] [-0.99984891514603946:1] [-11:5] [-10:6]
tree_sizes=17543 17510 17587 17592 17636 17667 17649 17626 17724 17674 17753 17771 17730 17778 17716 17845 17752 17853 17898 17871 17879 17779 17858 17803 17885 17826 17881 17887 17949 17908 17904 17895 17912 17806 17899 17934 17908 17877 17927 17974 17899 18011 17962 17951 17994 17959 17977 17955 17932 18052 18083 17969 17997 17993 18106 18019 17961 18038 18005 18006 17990 18077 18082 18083 17952 18039 18086 18079 18022 18096 17971 18062 18041 18072 18115 18068 18143 18140 18085 18147 18096 18124 18200 18135 18108 18172 18119 18044 18157 18103 18178 18060 18081 18036 18106 18109 18136 18074 18168 18161 18104 18105 18135 18063 18107 18010 18204 18081 18047 18149 18287 18159 18115 18156 18184 18229 18171 18197 18177 18020 18141 18069 18066 18089 18188 17996 18215 18143 18144 18206 18200 18267 18235 18056 18132 18195 18060 18165 18237 18129 18237 18142 18110 18186 18173 18123 18055 18115 18144 18165 18224 18098 18233 18219 18124 18222 17990 18150 18128 18286 18228 18184 18343 18166 18155 18173 18134 18159 18155 18140 18216 18060 18282 18063 18217 18137 18216 18217 18126

Tree=0
num_leaves=164
num_cat=0
split_feature=12 22 101 12 5 115 87 101 31 22 42 56 4 24 67 132 133 14 87 142 22 130 129 41 82 46 21 8 114 24 98 37 108 142 60 107 135 124 24 24 114 2 87 142 44 77 4 79 4 132 82 66 18 14 4 11 24 4 39 127 121 21 18 67 126 44 71 22 133 129 125 33 14 46 87 60 60 98 142 129 21 91 71 19 124 135 83 20 33 79 127 31 87 99 60 133 131 110 18 127 124 142 127 79 20 33 18 20 125 142 18 132 22 91 133 87 33 127 14 44 41 91 46 22 46 20 127 18 18 4 20 33 5 4 18 42 33 83 99 46 124 108 125 46 138 42 138 113 132 113 131 24 131 18 31 132 133 14 91 127 31 126 4
split_gain=6789.27 3402.41 1577.59 1180.78 1013.42 740.806 617.901 585.44 475.454 587.205 597.758 423.914 398.236 394.172 355.44 327.881 296.68 259.834 310.666 420.855 284.109 278.709 266.803 243.678 242.186 241.011 236.051 230.893 302.699 327.838 346.983 280.666 235.909 230.079 226.609 223.777 341.71 284.761 221.056 218.538 215.685 214.945 211.333 267.62 210.561 286.122 206.447 323.225 293.483 242.477 227.031 213.779 200.962 200.022 195.073 257.749 237.333 192.78 390.623 192.274 191.19 189.63 183.595 182.599 180.439 197.627 248.475 179.923 177.633 276.169 251.855 293.752 176.418 218.558 171.883 180.298 170.533 170.346 168.864 168.106 229.494 167.859 166.764 166.083 165.236 165.236 163.049 163.042 161.996 159.334 157.57 157.282 155.079 213.049 197.287 262.489 415.702 356.01 154.651 156.668 153.564 148.111 301.418 276.665 225.786 146.008 141.631 141.484 212.446 140.93 175.096 208.631 140.367 163.924 140.305 165.236 137.696 137.36 134.12 133.722 133.708 179.228 137.696 132.975 132.37 132.4 131.674 130.32 226.461 141.771 130.264 161.599 204.657 292.997 309.369 276.317 206.545 154.252 127.945 203.109 127.456 136.132 126.53 370.818 201.753 183.595 126.479 126.06 129.839 163.48 235.002 125.025 124.92 124.829 170.496 434.332 210.782 139.964 124.757 187.847 123.927 153.344 123.927
threshold=11.500000000000002 -0.1200483158146962 -1.0000000180025095e-35 28.500000000000004 5.5000000000000009 8.0000000000000018 0.13880360052477722 -1.0000000180025095e-35 7.5000000000000009 -0.92011721765644594 1.0000000180025095e-35 1.0000000180025095e-35 53.500000000000007 0.041727033061405731 1.0000000180025095e-35 0.061812585531124904 -0.030528460662425847 290.50000000000006 0.10396004573690965 -0.053406935265490334 -0.96017762571452459 0.15960231592390034 0.073227269643551252 38.500000000000007 -0.53920746887676052 1892.5000000000002 0.3923572679407234 1.0000000180025095e-35 8.0000000000000018 0.041727033061405731 -2.4999999999999996 4.5000000000000009 4.5000000000000009 -0.064563319400145522 0.75876116634380431 1.0000000180025095e-35 -1.0000000180025095e-35 0.050888505855858378 -0.20130787113528306 0.083526763983159627 6.5000000000000009 1.0000000180025095e-35 0.31041474784891682 -0.064563319400145522 2519.5000000000005 0.43595325511850991 46.500000000000007 0.4997202646648225 106.50000000000001 -0.020402879580821983 -0.8729950487166106 1.0000000180025095e-35 0.56054191290952005 472.50000000000006 210.50000000000003 55.500000000000007 0.041727033061405731 86.500000000000014 1.0000000180025095e-35 -0.014401517950762886 61.500000000000007 0.74929750181715904 0.44048243412997645 1.0000000180025095e-35 -1.0000000180025095e-35 2286.5000000000005 1.0000000180025095e-35 -0.63964845787876845 -0.25408975433205822 0.046025239651589063 0.072357835761923797 38.500000000000007 2087.5000000000005 2312.5000000000005 0.24121083025711412 0.24210469632249634 1.0000000180025095e-35 -1.0000000180025095e-35 -0.064563319400145522 0.19453346075430528 0.24962897131736209 4.5000000000000009 53.500000000000007 0.64358843738983518 0.067537495233557912 -0.038102037434496659 0.28746369606930616 -0.71396299298025012 54.500000000000007 1.0000000180025095e-35 0.61281481894092238 5.5000000000000009 0.24121083025711412 -1.0000000180025095e-35 0.20754686423974431 -0.048751896252650466 -0.014932951096163612 -1.4999999999999998 0.19961538654106364 1.0000000180025095e-35 0.050888505855858378 -0.053406935265490334 -0.0231314907854096 1.0000000180025095e-35 -0.71396299298025012 70.500000000000014 0.15978269208798065 0.12534091041072423 0.038789680038606993 -0.033193984675394687 0.28014751626386919 0.0051663903158184485 -0.80042097576779192 3.5000000000000004 -0.12891299203613787 0.37917560915812737 38.500000000000007 1.0000000180025095e-35 997.50000000000011 5510.5000000000009 2.5000000000000004 3.5000000000000004 2806.5000000000005 -0.71978247122070294 6944.5000000000009 1.0000000180025095e-35 0.035644927320495019 0.15978269208798065 0.8005468497783973 31.500000000000004 -0.28568954313434108 38.500000000000007 5.5000000000000009 86.500000000000014 0.079789781331565182 115.50000000000001 36.500000000000007 0.072852649728199007 -1.0000000180025095e-35 640.50000000000011 0.067537495233557912 -5.4999999999999991 0.09105676115539367 2312.5000000000005 0.0032708167680010618 67.500000000000014 -0.13199211799314745 -5.4999999999999991 0.085689800574740224 -23.499999999999996 -0.037921003314041989 1.0000000180025095e-35 1.0000000180025095e-35 0.079789781331565182 2.5000000000000004 -1.0000000180025095e-35 0.052653119054134785 583.50000000000011 4.5000000000000009 0.015348619277335192 5.5000000000000009 -0.020513539238283803 31.500000000000004
decision_type=2 2 8 2 2 10 10 8 2 2 10 8 2 8 8 10 10 8 10 8 2 10 10 10 10 10 10 2 10 10 10 8 10 8 8 10 8 10 10 8 10 10 8 10 10 10 2 10 2 10 8 10 10 8 2 8 8 2 10 10 8 10 10 8 8 10 8 2 8 10 10 10 10 10 8 10 10 8 8 10 10 10 10 10 10 10 10 8 10 8 8 2 10 8 10 8 10 10 8 8 10 10 10 10 10 10 10 10 8 8 10 10 2 10 10 10 8 10 8 10 10 10 8 2 8 10 10 10 10 2 10 8 2 2 10 10 10 10 8 10 10 8 10 10 10 10 8 8 8 10 10 10 8 10 2 10 10 10 10 10 2 8 2
left_child=1 2 11 5 6 7 8 16 9 12 46 24 41 78 -13 61 34 -6 19 -19 22 -20 57 -7 101 59 -23 28 31 30 -30 39 -31 106 -2 38 37 90 40 74 52 100 43 84 68 123 47 60 51 81 -50 107 76 91 -45 56 86 63 -59 118 -11 -10 67 117 65 66 -18 -17 69 -12 -71 -72 -38 -74 75 77 119 120 114 -58 -81 -49 -40 -73 -3 116 89 88 -44 124 160 -39 93 94 95 96 -80 -98 99 -32 138 104 -103 -104 127 -92 -8 -48 -109 110 111 -95 113 -53 115 -9 -55 -21 -14 153 -5 122 -122 -46 -56 -126 -52 -1 129 -129 -79 132 133 134 136 137 -132 162 -4 152 -111 -142 147 144 -144 -146 -78 148 -134 -150 -151 -96 -140 -22 155 -155 157 -157 159 -97 -37 -162 -136
right_child=3 42 4 27 17 23 33 13 15 10 44 14 25 -15 -16 62 64 18 21 20 35 26 -24 -25 -26 -27 -28 -29 29 32 98 -33 -34 -35 -36 36 72 53 82 -41 -42 -43 87 54 45 -47 48 49 50 -51 126 112 -54 85 55 -57 79 58 -60 -61 -62 -63 -64 -65 -66 -67 -68 -69 -70 70 71 83 73 -75 -76 -77 146 130 92 80 -82 -83 -84 -85 -86 -87 -88 -89 -90 -91 105 -93 -94 109 151 158 97 -99 -100 -101 -102 102 103 -105 -106 -107 -108 108 -110 140 -112 -113 -114 -115 -116 -117 -118 -119 -120 -121 121 -123 -124 -125 125 -127 -128 128 -130 -131 131 -133 142 -135 135 -137 -138 -139 139 -141 141 -143 143 -145 145 -147 -148 -149 149 150 -152 -153 -154 154 -156 156 -158 -159 -160 -161 161 -163 -164
leaf_value=-4.713777251985773 -1.4090624906703693 -2.2352411809991901 -1.409062490670419 -4.7137772519857739 -4.6008598911207814 -3.7146774404252905 -2.5106340777755038 -2.2352411809992239 -4.4206170715465003 -2.235241180999183 -1.8811645994297224 -1.8056282620281965 -1.4090624906704012 -4.6577351416100212 -4.713777251985773 -2.0700054429334758 -2.3532667081890644 -2.1434435487404588 -4.5966810596556993 -3.6810538890747706 -4.3895410867246367 -1.8811645994297175 -4.6036200932752589 -1.822151835834799 -2.0700054429334438 -4.713777251985773 -4.713777251985773 -4.7105790195513917 -2.0099197200004366 -4.7137772519857739 -1.4090624906703191 -4.6992769202582636 -2.2352411809992576 -4.5378608768587156 -4.0528342997226989 -4.0941432342391311 -4.5043234995080343 -4.4595684241922804 -4.5582612632179877 -4.67508536101505 -2.911205563995563 -4.3719102077117631 -4.3006879068213442 -4.5720251175284341 -3.8875985616569344 -4.713777251985773 -1.6034574766300809 -4.713777251985773 -2.2352411809992239 -1.7395339668019059 -4.3249872800663107 -1.4090624906704012 -4.5749236905859654 -2.2352411809992576 -4.0528342997226856 -2.0700054429334691 -4.545025859918602 -1.4090624906703617 -4.3006879068213486 -1.7094911053353843 -4.5028380119018099 -2.2352411809992501 -1.4090624906704012 -4.2416751432264261 -4.7137772519857739 -1.409062490670419 -4.7137772519857739 -4.3833057758542324 -4.3138436184507842 -4.5249364084820343 -4.7137772519857739 -1.9174801462573443 -2.2352411809992199 -4.2731486171437174 -4.6874924635732862 -4.6684594335289162 -3.3918913474596102 -4.6876873986069674 -4.2731486171437156 -1.9598482842229474 -4.713777251985773 -2.5106340777755172 -2.730948395196545 -4.0528342997226989 -4.713777251985773 -1.9598482842229199 -2.0700054429334758 -4.6729171593955119 -2.2352411809992576 -4.4777261976061 -4.5154943663068474 -2.5106340777755172 -4.6689168706104507 -4.1629914584332095 -4.6778564393627802 -4.713777251985773 -4.3006879068213486 -1.7762530197053965 -4.3719102077117631 -4.0528342997226989 -4.4133486373207358 -4.1031234373948768 -4.2416751432264332 -1.7094911053353989 -1.4090624906703755 -2.7309483951965499 -4.1629914584332042 -1.4090624906703804 -3.5335219800874098 -4.5728663557791362 -4.3465867229507253 -1.4090624906704012 -4.3833057758542324 -3.7695730344670899 -4.2731486171437156 -4.713777251985773 -4.713777251985773 -2.1434435487404588 -3.1794453985178945 -2.825368816948429 -1.4090624906704012 -4.0393456680438478 -3.8875985616569344 -1.7395339668019023 -1.4090624906704012 -3.4745092164924989 -2.8253688169484059 -3.6122056648806451 -3.926940404053529 -1.7094911053353989 -4.7137772519857739 -4.5526431102549676 -4.3862829963599195 -4.5564098823993247 -2.2352411809992576 -4.713777251985773 -2.2352411809992576 -1.7978524625898116 -2.1716889740508138 -4.713777251985773 -2.7309483951965499 -4.3878019864138427 -4.6350935671925493 -2.1434435487404588 -1.9598482842229532 -4.713777251985773 -4.5347718690811876 -4.6176400952929608 -4.713777251985773 -4.713777251985773 -2.0700054429334438 -3.2974709257077479 -3.3463090748897328 -4.0989465987177844 -4.2044484536468341 -3.3918913474596213 -4.1629914584332095 -1.409062490670359 -4.5998215705611036 -2.7309483951965285 -1.4090624906704012 -3.5120627933256241 -4.713777251985773
leaf_weight=0.063545574434101582 0.081701452843844891 0.072623513638972237 0.036311756819486618 0.1997146625071764 3.985215310938659 0.39035138580948014 0.081701452843844891 0.072623513638973236 2.2513289228081712 0.036311756819485508 0.063545574434101582 0.22694848012179147 0.045389696024358273 101.70923085138202 0.045389696024358273 0.045389696024358273 0.063545574434101582 0.081701452843844891 4.6115931160747996 0.14524702727795613 2.4056538892909956 0.063545574434101471 0.27233817614614964 0.072623513638973236 0.090779392048716434 0.045389696024358273 0.045389696024358273 1116.2415605094284 0.0998573312535882 0.71715719718486071 0.036311756819485508 639.29571262467653 0.036311756819486618 2.3874980108812447 0.045389696024358273 0.14524702727794625 1.2890673670917743 0.11801320966333151 4.6297489944845358 126.38306961022317 0.099857331253588977 0.26326023694127798 0.58098810911178589 31.745553399436176 0.036311756819486618 0.072623513638973236 0.15432496648281813 0.072623513638973236 0.072623513638973236 0.090779392048716545 0.30864993296563625 0.045389696024358273 2.1605495307594547 0.036311756819486618 0.13616908807307404 0.045389696024358162 2.1333157131448401 0.0998573312535882 0.072623513638973236 0.1997146625071764 0.42666314262896776 0.036311756819486507 0.045389696024358273 0.31772787217050791 0.18155878409743309 0.036311756819486618 0.10893527045845985 0.090779392048716434 2.8504729103297004 0.31772787217050791 0.081701452843844891 0.11801320966333151 0.072623513638973125 0.13616908807307482 12.554789920337496 8.6058863662183267 0.090779392048716545 3.4496168978512349 0.27233817614614964 0.054467635229229816 0.054467635229229927 0.054467635229229927 0.045389696024358162 0.045389696024358273 0.036311756819486618 0.16340290568768978 0.045389696024358273 24.229019737802449 0.036311756819486618 0.25418229773640633 0.45389696024358273 0.054467635229229927 10.031122821383176 0.054467635229229927 0.8351704068481921 0.081701452843845113 0.072623513638973236 0.16340290568768978 0.26326023694127798 0.045389696024358273 0.0998573312535882 0.83517040684819199 0.063545574434101804 0.0998573312535882 0.054467635229229705 0.045389696024358273 0.10893527045845985 0.063545574434101582 0.12709114886820316 38.109188782051206 0.32680581137537956 0.045389696024358273 0.090779392048716545 0.063545574434101582 0.40850726421922445 0.036311756819486618 0.045389696024358273 0.081701452843844891 0.25418229773640633 0.063545574434102359 0.045389696024358273 0.44481902103871107 0.036311756819486618 0.090779392048716434 0.045389696024358273 0.072623513638973236 0.063545574434101582 0.054467635229229927 0.19063672330230474 0.0998573312535882 0.18155878409743387 10.239915423095226 1.0076512517407534 0.38127344660460949 0.036311756819486618 0.054467635229229927 0.036311756819486618 0.15432496648281813 0.1180132096633304 0.072623513638973236 0.045389696024358273 2.668914126232266 0.38127344660460938 0.081701452843844891 0.054467635229229927 0.036311756819486618 2.1787054091691966 2.4964332813397054 0.072623513638973236 0.045389696024358273 0.090779392048716434 0.063545574434101582 0.26326023694127798 0.78070277161896229 5.0654900763183832 0.045389696024358162 0.054467635229229927 0.10893527045845985 0.52652047388255596 0.090779392048716545 0.045389696024358273 0.0998573312535882 0.036311756819486618
leaf_count=7 9 8 4 22 439 43 9 8 248 4 7 25 5 11204 5 5 7 9 508 16 265 7 30 8 10 5 5 122962 11 79 4 70423 4 263 5 16 142 13 510 13922 11 29 64 3497 4 8 17 8 8 10 34 5 238 4 15 5 235 11 8 22 47 4 5 35 20 4 12 10 314 35 9 13 8 15 1383 948 10 380 30 6 6 6 5 5 4 18 5 2669 4 28 50 6 1105 6 92 9 8 18 29 5 11 92 7 11 6 5 12 7 14 4198 36 5 10 7 45 4 5 9 28 7 5 49 4 10 5 8 7 6 21 11 20 1128 111 42 4 6 4 17 13 8 5 294 42 9 6 4 240 275 8 5 10 7 29 86 558 5 6 12 58 10 5 11 4
internal_value=-4.6835 -4.4462 -4.24559 -4.69529 -4.2831 -4.61607 -4.04724 -4.61963 -3.93237 -3.80198 -3.94511 -3.38203 -3.25455 -4.62298 -2.29032 -4.28854 -3.61221 -4.37516 -4.34087 -4.29249 -4.30069 -4.56125 -3.80422 -3.41781 -3.57355 -2.62079 -3.06142 -4.70174 -4.68952 -4.21306 -3.56724 -4.69023 -4.59433 -4.45778 -2.35327 -4.32473 -4.07058 -3.69503 -4.36351 -4.65561 -4.30011 -3.65908 -4.59386 -4.54603 -4.15891 -3.21163 -3.47451 -3.87658 -3.19785 -2.92372 -3.76957 -2.73095 -4.31082 -3.06142 -4.55071 -4.31257 -4.34897 -3.50065 -2.62659 -2.43052 -4.32499 -4.38593 -3.06142 -3.77744 -4.02209 -3.42063 -3.84412 -3.61221 -4.21332 -3.75589 -3.96755 -3.24502 -4.37329 -3.56431 -4.59517 -4.55403 -4.25795 -4.50369 -4.55739 -4.48633 -3.33681 -3.76957 -4.54052 -2.51063 -3.06142 -2.51063 -3.79279 -4.66065 -4.17919 -3.94661 -4.03004 -3.84412 -4.56262 -4.53802 -4.24371 -3.9932 -3.47451 -2.553 -4.01805 -2.87782 -3.34105 -3.66694 -3.87258 -2.69423 -3.22342 -4.35326 -3.45484 -2.27872 -2.82537 -4.55305 -4.01065 -2.91121 -3.51206 -2.78603 -4.01805 -3.06142 -3.61221 -3.12751 -2.91121 -4.19643 -4.05283 -3.80213 -2.51063 -2.35327 -3.4155 -2.68011 -4.06895 -3.46533 -3.23535 -2.38104 -4.52107 -4.48371 -4.34659 -3.93019 -3.45198 -2.79491 -4.30069 -2.33438 -3.12262 -3.2597 -4.55872 -4.3601 -4.43252 -4.00949 -4.33246 -3.06142 -4.48906 -4.49562 -4.2452 -3.56431 -2.95126 -4.58025 -2.98274 -4.20672 -4.13409 -3.7739 -2.55853 -1.99225 -4.37043 -3.67018 -3.47451 -2.85488 -3.47451
internal_weight=2183.81 103.37 43.8283 2080.44 42.0036 156.594 11.7922 156.131 9.21411 6.74491 5.34691 1.82467 1.398 155.614 0.272338 2.4692 0.517443 30.2114 26.2262 21.5056 21.4239 4.72053 0.989495 0.462975 1.55233 0.544676 0.108935 1923.84 807.601 1.19829 0.444819 806.402 0.753469 2.57813 0.127091 20.4344 2.70523 1.20737 17.7292 167.107 13.0541 0.853326 59.5422 34.6959 3.67657 0.199715 1.67034 0.680845 0.989495 0.217871 0.444819 0.544676 12.9542 0.417585 34.5869 2.84139 2.79601 0.717157 0.172481 0.499287 0.462975 2.28764 0.181559 0.544676 0.390351 0.208793 0.172481 0.136169 3.47685 0.626378 0.562832 0.245104 1.49786 0.208793 40.7236 28.1688 10.7937 19.563 53.9048 2.24225 0.108935 0.127091 4.67514 0.163403 0.108935 0.245104 0.553754 24.8463 0.6173 0.508365 0.789781 0.172481 53.3874 43.3562 2.10608 1.20737 0.508365 0.236026 0.344962 0.0817015 0.590066 1.46155 0.998573 0.163403 0.462975 0.499287 0.190637 0.344962 0.190637 41.2502 0.426663 0.0998573 0.199715 0.108935 0.517443 0.108935 0.0817015 0.226948 0.299572 8.52418 0.726235 0.52652 0.0817015 0.127091 0.254182 0.118013 0.372196 0.408507 0.344962 0.154325 18.8367 15.3871 5.14719 0.88056 0.499287 0.281416 0.217871 0.226948 0.490209 0.453897 40.8235 2.7143 4.26663 0.553754 0.472053 0.0907794 2.26948 3.71288 1.21644 0.208793 0.136169 0.898716 0.381273 8.46064 6.05499 0.989495 0.208793 0.154325 0.699001 0.172481 0.290494 0.145247 0.0726235
internal_count=240562 11387 4828 229175 4627 17250 1299 17199 1015 743 589 201 154 17142 30 272 57 3328 2889 2369 2360 520 109 51 171 60 12 211925 88963 132 49 88831 83 284 14 2251 298 133 1953 18408 1438 94 6559 3822 405 22 184 75 109 24 49 60 1427 46 3810 313 308 79 19 55 51 252 20 60 43 23 19 15 383 69 62 27 165 23 4486 3103 1189 2155 5938 247 12 14 515 18 12 27 61 2737 68 56 87 19 5881 4776 232 133 56 26 38 9 65 161 110 18 51 55 21 38 21 4544 47 11 22 12 57 12 9 25 33 939 80 58 9 14 28 13 41 45 38 17 2075 1695 567 97 55 31 24 25 54 50 4497 299 470 61 52 10 250 409 134 23 15 99 42 932 667 109 23 17 77 19 32 16 8
is_linear=0
shrinkage=1


Tree=1
num_leaves=164
num_cat=0
split_feature=23 25 27 25 8 8 24 27 143 109 141 116 15 19 18 3 72 72 82 109 102 72 3 148 46 82 122 50 16 125 8 25 78 20 81 3 137 134 111 76 125 49 128 78 18 6 143 20 78 18 78 129 44 128 143 82 46 81 18 20 49 125 81 112 64 16 112 76 16 64 64 23 134 112 61 49 82 78 70 111 20 68 63 31 44 143 18 50 61 76 48 64 23 41 92 143 31 72 35 109 16 2 123 44 125 148 39 15 23 33 80 18 122 112 53 3 111 123 145 24 81 32 41 112 31 78 44 64 139 146 6 138 72 6 64 78 33 18 48 31 128 18 64 123 76 72 72 111 19 81 122 129 5 112 141 49 16 19 80 64 122 61 125
split_gain=3632.49 1336.71 489.134 465.832 604.335 223.896 222.491 287.902 177.326 154.618 183.626 220.351 145.683 162.709 158.139 129.363 132.888 109.518 107.753 102.106 184.882 102.064 140.077 287.726 152.527 100.533 157.652 99.1112 97.0239 94.3562 92.8115 119.681 89.6348 88.7266 88.7011 178.313 212.214 97.9615 140.449 91.9386 163.112 131.77 118.943 88.5088 294.852 84.5077 185.678 83.9011 110.662 93.0237 81.6659 85.5943 170.454 78.9045 76.2688 105.965 76.1446 102.047 113.788 232.363 128.394 87.58 79.8441 169.881 116.024 74.4642 204.934 72.648 121.898 190.165 84.4018 177.894 77.2485 73.8895 98.091 152.75 72.3424 71.7102 74.531 70.8354 70.1787 69.6736 68.9016 120.599 67.0804 65.762 89.5024 65.4877 71.8151 63.4981 63.3037 62.2154 61.7115 61.0985 60.3665 59.767 98.164 59.7467 58.6821 56.8703 80.5751 56.7326 55.9739 71.2072 200.806 71.915 55.5769 55.3259 55.2204 54.3943 177.442 192.657 104.336 280.134 92.4676 65.0079 54.0728 54.0158 53.9012 121.911 193.468 53.8796 53.6793 129.27 53.4103 63.3279 69.1544 83.8489 143.2 88.5993 62.8922 104.325 53.3849 53.2191 52.2527 54.0261 81.7355 68.7776 111.375 105.013 78.0148 92.5881 75.0681 51.3997 78.8835 163.744 98.4279 58.1742 144.929 147.521 116.268 57.6185 50.2496 50.1497 66.5995 50.1051 49.8719 97.9868 49.5171 133.158 49.2428 74.7394 85.0318
threshold=0.034328411630806042 0.069075234896963988 0.10025912346825767 0.069075234896963988 1.0000000180025095e-35 1.0000000180025095e-35 0.16686513296238445 0.10025912346825767 -0.025107338915986901 1.0000000180025095e-35 -0.48705046499156918 30.500000000000004 1.0000000180025095e-35 0.57218387638122026 0.56054191290952005 30.500000000000004 11.500000000000002 66.500000000000014 -0.8729950487166106 -1.0000000180025095e-35 -10.499999999999998 163.50000000000003 70.500000000000014 0.017554898056098254 442.50000000000006 -0.12472896619688291 0.40560952241538978 -0.095536073241920746 1146.5000000000002 0.058739581980996262 1.0000000180025095e-35 0.20630764044555341 0.36258437731309229 -0.7617615782992404 -1.0000000180025095e-35 47.500000000000007 0.0041572769616698433 -1.0000000180025095e-35 1.0000000180025095e-35 3768.5000000000005 -0.088296306218134252 0.67921688655946943 -1.0000000180025095e-35 0.12099256938037768 0.19961538654106364 1.0000000180025095e-35 -0.037523972858871484 -0.14269022253269933 0.64196482006234812 -0.74927685950413214 1.0000000180025095e-35 0.046025239651589063 1383.5000000000002 0.037409694922589325 -0.07766027588701023 -0.49775360443844846 2312.5000000000005 0.11021578168936934 0.520415881665929 0.25115409588073967 0.10730970961511617 0.12109065366889951 0.037564863092514715 -1.4999999999999998 118.50000000000001 638.50000000000011 2.5000000000000004 4792.5000000000009 4805.5000000000009 264.50000000000006 169.50000000000003 0.068812027496303843 -0.19608006493887098 -8.4999999999999982 5.5000000000000009 0.14315239143233141 -0.16636991800792336 0.36258437731309229 17.500000000000004 66.500000000000014 0.25115409588073967 5.5000000000000009 64.500000000000014 6.5000000000000009 3589.5000000000005 -0.16906064345365338 0.19961538654106364 -0.14315512678397649 6.5000000000000009 5884.5000000000009 0.12016478343626598 195.50000000000003 1.0000000180025095e-35 8.5000000000000018 1.0000000180025095e-35 -0.069794601779616924 7.5000000000000009 42.500000000000007 6.5000000000000009 7.5000000000000009 2312.5000000000005 1.5000000000000002 0.17997592363962753 1.0000000180025095e-35 0.072357835761923797 0.23947952806980108 1.5000000000000002 1.0000000180025095e-35 0.20714846482741611 66.500000000000014 0.25400442972998422 0.40020173478009241 0.62818371294839048 -1.4999999999999998 0.071999739585150921 27.500000000000004 3.5000000000000004 0.29002702119191298 -0.12475815119972371 0.66634068326030726 0.46637367464414226 1.5000000000000002 131.50000000000003 -17.499999999999996 8.5000000000000018 0.20115517148843612 1548.5000000000002 178.50000000000003 0.093736843678565648 0.36426587563040957 1.0000000180025095e-35 -1.0000000180025095e-35 11.500000000000002 1.0000000180025095e-35 143.50000000000003 0.52271300964889067 62.500000000000007 0.28014751626386919 0.44141074807810399 6.5000000000000009 -0.0050960807776984076 0.36011195038067362 79.500000000000014 0.29002702119191298 4792.5000000000009 121.50000000000001 11.500000000000002 -17.499999999999996 0.67968399320597328 0.32463613026374144 0.29457188205560497 0.19453346075430528 6.5000000000000009 -2.4999999999999996 -0.48705046499156918 0.78687562880139039 2805.5000000000005 0.60802218615770498 -0.47721367088366168 62.500000000000007 -0.25841683024107504 2.5000000000000004 1.0000000180025095e-35
decision_type=2 10 2 8 2 2 10 2 8 10 10 8 8 10 8 2 10 8 10 8 8 8 2 10 8 10 10 10 10 10 2 8 8 8 8 2 10 10 10 10 8 10 10 10 10 2 8 10 10 10 8 10 10 10 8 10 8 8 10 10 10 8 10 8 10 10 10 10 10 10 10 2 10 10 10 8 10 8 8 10 10 10 10 2 10 10 8 10 8 10 10 10 2 10 10 8 2 10 8 8 10 8 10 10 10 10 10 10 2 8 10 10 10 10 10 2 10 10 8 10 10 10 10 10 2 10 10 8 10 10 2 10 8 2 8 8 10 8 8 2 10 10 10 10 10 10 10 8 8 10 8 10 2 10 8 10 10 8 8 10 8 10 10
left_child=1 2 5 4 6 9 7 8 18 12 11 -11 13 27 47 16 92 29 -2 20 -10 121 24 98 -23 133 43 -1 -18 85 31 32 45 132 35 36 37 38 -29 -36 42 50 -41 -27 97 46 -5 -15 49 -49 -42 94 -53 116 55 -16 57 58 60 -60 -20 -62 63 64 -58 66 -48 117 69 -69 71 -70 -73 74 -72 -76 -44 78 118 -75 -67 -7 -17 -84 -85 86 -3 -47 99 107 -54 -43 -12 -61 -52 96 -51 -45 -24 102 -101 -79 -89 104 -104 106 -105 -35 -77 112 114 -112 134 -114 115 -111 -46 153 119 -8 -121 160 -26 -124 125 126 127 129 152 130 131 -31 -4 -22 135 155 137 -137 140 142 -139 -142 -140 -120 147 146 -146 148 -145 -150 -151 -148 -129 -21 -155 -97 157 -117 159 -127 161 162 -14
right_child=3 17 33 30 -6 81 77 -9 19 10 15 -13 21 14 54 82 28 -19 56 67 25 22 23 -25 122 26 -28 34 -30 124 -32 -33 -34 89 39 -37 -38 -39 -40 40 41 91 76 44 53 87 65 48 -50 95 51 52 90 -55 -56 -57 62 -59 59 93 61 -63 -64 -65 -66 80 -68 68 70 -71 73 72 -74 79 75 108 -78 101 -80 -81 -82 -83 83 84 -86 -87 -88 88 -90 -91 -92 -93 -94 -95 -96 109 -98 -99 -100 100 -102 -103 103 105 -106 -107 -108 -109 -110 110 111 -113 113 -115 -116 156 -118 -119 143 120 -122 -123 123 -125 -126 158 -128 128 -130 -131 -132 -133 -134 -135 -136 136 -138 138 139 -141 141 -143 -144 144 145 -147 151 -149 149 150 -152 -153 -154 154 -156 -157 -158 -159 -160 -161 -162 -163 -164
leaf_value=0.055340125887778147 1.7245242688178446 1.5401141676236587 0.23696497918283244 2.4311012711734445 -0.02029533505340303 -0.0050332179879713813 0.13706743844476454 0.0066915804561766363 2.4958857732741206 3.1115006462414825 1.1266885613503959 0.42939051197781242 0.34492224020627787 -0.030355362649304166 0.23433239603960618 0.25542496284192956 0.13551066046731772 -0.0094172511974696393 1.7770101891188985 0.13507883389116951 0.85022899305515387 2.1006931503531261 1.3640100414832959 0.14133933492662853 0.28361690415040219 -0.030297792721516448 2.0433174452719225 -0.030309979736106316 1.3590814149226618 0.22643684171478257 -0.028202757151164003 -0.018558019594456587 -0.0027412470449299144 0.024071457856554818 0.12981160002759748 -0.030310256750565121 -0.030328197469053783 2.9326826824853991 2.3400841355619271 0.3025444036009618 1.1847020118187985 2.3052825700473361 2.4846836640177887 1.56217535281963 0.058052073036429008 0.014659861502100783 -0.030291274940442918 1.9089694992356929 1.6173786303128745 1.6461238719186364 0.078628544201212194 2.1858831086864163 1.2304925506327551 1.3114780651677942 0.077076621557178121 1.5212992955327185 0.70385392124851909 0.13578034829812663 2.9147277322441303 -0.030317737919900986 0.30510764414114599 3.2874170727403027 0.12503458974408671 0.30386313367972956 2.9784068314757119 0.082516643730129915 2.4750018724239071 -0.030331382013197971 1.898505778787049 2.2696031086427895 0.22729561471922483 1.1626272983671155 0.07887363513923773 0.09623755751790368 2.4739760077616322 0.22082129593408167 0.99866838432275806 0.011852209014968392 1.2823863878296642 1.285192078593391 1.2994622366608279 1.0743505229494907 1.9373010720340267 -0.030310631994440958 1.3667328692963665 0.026448384148833919 0.21928234887916812 0.11201970967051801 0.030587514297961405 1.0565235692154094 -0.030322474956656548 0.65329103932053045 2.6465824400585385 1.4845445064413176 1.1075204754596841 0.25236467612095276 -0.030368631987514168 3.2664095604210575 2.6282727702207924 1.7049606908598722 -0.030274805892323002 0.90386541677745158 0.24037611903413195 0.1793639731260401 2.6074507044447142 1.5344564649893577 1.2185785848196173 0.15242847390825257 1.5274152413589304 1.498245309035787 2.237892850984307 0.44002724185134068 2.773932492370033 0.30203804627005293 1.4811300766591902 1.6487645676336868 1.0799336240159185 0.20241073040864127 0.03941497087842423 2.3186908563030468 0.2425639960328253 0.08722789413025954 -0.030379759684133239 2.3420322898132748 0.028989089792473964 1.9226911993996252 0.057969203408306559 -0.030311018629813623 2.2158327406852147 1.3534979704004406 0.21027567110665871 1.6947135460394913 -0.0028419557653979275 -0.030301461207705341 0.113317976040664 0.05118778101834489 1.5582953123686913 -0.030306568982439816 1.1086665196271677 -0.030370328665837044 0.48704141642243837 1.9823934065497171 -0.030382324631833858 0.059677274602221789 1.5131515328887455 2.3797040987410085 0.03878521172208696 0.05267549977647925 -0.030284192609086082 1.0560108953797511 3.2332395841798953 0.70009556780658344 1.146933397192675 1.1398338197377649 0.057312008118253169 0.029714503436796449 0.13204421319375448 0.3412190065615105 0.02589939843509555 0.1264286769270424 0.20848142034247838 0.30322360064654269 1.8037111994540307
leaf_weight=13.575080845504997 0.051286502741277551 0.057300657033919289 3.5546827474609017 0.036564843729138374 189.38296721503139 5.9057481205090872 0.89480829797685124 21.018104997463524 0.035627228207886219 0.047743426635861286 0.051853801123796894 0.065236952155828476 0.07985285855829749 0.87985583022237435 0.22539157420396805 3.6370411105453972 0.17967281676828861 53.157292348332703 0.066397341899574025 12.990743889473377 0.068140920251607895 0.042233210057019188 0.064541693776845821 0.16831886675208807 7.0917016100138426 0.26184376981109359 0.057869993150234222 0.040489582344889641 0.086360950022935867 0.11647974420338869 914.13110182620585 596.26978135574609 62.0465641412884 27.476019144989557 25.358571699820466 0.2221777830272913 0.08372169267386198 0.050624490715563297 0.050624490715563297 0.090130137279629707 0.074067506007849393 0.038534359075128921 0.05964067205786705 0.037677460350096226 0.33955350238829851 17.979880272410817 0.076031620614233186 0.03093922697008622 0.054620824754237129 0.071577876806259155 1.9196263141930114 0.054146114736795314 0.047585937194526196 0.06707548163831234 7.239544183015826 0.077336416579782963 0.040862127207219601 0.35889899637550116 0.061119561083614826 0.060669523663818836 0.44465204514563084 0.0090424269437789917 1.5233806408941744 0.3576204041019081 0.039884168654680252 0.77815210074186325 0.047898534685373306 0.064207918941973641 0.077765882946550735 0.065220562741160393 0.57580867130309332 0.07544533908367157 0.27478354051709175 4.0137648675590754 0.047918151132762432 0.11920145433396101 0.058310947380959988 68.966278641484678 0.045708510093389942 0.045611042529344448 0.045121671631932259 0.054316931404173263 0.060987528413534053 0.1106013935059309 0.042942862957715988 44.894542425870895 0.23774617351591587 4.4200355680659351 5.8689105203375229 0.055207672528921559 0.14519831351935863 0.043882733210921288 0.044827356934547424 0.039604546502232552 0.052731232717633136 11.837262327782792 0.056046024896204472 0.036400171928107738 0.067703999578952789 0.051859762519597896 0.044966563582420349 0.064229796640573933 0.11084054689854372 1.2878648927435277 0.045493683777749538 0.038344766944646724 0.048043289221823104 3.3957854975014916 0.038518046960234642 0.03925010655075345 0.092582015320658573 0.12754286453127861 0.053490005433559418 0.18049381207674642 0.059543176554143318 0.053597385995089231 0.054017592221498489 4.2397284219041458 19.349166995845746 0.063857784494757652 0.10995279252529144 3.0326219629496327 0.04541709553450346 0.037937495857477077 4.0291157383471718 0.046083576045930386 1.6971712326630948 0.090710924938321003 0.053424391895532608 0.065039102919399627 3.7346605928614736 0.069562250748275711 1.0921887252479789 0.66138213500380516 2.8987706163898102 0.36482262611391192 0.056651773862540611 0.040038527920842171 0.18433967325836409 0.3149726539850235 0.057972215116024017 0.10433428362011909 0.072574098594486713 0.33347895368933678 0.058310947380959877 0.03734455443918705 0.42932148650288582 3.2441579448059197 0.055677890777587891 0.055233752354979515 0.036770106293261051 0.16382142249494791 0.050966087728738785 0.051275565288960934 20.785777758806947 0.98538272269070226 1.2733298698440192 1.3716135015711197 3.1813975842669611 0.19143779948353767 32.042311801575124 2.6779284877702594 0.065426080487668514
leaf_count=1269 5 4 118 4 21218 603 89 2182 4 5 4 5 5 82 9 160 10 5879 7 1117 7 4 5 2 270 27 6 4 7 7 103309 66220 6762 2756 2123 22 8 5 5 9 6 4 5 4 35 1905 8 3 5 6 162 5 4 7 660 7 4 26 6 6 16 1 82 18 4 52 5 6 7 7 18 8 28 370 5 8 6 7378 5 5 5 6 6 11 3 4686 13 451 584 6 14 4 4 3 5 735 5 4 6 4 5 7 12 139 5 4 5 185 4 3 8 10 5 15 5 4 3 343 2025 7 12 198 4 4 400 5 165 9 5 7 335 6 112 68 179 25 5 4 12 27 4 9 6 36 6 4 37 325 6 6 4 8 5 5 1938 62 67 103 312 21 1335 93 5
internal_value=-0.000745318 0.101614 0.156649 -0.0150709 0.0161568 0.184292 0.0584921 0.099327 0.139773 0.193169 0.369247 1.5628 0.186611 0.1597 0.214606 0.337249 0.878876 0.0217533 0.361023 0.124789 0.358672 0.228545 0.32952 0.964086 0.303094 0.310601 0.531443 0.122013 0.532711 0.0500695 -0.0219355 -0.0136228 0.0180447 0.0583732 0.153894 0.572852 1.16723 1.87461 1.28672 0.147182 0.317659 0.247118 1.12307 0.421607 0.642896 0.0598094 0.333395 0.256473 0.268855 0.265231 0.204763 0.172058 0.698612 0.360396 0.0965847 0.563107 0.33773 0.545198 0.760814 1.4567 0.544869 0.364547 0.227703 0.584488 1.82736 0.252417 0.937995 0.116074 0.219068 1.12863 0.196724 0.600538 0.312333 0.161021 0.428158 0.990595 1.75005 0.02842 0.0720893 0.109597 0.149215 0.00480372 0.286242 0.808692 0.360411 0.0293822 0.475799 0.0508068 0.105347 0.0400081 0.280891 1.42568 1.83141 0.567997 0.106136 0.262726 0.909892 2.3996 2.01126 0.177899 0.89911 0.0126822 0.166164 0.32252 0.929201 0.253505 0.216737 0.0381903 0.539916 0.258631 0.376089 1.19619 0.237966 0.867127 0.311555 0.286118 0.198305 0.101469 0.0698615 0.27829 1.00533 0.208515 0.292513 1.04939 0.120221 0.15976 0.219474 0.285035 0.892278 0.255311 0.237093 0.775435 0.180601 0.0519443 0.229263 0.253239 0.446103 0.390787 0.550809 0.336781 1.15571 1.44829 0.786903 0.0604886 0.152864 0.4478 0.337054 0.0983316 0.406162 1.18855 1.92616 0.221434 0.393184 0.0888173 0.0599759 0.235255 0.268488 0.390391 0.0570952 0.474937 0.219064 0.339176 1.00188
internal_weight=2229.49 273.719 162.046 1955.78 352.448 126.472 163.065 69.1569 48.1388 120.512 4.32727 0.11298 116.185 70.769 28.8039 4.21429 0.362715 111.673 3.05342 45.0854 1.61959 45.416 7.51785 0.300565 7.21729 1.58396 0.854438 41.9651 0.266034 58.5156 1603.33 689.196 92.9266 35.5739 28.3901 0.447638 0.22546 0.141739 0.0911141 27.9424 2.58385 2.37577 0.208082 0.796568 0.534724 30.88 0.983769 21.2616 20.3817 20.3271 2.29336 2.21929 0.24693 0.460647 7.54227 0.302728 3.00213 1.04038 0.681485 0.161394 0.520092 0.453694 1.96175 0.438367 0.0807463 0.947204 0.12393 43.4658 5.39825 0.129428 5.26882 0.427995 0.350229 4.84082 0.781446 0.205638 0.117952 93.9081 24.8776 4.05938 0.823274 5.96007 3.85157 0.214532 0.153544 45.1896 0.295047 29.8962 11.9164 30.927 0.192784 0.0824171 0.0966812 0.100274 1.97236 20.2962 0.127624 0.0740776 0.132246 6.04745 0.0968263 69.0305 5.95062 1.53059 0.156334 1.37425 1.33591 30.8718 0.15772 20.1686 3.01746 0.220125 17.1511 0.233984 2.79733 2.73779 0.393571 38.0675 24.8319 1.06862 0.173811 37.8981 7.17506 0.0833546 13.326 9.29693 5.87801 4.18084 0.195101 3.98574 3.9207 0.186042 4.64687 0.729523 16.9171 14.0184 1.19571 1.13905 0.774231 0.571886 0.202345 0.162306 0.256914 23.7633 4.41412 0.688798 0.651454 3.72532 0.481161 0.147682 0.0920039 0.593143 0.141677 33.8278 20.8371 12.8226 2.69854 1.42521 3.41892 0.237521 34.8655 2.82321 0.145279
internal_count=240562 23516 11657 217046 37567 8480 16349 6394 4212 7871 215 10 7656 5725 2065 205 25 11859 178 4034 165 1931 295 13 282 161 86 3660 17 5980 179479 76170 9950 3177 2391 44 22 14 9 2347 224 204 20 80 53 3188 74 1389 1307 1302 196 190 23 45 676 16 173 65 39 15 24 17 108 26 8 70 13 3869 466 13 453 43 36 410 35 17 11 9955 2570 375 57 609 180 20 14 4703 17 3114 1209 2947 18 8 8 9 167 1299 11 8 11 625 9 7385 616 165 17 148 144 2941 12 1288 200 18 1088 20 182 177 38 3403 2565 108 19 1636 278 8 1277 877 539 374 19 355 348 13 230 75 1068 889 92 87 62 45 17 13 18 2457 432 55 51 377 52 16 10 45 14 3060 1943 797 174 107 338 26 1438 103 10
is_linear=0
shrinkage=0.03


Tree=2
num_leaves=164
num_cat=0
split_feature=12 22 12 24 8 106 137 30 8 7 100 17 18 66 15 30 24 80 14 22 8 34 61 83 46 12 102 33 20 10 53 52 22 36 3 7 15 46 111 88 99 15 146 47 20 113 24 131 137 108 51 86 17 41 41 117 134 67 46 18 8 61 18 12 3 4 120 3 41 111 40 14 30 47 3 3 113 46 3 3 128 128 41 143 53 126 53 100 110 61 41 33 127 47 14 136 53 53 123 73 46 35 128 49 80 93 137 46 123 30 89 18 22 24 137 47 127 127 10 53 3 18 137 62 143 108 67 46 60 127 126 24 30 51 22 60 134 49 134 131 22 127 110 123 113 58 131 32 110 127 67 49 143 72 88 33 109 41 4 53 18 14 131
split_gain=3687.07 585.672 381.523 202.349 141.318 128.815 95.8051 94.5357 94.3339 176.532 109.728 145.054 213.785 91.569 147.535 81.3251 73.4156 80.2543 72.9636 93.6498 72.4483 71.1514 70.6793 69.258 71.111 85.1301 129.284 64.5287 61.7213 56.8285 75.3586 56.6215 55.8237 147.109 231.148 95.8217 55.7118 54.9301 119.965 54.2719 53.9433 134.865 53.1825 53.091 52.8157 59.6652 81.174 79.0603 73.6003 111.295 73.0757 69.4616 60.8538 93.7531 184.463 81.585 225.157 59.1796 52.8099 98.148 50.3643 50.059 208.667 143.061 57.364 68.8761 44.1656 61.1688 59.1565 44.0903 58.8261 42.4903 139.701 52.2266 72.8129 90.4108 46.2599 64.2566 69.8457 222.448 43.4409 51.6147 139.927 45.2593 51.8011 49.3427 42.1763 41.957 40.6155 82.7383 39.963 55.4638 116.407 58.426 92.9445 258.636 54.7496 49.4939 228.786 39.5607 87.1037 136.32 241.609 89.7631 85.7844 50.6229 128.385 39.3704 97.6793 39.248 45.4265 106.921 192.238 38.6701 37.8883 68.0212 132.674 37.6254 70.6348 37.7974 37.3438 50.6094 38.1232 62.5631 75.8882 53.8199 52.5361 56.6164 93.9782 107.401 73.5054 37.1877 36.891 36.7372 38.7187 122.186 35.7814 40.8502 75.2535 83.1517 58.0339 45.3712 35.5611 38.9211 35.0073 118.894 54.55 36.6355 53.2375 87.3982 39.5114 110.989 34.1992 33.6512 32.8179 45.9458 37.9641 98.6559 32.5794 55.404 31.8825 50.5066 31.8724
threshold=20.500000000000004 -0.15999694376528115 42.500000000000007 0.041727033061405731 1.0000000180025095e-35 1.0000000180025095e-35 0.010655611020181222 1.0000000180025095e-35 1.0000000180025095e-35 3.5000000000000004 -1.0000000180025095e-35 0.39166051414803688 0.520415881665929 1.0000000180025095e-35 1.0000000180025095e-35 0.069099558174454512 0.083526763983159627 0.25400442972998422 583.50000000000011 -0.43907354672471616 1.0000000180025095e-35 264.50000000000006 6.5000000000000009 0.14480187104658285 5059.5000000000009 66.500000000000014 -3.4999999999999996 54.500000000000007 -0.3810044820396416 9.5000000000000018 0.85760805198241685 -0.58246899210548275 -0.96017762571452459 1.0000000180025095e-35 45.500000000000007 17.500000000000004 8.0000000000000018 5578.5000000000009 -3.4999999999999996 1.0000000180025095e-35 -1.0000000180025095e-35 6.5000000000000009 0.36426587563040957 -0.83282707732248518 -0.19064006238002343 -3.4999999999999996 0.041727033061405731 -1.0000000180025095e-35 -0.05213442673687075 -1.4999999999999998 0.57180604155731085 0.48359769683295495 0.087494855469053681 25.500000000000004 38.500000000000007 61.500000000000007 0.010598317785338653 21.500000000000004 4544.5000000000009 0.8005468497783973 1.0000000180025095e-35 2.5000000000000004 1.0000000180025095e-35 1.0000000180025095e-35 39.500000000000007 76.500000000000014 30.500000000000004 32.500000000000007 8.5000000000000018 66.500000000000014 1.5000000000000002 4453.5000000000009 0.17194819555118099 0.086734612783312834 30.500000000000004 27.500000000000004 -7.4999999999999991 2312.5000000000005 43.500000000000007 54.500000000000007 0.0040876057196426044 1.0000000180025095e-35 8.5000000000000018 -0.041031372330557432 0.14334707309794634 0.20110677864831678 0.35777845843038847 -1.0000000180025095e-35 -7.4999999999999991 6.5000000000000009 4.5000000000000009 60.500000000000007 0.42216730150188903 0.39074700364695553 375.50000000000006 -1.0000000180025095e-35 0.10753392069290904 0.64348736876876367 -0.02011621051677907 8.0000000000000018 5313.5000000000009 6.5000000000000009 0.0040876057196426044 1.0000000180025095e-35 -1.0000000180025095e-35 1.0000000180025095e-35 -0.071322773143424875 5313.5000000000009 0.49564314429720518 0.72420112936041858 0.8964522330875947 0.15978269208798065 -0.039981500462251053 0.45821216794629899 -0.21935588657194102 -0.50037358755772698 0.42216730150188903 0.30375997648867509 1.0000000180025095e-35 0.78643687972807641 79.500000000000014 0.44048243412997645 -0.071322773143424875 1.5000000000000002 -0.0090466043766350129 5.5000000000000009 3.5000000000000004 1147.5000000000002 0.44872885891062769 0.0069154795559122758 -0.020513539238283803 0.33296775783611637 0.034549779087227256 0.14416895165100294 -0.88063374582968545 0.034900567823518705 0.059559412410078012 0.14315239143233141 0.018030430054979122 0.024981119547643742 -0.039981500462251053 0.61281481894092238 -5.4999999999999991 1.0000000180025095e-35 14.500000000000002 1.0000000180025095e-35 -0.088583489226340892 1.0000000180025095e-35 5.5000000000000009 -0.0068988651419349947 4.5000000000000009 0.035688268567355332 -1.0000000180025095e-35 1.0000000180025095e-35 0.32165689830021243 66.500000000000014 1.0000000180025095e-35 11.500000000000002 293.50000000000006 0.53596612689528167 0.19961538654106364 2519.5000000000005 0.25084887584547938
decision_type=2 2 2 8 2 10 8 10 2 8 8 10 10 8 10 8 10 8 10 2 2 10 10 8 8 2 8 10 10 8 10 10 2 10 2 10 8 10 8 8 8 8 10 10 10 10 10 8 10 8 10 8 10 10 10 10 10 10 10 10 2 10 10 2 2 2 10 2 10 10 10 10 10 8 2 2 10 8 2 2 8 8 10 10 10 10 10 8 8 10 8 10 10 10 10 10 10 8 10 8 8 8 10 8 8 10 10 8 10 8 8 10 2 10 8 8 10 8 10 8 2 10 8 10 10 10 10 10 10 10 8 10 10 8 2 8 10 8 10 10 2 8 8 10 10 10 10 8 10 10 8 10 10 10 10 8 10 8 2 10 8 10 10
left_child=1 7 3 15 6 8 44 22 9 16 11 -11 -13 14 18 20 17 28 -9 -20 40 -22 60 24 109 26 -26 -24 -4 154 58 -30 33 34 -17 42 120 38 -28 133 88 69 -35 -38 57 48 47 52 49 -46 -49 71 53 55 -55 61 -57 -3 -31 -60 131 62 63 -47 65 -64 -63 -68 160 -42 -71 73 142 74 75 -51 -76 78 -78 -80 81 83 -83 84 -75 158 -40 -41 89 -2 91 97 93 94 -93 96 -96 -50 -99 -29 -101 103 -103 104 -102 -105 -107 108 -27 110 114 112 -112 132 115 116 -7 -48 119 -119 122 -122 123 125 -125 126 -15 128 129 130 -128 -1 -8 134 135 -5 137 138 144 140 -140 -139 143 -73 147 146 -146 150 149 152 -33 -152 -149 -106 -18 156 -156 -158 -85 -160 -69 -162 -131
right_child=2 4 5 39 -6 23 113 13 -10 10 -12 12 -14 36 -16 32 29 -19 19 -21 21 -23 27 -25 25 107 37 99 31 30 -32 136 -34 35 -36 -37 43 -39 86 87 41 -43 -44 -45 45 46 117 50 90 51 -52 -53 -54 54 -56 56 -58 -59 59 -61 -62 66 64 -65 -66 -67 67 68 -70 70 -72 72 -74 80 76 -77 77 -79 79 -81 -82 82 -84 85 -86 -87 -88 -89 -90 -91 -92 92 -94 -95 95 -97 -98 98 -100 100 101 102 -104 105 153 106 -108 -109 -110 -111 111 -113 -114 -115 -116 -117 -118 118 -120 -121 121 -123 -124 124 -126 -127 127 -129 -130 162 -132 -133 -134 -135 -136 -137 -138 141 139 -141 -142 -143 -144 -145 145 -147 -148 148 -150 -151 151 -153 -154 -155 155 -157 157 -159 159 -161 161 -163 -164
leaf_value=0.17779177633571855 1.105375057008035 0.02608558582978962 -0.012500203060810235 1.7210326812143468 -0.014797799892340589 0.20891156494458055 0.067695287029061801 0.17220594906985459 -0.027410684142930408 -0.030271067698528446 -0.020216716265951628 3.3877696970403401 0.45568274758880317 0.048763221236607569 1.6856824166698283 2.6261592447544162 0.00093234843952956124 0.0065358023032030151 1.6855301807976726 0.26149947876170893 -0.0088121340816703381 1.0897376631464692 0.092379736946319027 0.014236793576133992 1.8972907964924042 0.13987939341013544 1.8831919992278268 0.14048800353334964 0.023454653271415677 0.082013686263063115 1.6015306357388401 0.12551862359040197 0.031022292322870335 0.00021116981994564413 0.25149418694312353 1.6237318448498799 1.2211918459390112 0.1038510231862739 -0.030286969426112285 0.31146866052989636 0.093722971209255185 1.5675786871289474 0.88148027261451034 0.21134018863600665 1.10922263824262 2.3860484878600596 0.025467324024376604 0.059790534653736481 0.08764108994940438 -0.030354066923397763 1.2456985761690953 1.4724972218046437 0.10223500271447103 2.5471564798947135 -0.030338050251894934 0.36711852386676574 2.7211687049693487 0.97256541999893842 -0.030294816161150009 1.7954433473234315 0.0062413208557517749 0.11336146696670943 0.21212206048418905 0.44485282068771365 -0.030408687547622618 1.4434378719857199 1.1391606293603236 0.12633679225846062 0.86648868550914038 -0.030325200171022779 1.2277962472590893 1.0847822708424362 1.7569032432053844 1.245596228135597 0.14234263202213901 1.4707466257211772 0.19290681432672127 0.15003424720247258 2.1358964684878434 0.21345802144226619 -0.030312754353920026 -0.030313734905698147 2.2661929770870466 0.040282938248669305 -0.03029589038303003 0.95106536258544583 0.97175454918533088 -0.019259691068626357 0.20085689066325946 -0.030417966935780583 0.012733552308182497 0.1567880505400788 1.7768975106272606 -0.03030474393933744 1.3033844543563615 -0.030340197483079558 2.7168009570724871 2.286981135787721 -0.030302059784144082 0.026673008247547411 -0.030369222313030197 2.5134118922408364 0.25153288280218744 0.19708281148794932 2.0296948561609249 1.4569830246415332 -0.030338342605738755 0.043785138300508994 1.5800495045841925 -0.030271965513181936 -0.030274853019491985 0.086082040999697795 2.3027536593115925 -0.0259310373029898 0.036947410928564225 0.13052223986028266 1.9054120987173837 0.11368508903737702 1.3900041846411273 0.82770364245831496 1.4822950272581203 -0.030306172177011013 0.048273829235489139 0.24679941781046708 1.6199768988413379 1.0397006573597627 0.88509700470714636 0.14749176985603471 -0.030337128213173786 0.16812655430647069 2.4218535005478237 -0.0030639568571869278 0.0090570440743877618 0.0045533858472647385 0.044778520516508082 -0.03027904398707745 -0.0015873753226760237 0.11459595860286309 1.3585354803922769 2.0219801602402465 -0.030320270417593515 0.37791907508199346 0.080411853579551967 -0.030335679752482452 1.0884503669505567 1.9812113427072364 -0.03032228082681589 0.96876739943492085 -0.030372520354183048 2.0118649505623161 0.11792620779439462 1.4331184559179433 -0.030326642736965368 1.0084902803755824 0.049840001933380569 0.90113206641260035 1.5253532952342401 0.11869812728706668 -0.030312568172175938 1.4583149010092948 0.18825359151125956 1.1519294335954127 0.99262264407899459
leaf_weight=75.794435183517635 0.13203514833003283 9.5437670098617637 3.3052050396800068 0.051388829015197923 21.278108844533563 0.12542572990059853 32.661239119246602 1.0267468011006711 1009.6304734619334 0.12420413922518492 554.58083425555378 0.035107862204313278 0.061734477989375591 5.2506694765761441 0.069928395561874024 0.056466313078999408 82.470195739530027 13.780440459959211 0.069934459403157234 0.10245314519852389 5.5894952127709976 0.053570896387100109 23.655135346576571 24.889725030399859 0.062254787422716618 0.17542903777211871 0.062700642272830009 7.6627828236669275 3.2946227407082924 0.52943547908216615 0.036768950521945953 2.0720983818173386 52.57916693110019 0.98344850167631992 0.10641950555145741 0.036275496706366428 0.047940025106072759 0.22247075289487839 0.10273082647472609 0.34674375038594007 19.457585973665132 0.056322926655410721 0.065750740468502045 2.0685743233188978 0.13150132168084383 0.074490040540693303 14.998780922964217 8.615309183485806 4.25339243467897 0.056553264148533233 0.047019389458001437 0.039925385266542324 4.0020896373316646 0.046556429006159195 0.053944653831422329 0.22637807670980681 0.043612518347799778 0.059828187339008632 0.057313475757837296 0.0492906104773283 1.6184005280956615 3.1111602261662483 0.12372634653002024 0.063123058527708054 0.36263811681419611 0.061064836569130421 0.076956065371632465 0.95558026246726513 0.13371208496391762 0.062864068895577385 0.071479488164186478 0.080672189593315125 0.067144190892577171 0.070483999326824809 1.1990536600351334 0.099902796559035778 0.1341505981981751 0.32930557895451784 0.096940655261278152 0.12278180662542582 1.1954081105068324 0.061117054894566425 0.03919018991291523 1.2643927028402684 0.048238915391266346 0.061138281598687283 0.059816049411892891 78.884331192821264 3.4407437592744832 0.10256096534430981 2.7853987952694306 0.3184154825285076 0.049797683954238892 0.32707308791577816 0.044986607506871223 0.11036311648786068 0.054602310992777348 0.051784438081085682 0.14775656256824632 1.036395655013622 0.058700196444988251 0.070760239847004303 0.1064317524433136 2.0846390649676336 0.043686243705451377 0.10084422212094069 0.10835860483348358 0.80522631201893102 0.055888853967189789 2.1963270362466574 0.06286770012229681 0.25748060457408428 0.064293897710740455 6.8649632036685935 2.6617811545729646 0.74311942979693413 0.061993631534278393 1.4560085292905558 0.042243607342243084 0.069929229095578083 0.039666793309151127 0.03996585588902235 18.55334660597147 0.10792082361876965 0.054519549943507495 0.056072193197906794 0.06551781203597784 2.6868415428325534 0.19505956210196018 0.15061726607382298 0.048934884369373655 1.0372428148984898 13.709063335321842 64.425654482096434 23.907150543294847 0.11860345676541328 1.0321672316640622 5.7438624668866396 0.04320038203150034 0.043852868489921093 0.07255329843610514 0.65618061739951272 0.26669002510607231 0.04328447487205267 0.053629832342267036 0.044741487130522728 0.14602466486394394 0.060027830302715302 0.092913963831961155 0.044070009142160305 0.19529135804623354 0.081995990127325058 0.063404932618141174 0.086631533689796925 2.2330000391229987 0.064418230205774196 0.057853573933243641 0.20000704191625118 0.050939682871103176 0.040305654518306255 0.13723111152648904 0.076085316017270088 0.058619847521185875
leaf_count=3195 7 903 326 5 2264 14 3070 44 117201 14 62645 4 7 388 6 6 8736 1336 6 5 615 6 1390 2756 7 13 4 427 265 40 4 79 5068 103 9 4 4 17 11 11 1542 5 2 31 7 6 1413 689 282 5 4 4 217 4 5 18 4 6 6 4 136 222 11 5 30 5 7 76 7 6 3 5 7 3 52 6 9 16 8 8 118 6 4 106 5 6 2 8840 87 8 266 21 4 33 4 10 5 5 15 75 5 6 10 70 3 7 10 75 6 247 7 25 7 707 276 64 7 119 4 7 4 4 1497 6 3 5 4 181 18 9 4 70 1416 6885 2413 13 85 405 4 4 7 16 16 4 5 4 14 3 8 4 5 7 6 7 199 7 6 14 5 4 12 3 3
internal_value=-0.000970481 0.101557 -0.0154143 0.0191656 0.0560378 -0.0204699 0.069585 0.143408 -0.0216156 -0.0129001 -0.0199504 0.64832 1.51864 0.0966978 0.346206 0.0575411 0.020668 0.0603718 0.268093 0.839202 0.098072 0.00161665 0.156043 0.0385856 0.117089 0.299004 0.61633 0.120602 0.103895 0.00638625 0.281016 0.131893 0.0357298 0.234004 1.0747 0.107849 0.0859366 0.438214 0.768454 0.000223236 0.121409 0.101677 0.0554381 0.234214 0.0962501 0.108997 0.0881392 0.131855 0.162167 0.246962 0.0662277 0.225838 0.191392 0.255727 1.16367 0.238971 0.747376 0.0319819 0.204678 0.813873 0.171862 0.21245 0.451327 1.49562 0.188812 0.619014 0.176011 0.317295 0.268741 0.0974625 0.639077 0.216496 0.492822 0.19052 0.306296 0.928152 0.254605 0.451638 0.732304 1.06163 0.107152 0.207608 0.866935 0.164538 0.727182 0.117389 0.338457 -0.0178123 0.226898 0.608828 0.104907 0.152823 0.366895 0.284815 0.479881 0.969888 2.07833 0.109304 0.571074 0.179373 0.259981 0.350881 1.1548 0.293509 0.921892 0.241729 0.686611 0.142882 0.48784 0.0715166 0.127731 0.437586 1.14932 0.0405213 0.0945533 0.259334 0.770071 0.0400861 0.179906 0.146406 0.0744442 0.723154 0.0725469 0.124462 0.707676 0.113332 0.107189 0.20289 0.489823 0.803278 1.54215 0.17535 0.0503593 0.0163693 0.0479865 0.499144 0.166093 0.184478 0.275547 0.909481 0.488014 0.141594 0.275553 0.695394 0.240097 0.58343 0.270195 0.207946 0.545553 0.865019 0.170524 0.506839 0.455553 1.35083 0.0042131 0.110097 0.0896398 0.434295 0.079791 0.627256 0.200363 0.531976 0.399117
internal_weight=2240.79 276.695 1964.09 250.528 132.537 1713.57 111.259 144.158 1680.96 671.326 554.802 0.221046 0.0968423 30.6933 1.26906 82.7942 116.525 30.8263 1.19913 0.172388 28.9667 5.64307 113.464 32.6095 7.71981 1.54652 0.509973 35.0144 17.0458 85.6983 0.672809 13.7406 53.8275 1.24836 0.162886 1.08547 29.4243 0.447718 0.225248 167.734 23.3236 19.6483 1.0492 2.11651 58.0239 48.4203 34.7776 18.2107 13.6427 5.49912 8.66233 5.36762 9.54835 5.54626 0.100501 5.44576 0.269991 9.6036 0.63604 0.106604 78.4501 5.17577 0.685042 0.137613 0.547429 0.184791 4.49073 1.37956 1.30261 19.5919 0.134344 5.32769 0.457791 4.8699 2.03869 0.156456 1.88223 0.683179 0.353873 0.219722 2.83121 1.63581 0.100307 1.5355 0.118723 1.41678 0.162547 79.2311 3.67534 0.234596 8.14357 5.35817 0.905238 0.855441 0.528368 0.209952 0.0995889 4.45293 0.199541 11.3592 3.69645 2.66005 0.177192 2.48286 0.189018 2.29384 0.209203 1.03654 0.231318 6.17329 3.97696 0.384642 0.127162 53.2353 3.59232 0.930539 0.187419 16.567 1.56818 1.52594 27.3078 0.0796326 27.2281 8.67477 0.16244 8.51233 8.45626 3.20559 0.518749 0.32369 0.114453 76.8317 46.3703 88.5028 24.0771 0.169992 10.446 9.41385 3.0138 0.159607 0.115754 6.40004 0.390647 0.123957 2.8542 0.244396 0.199654 2.6098 0.260417 0.167503 2.34939 0.277287 0.123433 0.130318 85.0255 2.55528 2.49086 0.257861 1.35564 0.0912453 1.1689 0.213316 0.209237
internal_count=240562 19916 220646 25638 12283 195008 10019 7633 191470 74269 62670 25 11 2222 61 7471 11599 2583 55 11 2279 621 5411 3538 782 135 41 2010 1247 9016 54 921 5192 124 15 109 2161 34 17 18167 1658 1556 105 35 4826 3917 2868 1325 1049 404 693 397 632 415 9 406 22 909 50 10 3401 384 57 11 46 16 327 105 98 1551 9 393 32 361 104 11 93 41 25 16 257 139 10 129 8 121 13 8851 102 15 645 379 77 73 40 19 9 302 20 620 193 118 16 102 15 87 17 94 19 647 400 39 14 5193 361 85 21 1543 130 126 2126 8 2118 621 9 612 607 219 38 20 8 3265 4486 9316 2431 18 656 571 150 15 11 421 25 9 135 23 19 112 21 13 91 12 9 10 8962 226 219 20 115 9 91 15 12
is_linear=0
shrinkage=0.03


Tree=3
num_leaves=164
num_cat=0
split_feature=53 30 8 30 27 5 1 99 8 118 127 44 89 135 33 78 98 8 79 137 108 81 46 128 136 126 135 29 41 31 79 1 70 82 14 46 125 5 149 5 127 47 124 140 46 29 95 128 143 129 126 138 124 3 137 30 41 14 79 70 82 137 87 81 124 103 76 137 147 82 3 14 46 116 135 14 79 44 84 128 79 122 82 56 116 122 3 106 81 79 81 92 76 63 3 112 137 135 46 31 137 125 27 5 14 27 79 149 129 56 112 10 79 81 84 81 78 30 138 116 125 81 112 127 135 126 76 128 112 127 82 14 112 10 14 82 136 108 138 99 1 124 103 3 3 103 29 124 47 33 43 3 74 63 128 129 47 84 149 125 5 14 92
split_gain=2158.64 743.559 397.088 532.601 233.505 199.374 193.133 132.374 132.239 123.813 99.0453 88.801 75.9859 75.4166 71.1624 70.3271 60.5716 55.5582 54.8079 53.6338 61.7523 67.5502 56.3398 189.057 85.622 52.2495 79.2051 50.1275 49.6474 49.0563 58.384 62.3317 91.9245 104.07 52.3034 133.883 48.7611 46.2915 46.0599 43.4369 57.1709 43.1657 49.5268 43.1255 112.64 104.603 132.467 156.536 43.0857 42.7816 42.6679 69.5854 89.6071 170.437 44.7794 59.879 42.0298 55.8883 116.691 41.4344 40.8681 42.4027 40.6931 46.9426 38.5065 77.4543 38.1893 37.5971 41.7976 140.243 51.612 37.223 36.0031 141.727 35.2516 34.7317 65.4423 61.9706 34.2815 62.9074 52.583 91.9574 33.6803 36.9365 35.8733 111.621 160.879 33.5447 36.6656 33.424 41.9602 98.3333 60.0889 42.2824 97.7817 90.0658 64.3923 49.8262 37.1225 43.0495 114.171 39.4354 33.0468 49.9127 43.4002 39.9088 32.4592 76.4196 36.3756 47.4695 221.242 32.2225 63.5511 49.5382 42.8619 41.7386 76.4851 32.0338 32.9637 55.222 141.312 40.3861 121.684 36.6608 72.6205 31.6676 31.6657 43.6718 66.8644 69.9388 38.0212 94.0005 40.7041 35.0034 33.8144 115.897 32.1549 31.0422 93.9561 30.7305 30.5711 106.378 35.2344 32.2037 30.3876 38.0858 90.1627 34.0653 69.6684 84.7702 35.9331 30.228 51.1257 33.6489 136.553 48.7619 33.7684 31.7235 30.8511 60.3085 33.342 38.5349 87.2311
threshold=0.071999739585150921 0.10300930425741402 1.0000000180025095e-35 0.13741047282779587 0.10025912346825767 7.5000000000000009 202105.50000000003 -1.0000000180025095e-35 1.0000000180025095e-35 8.0000000000000018 0.42216730150188903 202.50000000000003 0.17262189636824379 0.023932578361468591 34.500000000000007 0.44250416211926563 -1.4999999999999998 1.0000000180025095e-35 0.25074037183311643 -0.05213442673687075 -2.4999999999999996 0.50201422640136006 6944.5000000000009 1.0000000180025095e-35 0.2447574053204529 0.56765199771401742 -0.15511033381812075 0.10280363777648698 6.5000000000000009 5.5000000000000009 0.25074037183311643 202103.50000000003 1.0000000180025095e-35 1.0000000180025095e-35 1384.5000000000002 1892.5000000000002 0.09105676115539367 7.5000000000000009 -0.15191374269079483 11.500000000000002 0.035644927320495019 -0.83282707732248518 -0.04629093122716043 -0.021826102349028261 1892.5000000000002 0.20660999918951159 1.0000000180025095e-35 -0.032179302301887029 -0.12200168376016257 -0.16503656433131017 0.0061360287959877366 -0.012927021084110256 0.040374021227910763 49.500000000000007 -1.0000000180025095e-35 0.034549779087227256 2.5000000000000004 472.50000000000006 1.0000000180025095e-35 7.5000000000000009 -0.9577712233145409 -0.071322773143424875 0.24121083025711412 0.25344389976080078 0.040374021227910763 30.500000000000004 935.50000000000011 -0.071322773143424875 -0.14667431635955189 -0.58124734524542199 58.500000000000007 2288.5000000000005 3543.5000000000005 30.500000000000004 -0.12602944375780836 2748.5000000000005 0.89373800578109697 2966.5000000000005 1.0000000180025095e-35 0.17626721581530544 0.03603834458140432 -0.015543782537186931 -0.083821032130818193 0.20747597430868722 29.000000000000004 0.17386897492865239 50.500000000000007 1.0000000180025095e-35 1.0000000180025095e-35 0.67885026258317838 0.14618161811306038 -1.0000000180025095e-35 1503.5000000000002 36.500000000000007 41.500000000000007 -1.0000000180025095e-35 -0.21935588657194102 -0.15511033381812075 932.50000000000011 9.5000000000000018 -0.16668546378381263 -0.067778835169694282 0.03312439817793085 5.5000000000000009 2748.5000000000005 1.0000000180025095e-35 0.89373800578109697 0.15735470778726088 -0.16503656433131017 0.51741611106392627 4.5000000000000009 1.0000000180025095e-35 0.03603834458140432 0.14618161811306038 0.66778545735463191 0.46637367464414226 0.92076189098584837 0.27549564787069986 -0.01898824915287815 29.000000000000004 0.09105676115539367 0.18211802096142432 -6.4999999999999991 0.22863167562815731 0.014420985765415619 0.20110677864831678 2310.5000000000005 0.015156293837738808 -6.4999999999999991 0.024731744767295592 -0.62305512326721224 583.50000000000011 -1.4999999999999998 1.0000000180025095e-35 375.50000000000006 -0.083821032130818193 -0.34226491765642364 1.5000000000000002 -0.10077927032532928 -1.0000000180025095e-35 202106.50000000003 -0.012352107139879496 -1.4999999999999998 30.500000000000004 32.500000000000007 -1.4999999999999998 1.0000000180025095e-35 -0.061363671946931424 1.0000000180025095e-35 27.500000000000004 6.5000000000000009 60.500000000000007 763.50000000000011 62.500000000000007 0.015156293837738808 0.01403573643531897 0.47838901644996701 -0.7981877425412085 -0.11354163410864655 -0.0029704480175178345 6.5000000000000009 290.50000000000006 -1.0000000180025095e-35
decision_type=8 10 2 10 2 2 2 8 2 8 10 8 10 10 10 8 10 2 8 8 8 10 10 8 10 10 10 10 8 2 8 2 10 10 10 10 10 2 8 2 10 8 10 8 8 10 10 10 8 10 10 10 10 2 10 10 10 8 10 10 10 8 8 8 10 8 8 8 8 10 2 8 10 10 10 10 8 8 8 10 10 8 8 8 8 10 2 8 8 8 10 8 8 10 2 10 10 8 10 2 10 8 2 2 10 2 8 10 10 10 10 10 10 8 10 10 8 8 10 10 10 10 10 10 10 10 10 10 8 10 8 10 10 8 8 8 10 8 8 10 2 8 8 2 2 8 8 8 10 10 10 2 10 10 8 8 8 10 8 10 2 8 10
left_child=1 4 3 5 8 7 -6 19 11 15 14 -1 13 37 27 17 -16 28 64 20 21 -2 -21 24 -24 75 -27 29 39 30 31 34 33 56 -9 -36 139 38 -13 67 -41 42 -8 44 -40 46 47 -46 59 -12 -39 52 54 -54 55 125 57 58 -33 -7 -45 89 63 74 -5 117 -51 68 69 70 -3 -49 -38 -74 -18 -22 77 -77 79 80 81 -31 -30 84 85 -84 -87 -10 -89 126 91 92 -91 -93 95 -95 -97 -96 99 101 -101 -99 103 104 -32 -105 108 -108 109 -70 -111 115 -113 -114 -115 116 -68 118 -66 120 -120 122 -121 124 -124 -52 -62 133 129 -129 131 -130 -133 -128 135 -132 -135 -86 -139 -15 142 -142 -53 -144 145 146 -63 148 -147 -150 -149 158 153 154 157 -156 -157 -153 159 -146 161 162 -160
right_child=2 9 -4 18 6 48 41 10 87 -11 49 12 -14 36 16 -17 62 -19 -20 22 25 -23 23 -25 -26 26 -28 -29 82 78 102 32 -34 -35 35 -37 72 50 43 40 -42 -43 -44 60 45 -47 -48 71 -50 66 51 140 53 -55 -56 -57 -58 -59 -60 -61 61 144 -64 -65 65 -67 111 -69 106 -71 -72 -73 73 -75 -76 76 -78 -79 -80 -81 -82 -83 83 -85 137 86 -88 88 -90 90 -92 93 -94 94 97 96 -98 98 -100 100 -102 -103 -104 105 -106 -107 107 -109 -110 110 -112 112 113 114 -116 -117 -118 -119 119 121 -122 -123 123 -125 -126 -127 127 128 130 -131 134 132 -134 136 -136 -137 -138 138 -140 -141 141 -143 143 -145 151 147 -148 150 149 -151 -152 152 -154 -155 155 156 -158 -159 160 -161 -162 -163 -164
leaf_value=0.041881977579666607 1.1309198234959783 0.78806118627118094 -0.026828513511139424 -0.00021214223836997848 0.002255442785029461 0.11491276355755499 1.0959428368701927 0.07837317326263632 -0.0070055987621217746 0.19827229919487466 -0.030376724133531555 0.037368973431596821 0.054233391881630733 0.17616022149157334 0.98615941464875734 -0.01140275123739134 0.1308757245811141 -0.022386478402469847 -0.019773964833413434 0.064209781349293657 0.1306521364161978 -0.030396954973971935 2.5306487814414891 0.07049002927869609 0.67286600176691846 1.6596095959567914 -0.030380371512975075 -0.018756552794921499 0.002081328904387158 1.6282899611050623 0.16589234931765917 -0.030313886597275526 1.3541020009122613 1.5896559215312689 1.6296774574713451 0.1211244443763108 0.17307566067481978 0.056286624130301652 0.10285787937215517 1.6727348494136467 -0.030273321591940513 0.13261317353947319 0.28780442051247507 0.19192205068436061 2.1563798602574926 -0.030352714881904368 2.5049196104099698 0.87557949079880681 -0.0027933348902765176 0.05395126623048481 -0.030325790056433398 0.70252289574792071 2.6665745545359618 -0.030313562443054262 -0.030321291797662624 1.3755888202339734 0.039762949815692027 0.25439772951767853 1.9083002045364976 0.88144951889886047 0.13765127491291623 1.6128317351684727 -0.011430493296780812 0.015679474666501273 0.022414219785935222 1.3082014620790681 0.17482388863910553 0.044120761678992738 0.17567934490881748 -0.03030488059768106 2.3712818006641578 -0.030333088643608723 2.1315461340579929 -0.03030840304492869 0.047721564681404191 1.0459555718662177 1.1431368927953316 0.20970085871318442 0.020500499384253718 0.94976090900600985 0.040640693308566074 -0.030296191313477987 0.10078302670868546 -0.0094166652544411308 0.062210433484886231 -0.030273223958275381 2.048628470551348 0.95312660807796701 0.15192160277948644 0.52808747752361174 0.011970057787739371 0.012279748812525183 1.5524489556684131 -0.030518388141942222 0.88865463096434805 0.30520132815748902 1.2682722203904744 0.81564212931413482 0.10893807551355079 -0.030485326938393516 1.6445046553882485 0.22088732426262639 0.0029001987792130809 0.070940746048999262 0.75655489337194759 0.76081852327154909 0.1774599697916254 1.2974941222213381 0.071428619199482984 -0.030513336576271637 2.3841328599977598 0.16768979790957853 1.483292076026296 0.18534976639019246 1.0450089682580954 0.021077847365486759 1.1172456286382344 0.0261325330596297 2.3855979987597822 1.8273720764836296 0.24514390818346243 0.064348200016910412 1.3620192222474383 -0.030298947247592058 0.16282930706496276 0.78149117018095593 0.06500650427299827 1.5486447250019633 1.2072012698568397 0.30785486276834229 1.4316657171705403 0.841911942821022 0.19129009226244606 0.83371871596510128 0.1549094409819618 -0.031481583623997549 0.20635378424262787 1.3628063149257426 0.16081801871272319 0.0099299637955784399 1.5586020476018752 0.1916362658844448 1.1238990966972595 0.063524137367647796 -0.030388790233079981 0.19121510506622455 -0.030456293357748774 0.14734944863529043 -0.030408130524118428 1.450738040158575 0.83362004793152833 0.58159893668568774 0.095169631795090651 0.19138321722535206 0.53177180016980041 0.91697391035861742 1.9014665373332804 -0.03040251854221147 1.1750948944096455 1.1187803307608131 0.060901532865526825 0.11586042650866532 0.18621609660401905
leaf_weight=12.016123019158838 0.12911836989223957 0.036659388802945614 1032.3338262317702 49.67650908883661 33.83286052942276 1.8342829048633573 0.079895965754985809 1.9019872797653112 8.991520516574381 3.209480374120175 1.5121183153241862 3.488274659961462 12.093379914760588 1.1421215906739224 0.059027794748543694 72.696115116588771 5.3635750589892259 15.207231961190699 484.86257713381201 6.5950933983549458 4.3712777961045504 0.069257998839020729 0.046857875771820434 0.29363891575485468 0.042649520561099052 0.053252635523676872 0.046976475976407417 5.1924336589872828 27.714852257631719 0.054261551238596439 5.5563406525179806 0.050943977199494728 0.086654079146683216 0.055557639338076115 0.07226029410958279 0.1981119504198432 1.3058260036632408 10.593993850052355 0.6656341357156631 0.035231860354541733 0.035736654885113239 10.653990191407498 0.46828738879412413 15.299695338122545 0.054872951470315456 0.11096249520778656 0.047331910580396652 0.066203493624925724 98.678856576792896 3.514696731232104 0.10441319458186626 0.081866559572517872 0.044494842179119587 0.040094763971865177 0.18600404076278199 0.064014988951385021 0.42813892848789692 0.31319902185350657 0.061897530220448971 0.06574006937444199 23.650542160496119 0.054768026806414127 22.239614107646048 52.622220821678631 1.1201378041878345 0.044827061705290272 6.6784624159336099 16.063259032554932 1.3037931798025937 0.13755297102034092 0.037475505843758583 0.10646906588226557 0.04163057543337334 0.079242991283535957 31.743849429301925 0.083610664121806288 0.076662467792630085 1.7288908986374736 12.87591073848307 0.091788004152476788 0.82021990977227688 0.067523558624086766 0.45750884804874392 4.2948085349053153 6.7793828146532178 0.062542780302464962 0.072151809930801392 0.061010109260677292 0.32655757665634155 0.16097887326031923 0.70381248183548439 0.69015348609536786 0.075808953493833542 0.10866535548120737 0.097912208177149296 0.089336060918867588 0.20786814298480738 0.10633130464702845 1.9190155770629642 0.07493525929749012 0.071638239547610172 1.7792457295581705 3.5776866944506756 15.92333417665213 0.11426025442779053 0.075828164815903487 0.28683318011462411 0.067781699821352959 7.3032466443255553 0.10915318876504887 0.049700913950800896 0.59831822942942459 0.059449994005262852 0.13888263236731291 0.083631772547960281 1.7422527326270936 0.078414876013991441 7.3960482422262439 0.037253455258903112 0.048447736538946629 0.10892369505017996 0.94632063619792461 0.064637179486453311 0.21997200604528189 0.15310082957148552 0.073820007033646107 1.8493780829012387 0.075978639535605907 0.12114953622221947 0.088517129421234131 0.082066905684769154 0.10313819441944361 0.53779293037950993 0.10403530485928059 1.9184439051896331 0.11992030218243721 0.25073738209903229 0.064601540565490723 0.6225896654650559 8.0949672712013108 0.056640970520675182 0.53695788048207749 0.025989214889705514 3.1542682619765401 0.086489845998585224 0.39862596802413464 0.066581287421286106 6.1675543822348109 0.052965722978115082 0.10126939602196217 0.069439886137843021 0.097883111797273159 6.3052414171397686 6.4359401781111956 0.10658971127122641 0.06332541536539793 0.062112484127283096 0.34457211382686903 0.09954486507922411 0.078319369815289974 11.655815485864876 32.351374050602317 0.41492153611034055
leaf_count=1009 6 4 122699 5395 3146 117 5 120 963 69 148 252 696 50 6 7723 373 1762 55221 549 171 6 5 21 3 4 4 549 2839 5 209 5 6 6 4 20 51 707 29 4 4 549 15 636 4 10 4 4 10209 268 10 7 4 4 18 6 43 14 5 3 782 4 2327 5268 96 5 422 1536 81 14 4 10 4 8 2810 7 4 54 1169 6 62 7 45 443 617 7 7 6 19 7 48 33 5 7 6 5 11 5 82 5 4 77 333 1431 4 6 17 7 557 9 5 26 4 11 3 163 6 763 4 5 12 91 6 23 6 3 77 4 5 4 5 5 21 3 77 4 8 6 34 679 5 24 2 205 7 11 5 291 4 7 5 4 264 280 5 4 4 27 8 7 694 1345 30
internal_value=-0.00110848 0.0639984 -0.0143959 0.00101646 0.0990631 0.0340069 0.0380038 0.0522867 0.114429 0.0138594 0.0452546 0.120494 0.126489 0.132496 0.0384523 0.010002 0.0254036 0.0292738 -0.0164315 0.142648 0.204241 0.725476 0.0847558 0.438414 1.64543 0.187984 0.867527 0.0692159 0.0412614 0.0800081 0.102605 0.223985 0.420449 0.331517 0.133874 0.524304 0.0556952 0.138572 0.144784 0.0740144 0.815174 0.145971 0.405588 0.148004 0.339261 0.747093 1.06093 0.760568 -6.87423e-05 0.120589 0.0888184 0.16771 0.496011 1.38827 0.319769 0.588576 0.249685 0.460641 1.03308 0.141435 0.14626 0.139274 0.0248971 0.0339009 0.0106625 0.0639398 0.138293 0.0719432 0.119833 0.536574 1.58839 0.316998 0.218927 0.714265 0.0597408 0.177105 0.284591 0.248277 0.0338455 0.200058 0.127008 0.70869 0.0204445 0.0616417 0.0995113 0.32426 1.08333 0.00477344 0.278046 0.165903 0.229803 0.25829 0.856043 0.23078 0.26463 0.708559 0.978785 0.220132 0.203565 0.292924 0.788171 0.254427 0.0873704 0.101316 0.177794 0.0742104 0.110161 0.391545 0.0987775 0.235335 0.724961 0.169897 0.342676 0.713989 0.508452 0.152002 0.185761 0.0584146 0.146884 0.235201 0.790642 0.178521 0.400762 0.242858 0.518818 0.30591 0.152448 0.21909 0.292673 0.880961 0.259101 0.440845 0.295988 0.117369 0.193782 0.562992 0.390325 0.0816856 0.273815 0.0304835 0.124043 0.322072 0.0880085 0.0721896 0.124943 0.184411 0.711201 0.174996 0.400694 0.942099 0.15499 0.117869 0.157361 0.21251 0.414105 1.00356 1.40446 0.104989 0.106013 0.515711 0.104496 0.119957 0.377556
internal_weight=2245.72 380.638 1865.08 832.748 223.99 288.069 45.035 187.49 178.955 156.648 173.953 169.576 157.56 145.467 159.547 153.438 112.028 80.7421 544.679 13.5373 6.55905 0.198376 6.97824 0.383146 0.0895074 6.36067 0.100229 47.5183 65.5349 42.3259 28.4162 3.16875 0.996391 0.909737 2.17236 0.270372 10.6638 134.803 119.84 25.4664 0.0709685 11.2022 0.548183 116.352 1.05147 0.38584 0.274877 0.227546 100.579 14.4062 14.9626 4.36856 0.512842 0.0845896 0.428252 0.242248 0.854179 0.426041 0.112842 1.90002 115.3 100.001 111.969 89.7296 59.8162 10.1397 12.8941 25.3955 9.3322 0.211688 0.0741349 0.172673 1.4267 0.120874 37.1074 6.26044 1.88916 1.8125 13.9097 1.03379 0.942005 0.121785 40.0684 12.3536 8.05878 0.592203 0.134695 9.37909 0.387568 34.9874 6.0857 5.38189 0.236788 5.1451 4.45495 0.40587 0.297204 4.04908 3.95117 2.03215 0.146573 1.88558 25.2474 21.6698 5.6706 15.9992 9.12051 0.354615 8.76589 1.46265 0.158854 9.37941 0.880283 0.281964 0.222514 8.49913 6.75688 10.0948 2.69879 1.57866 0.146177 1.43248 0.486158 0.43771 0.217738 0.178233 28.9017 5.25116 3.04701 0.164496 2.88251 0.762081 0.640931 2.20415 2.12043 0.201987 0.354773 7.46657 0.687191 9.23709 3.85572 0.593599 3.26212 3.18026 65.0133 6.9112 0.121349 6.78986 0.552861 0.154235 6.23699 58.1021 13.4157 7.11042 0.674483 0.232028 0.125438 0.442455 44.6865 0.164809 44.5217 32.8658 0.514466
internal_count=240562 29234 211328 88629 13440 27002 3715 16673 9725 15794 15839 8737 7728 7032 14788 15725 10784 8002 61627 834 256 12 578 29 8 244 8 4004 6240 3455 2206 223 79 73 144 24 792 6240 5245 2242 8 569 20 4993 61 32 22 18 10329 1051 995 288 45 8 37 19 67 24 10 120 4932 4296 10778 8451 6406 1011 903 2234 698 22 8 14 63 12 3183 236 65 61 1249 80 74 12 3998 1159 716 59 14 988 25 1290 295 247 12 235 202 23 16 179 173 91 9 82 1983 1650 213 1437 676 24 652 95 14 635 44 18 14 591 428 1006 243 147 16 131 40 35 12 13 995 213 125 8 117 31 26 88 86 9 11 657 40 729 243 29 214 207 3006 327 9 318 22 11 296 2679 588 324 44 13 8 31 2091 14 2077 1383 38
is_linear=0
shrinkage=0.03


Tree=4
num_leaves=164
num_cat=0
split_feature=42 25 8 53 21 7 27 8 53 27 25 42 27 78 9 107 51 103 14 107 103 127 127 17 113 29 106 0 74 134 142 127 148 125 134 21 118 40 0 11 29 0 103 11 111 148 77 41 76 142 18 48 60 19 132 90 11 65 125 21 18 79 8 11 5 0 5 82 18 27 125 77 113 76 33 9 121 53 25 11 19 33 41 134 5 103 148 125 34 134 133 94 89 111 17 18 11 108 14 0 14 13 103 42 5 79 132 63 148 14 0 60 113 14 74 21 102 142 108 19 125 82 51 91 111 125 33 91 109 42 5 82 90 7 7 145 102 42 63 91 127 8 7 21 77 88 90 91 142 57 11 77 42 102 134 60 102 17 33 77 48 21 21
split_gain=2388.59 362.584 422.868 350.971 132.716 129.571 121.894 118.875 93.3387 73.2972 70.1436 70.0573 69.6195 60.5275 59.4651 57.6328 56.9659 54.8734 54.5918 50.5515 49.7565 129.998 119.342 58.4538 47.0642 48.187 45.6667 41.6334 40.9343 59.092 39.4832 36.876 73.8107 36.5808 35.85 48.9243 35.32 49.0732 109.837 34.7497 68.5393 33.6053 32.7417 45.5468 32.0416 36.1319 31.9332 103.371 31.6721 31.1378 29.5955 52.3424 48.3983 63.065 97.4786 55.3649 123.874 32.7074 30.8192 68.6322 29.4724 34.4125 29.2788 29.2728 33.7739 55.8918 63.1678 29.1117 49.6327 64.1686 28.8681 40.6013 50.0728 115.638 32.297 57.282 29.9758 47.2075 28.7491 48.9088 28.3928 43.0529 33.6636 37.124 27.5305 27.41 111.685 197.923 27.3358 26.985 29.2724 27.5723 26.5857 26.2203 26.017 38.2379 44.0174 33.2881 30.492 38.6176 33.0204 29.1546 25.5626 91.0727 25.539 65.7903 28.8431 35.9751 75.2505 119.942 63.5846 101.173 28.6624 25.4533 44.8859 62.3094 27.2965 25.3082 79.6353 25.2616 25.2129 24.98 24.9148 40.7128 41.8629 51.2213 80.9849 64.1702 28.8608 50.4038 59.9526 63.9499 41.4736 64.6616 33.7292 67.6083 32.0331 29.7067 24.889 32.6071 38.6295 24.826 33.9252 24.692 24.6545 36.5357 24.623 24.0132 26.7889 57.8485 90.0429 24.0081 43.0393 23.9679 23.7006 23.6653 41.5807 53.4856 44.2416 49.4992 23.3684 31.0818 23.5322
threshold=28.500000000000004 0.069075234896963988 1.0000000180025095e-35 0.035921582135206541 0.14292774089136945 1.0000000180025095e-35 0.10025912346825767 1.0000000180025095e-35 0.10753392069290904 0.03312439817793085 0.20630764044555341 73.500000000000014 0.19924252636798928 0.36258437731309229 1.0000000180025095e-35 1.0000000180025095e-35 0.14416895165100294 -2.4999999999999996 375.50000000000006 1.0000000180025095e-35 -2.4999999999999996 -0.03356776005476763 -0.24531906911415166 -0.49903022500660615 -3.4999999999999996 0.96556796023504954 1.0000000180025095e-35 32032431.000000004 6313.5000000000009 -0.19608006493887098 -0.064563319400145522 0.42216730150188903 0.11538448345984718 0.01930913386220565 0.0043859641385193835 0.85683764427099784 1.0000000180025095e-35 1.5000000000000002 96972446.000000015 26.500000000000004 1.0000000180025095e-35 128193831.00000001 4.5000000000000009 18.500000000000004 -22.499999999999996 -0.068194632372487837 -0.83277375217884775 25.500000000000004 8136.5000000000009 -0.064563319400145522 0.079789781331565182 0.12016478343626598 0.27664014537250553 0.071652178022403534 0.0051663903158184485 0.34579543379218675 34.500000000000007 11.500000000000002 -0.011688567240245416 0.10713706949170131 0.84049149084718333 0.96481898297010849 8.5000000000000018 1.0000000180025095e-35 5.5000000000000009 32032431.000000004 6.5000000000000009 -0.78909226187045822 -0.74927685950413214 0.93328806054428826 0.038789680038606993 0.13115851724903829 -1.4999999999999998 1142.5000000000002 27.500000000000004 1.0000000180025095e-35 60.000000000000007 0.35777845843038847 0.034492841262424738 202.50000000000003 0.82193642235394082 56.500000000000007 6.5000000000000009 -0.082189524148895451 3.5000000000000004 -5.4999999999999991 -0.09021073753437496 0.072357835761923797 289.50000000000006 0.0043859641385193835 0.29221507341114855 1.0000000180025095e-35 0.93095018092659054 -13.499999999999998 0.26110718483142864 0.11976589947694338 3.5000000000000004 1.0000000180025095e-35 997.50000000000011 77430446.000000015 1550.5000000000002 8.0000000000000018 -5.4999999999999991 20.500000000000004 5.5000000000000009 0.14394001073515486 0.0051663903158184485 62.500000000000007 -0.068194632372487837 3190.5000000000005 96972446.000000015 0.55182574804090556 -34.499999999999993 583.50000000000011 570.50000000000011 0.24962897131736209 -4.4999999999999991 -0.064563319400145522 -1.0000000180025095e-35 0.14305507563541428 0.09105676115539367 -0.083821032130818193 0.57180604155731085 5.5000000000000009 5.5000000000000009 -0.11715420465217123 68.500000000000014 4.5000000000000009 1.0000000180025095e-35 91.500000000000014 9.5000000000000018 -0.41517802100226825 0.93141559470301971 17.500000000000004 5.5000000000000009 -0.040637800120590921 1.5000000000000002 49.500000000000007 66.500000000000014 8.5000000000000018 1.0000000180025095e-35 1.0000000180025095e-35 4.5000000000000009 0.071503405935712791 0.78461047480855806 0.9643457869876686 0.69037866953070104 6.5000000000000009 -0.018094069469895911 0.069017143433193401 1.0000000180025095e-35 0.74135665016170282 20.500000000000004 -2.4999999999999996 0.21068098648771272 0.17294297293019201 4.5000000000000009 0.47866963157426773 68.500000000000014 0.088009676472080745 0.92041574431082251 0.071503405935712791 0.17853186822032241
decision_type=8 8 2 10 10 10 2 2 8 2 10 10 2 8 2 10 8 8 8 10 8 10 10 10 8 10 8 2 10 10 8 10 10 10 10 10 8 10 2 10 8 2 10 10 8 8 8 10 10 10 10 8 10 8 10 10 10 10 10 8 10 10 2 10 2 2 2 8 8 2 10 10 8 10 10 2 8 10 10 8 8 10 8 10 2 10 10 10 10 10 8 10 8 8 10 10 8 10 8 2 8 10 8 10 2 10 10 8 10 8 2 10 10 10 8 10 8 8 10 10 8 8 8 10 10 10 10 10 10 10 2 8 8 10 10 8 10 10 10 10 8 2 8 10 10 10 10 8 8 10 8 10 10 8 10 10 8 10 8 10 10 8 10
left_child=3 2 4 5 6 9 18 10 11 14 12 13 16 41 34 33 20 92 -2 141 21 22 -5 -23 25 28 60 39 80 -30 -11 -19 -33 -7 63 -36 -15 -38 -39 40 -28 50 44 -44 45 -22 47 -14 67 -26 -3 52 53 54 -52 58 -57 85 59 -55 61 78 -9 64 -1 66 -66 68 69 -32 -51 72 73 -72 75 -73 77 -74 -20 -80 -18 121 83 -83 -16 86 87 -53 -54 90 155 -92 144 -46 101 96 98 -97 -96 -100 -101 -29 103 -35 105 -87 107 112 109 -109 -110 -112 -106 -104 115 -115 -116 118 -48 -37 -70 -82 123 124 -21 126 127 -126 132 130 131 -130 134 -134 135 -127 -137 -133 -65 140 -140 142 -10 -76 -6 -146 160 -95 149 150 -149 -47 -153 -145 -8 156 158 -158 -17 -160 162 -162 -86
right_child=1 8 -4 7 17 15 154 62 19 30 -12 -13 46 36 84 89 24 31 26 122 42 23 -24 -25 49 -27 27 94 29 -31 48 32 -34 102 35 119 37 38 -40 -41 -42 -43 43 -45 93 151 117 -49 -50 70 51 57 88 55 -56 56 -58 -59 -60 -61 -62 -63 -64 138 65 -67 -68 -69 120 -71 71 74 76 -75 143 -77 -78 -79 79 -81 81 82 -84 -85 146 104 -88 -89 -90 -91 91 -93 -94 147 95 97 -98 -99 99 100 -102 -103 113 -105 106 -107 -108 108 110 -111 111 -113 -114 114 116 -117 -118 -119 -120 -121 -122 -123 -124 -125 125 128 -128 -129 129 -131 -132 137 133 -135 -136 136 -138 -139 139 -141 -142 -143 -144 153 145 -147 -148 148 -150 -151 -152 152 -154 -155 -156 -157 157 -159 159 -161 161 -163 -164
leaf_value=0.12374591734980925 0.033493608612705207 0.033997969210215466 -0.019768789482561274 -0.030338082787130918 0.088467611920781841 0.014807833862509797 0.0020645744933673006 -0.016060517593133813 -0.00080026013091670186 0.13253867067675862 0.0037985199266326129 -0.019177880614487563 0.058450199385644011 -0.0092027264614047023 0.52311564977339498 0.1489029748351102 0.060089607070676468 0.0067424551681378826 0.10883924182667018 0.022075964361120068 0.8702254243252785 2.0904295233953505 1.9361450359911712 0.1482537420087626 0.2584642746571294 0.92072342950731745 0.38728925596564789 0.094034077975679697 2.3479552837726052 0.27570149539547556 -0.030510198293886334 0.068741409055437117 0.90645199660456932 1.3271723009330849 0.0026339063184681508 1.0559211005258049 0.091183819012070358 1.8311332514781897 -0.030317204769822494 -0.030478888911408819 1.6429153561503591 -0.0036909666598592375 -0.030323405001295784 1.3549396332471828 -0.031398399975537714 0.14836103342024012 1.5603876738590297 1.3721974311648937 0.58600522274188815 0.009177511027082896 0.37518514959518617 -0.030275003357303525 0.058639850174924471 1.3084522557218476 2.2111232487349404 0.27727539411742591 2.27800353553125 0.46630064502474394 0.13934461643653967 -0.030271803654743669 -0.030442862489748066 0.71899516043549516 0.87713349112458028 0.14332321794637559 1.3212876885615434 0.063443586815221803 0.19182257119605181 0.0074857626042793193 0.086658333733186849 1.2960993632623348 1.5544913914265972 -0.030301591356754736 -0.030368049042274105 -0.030409860719448782 0.20049677431176008 1.4279196736687985 0.097701128529284961 0.8060663423887775 0.016042033346365097 0.56347012222366011 0.76623934137256422 0.74306266874691218 0.13621321180188734 0.16198941289646301 0.13447004845937346 1.4793810936378706 -0.030316621451447773 1.7974642049792731 0.57539122500705031 -0.0030746123327133213 0.86429235636088775 0.20044519617822995 -0.013084062686843275 0.10674731132903416 0.16093340689414848 0.15082382123870081 0.14240871501797367 0.79658229291106419 0.20608988182801499 1.3151282581572703 0.63321478261889286 0.4886729237691656 0.023730744852416271 0.082505725802415525 0.54682860108944076 -0.030289108931244885 -0.016465728643616586 -0.030288699874062772 0.085570575422022691 2.3645730526903255 -0.03031145948057655 1.9141527660697839 0.0428678630546818 0.1905926713082671 0.58035878879179648 0.96874778196887834 0.077329707358132285 -0.0067413594915109653 0.08519864636869226 0.2600535073769239 -0.030377995128213525 -0.030807215366610224 -0.015684642948303677 -0.017523457994966025 0.14379196010943601 1.371045533458582 1.4621031078769138 1.3782621416485314 1.5658172506720498 0.072003842520094827 1.7062586555908823 0.55384744065126712 1.7236418097050621 -0.030258337470785435 -0.007007307308915329 0.058064876252829335 0.53024323496070846 -0.030272547929642301 0.33945261459561799 -0.030584747655905568 1.1614413961825774 -0.028305949828948889 -0.022954915011027723 0.75032841430166086 0.19362809587741286 0.93579944316192154 0.019307587933648413 0.16453861675285145 0.052172634181181239 0.10916317277114156 1.3889018286834753 -0.030328192971454639 1.2971521225729576 -0.0016294525128101674 0.74585581480977681 0.077879658905924853 1.3062842394732319 -0.030355789308381263 1.0074876638912 -0.03040167756817929 0.037996956894861773 0.33997722600201302 0.044270421710098672
leaf_weight=15.733831766061483 9.812253260985015 15.367870180867614 162.88237514533103 0.043680260889232159 5.2052479982376072 25.736291643232107 15.609777630306777 33.731696279719472 72.055603343993425 5.8811614420264959 27.15779768768698 86.215291275642812 0.33739495929330587 42.625748815946281 0.16150236129760642 2.4754057750105853 10.829672831110651 63.629302565008402 26.288419391959913 7.9685329692438263 0.06660167220979929 0.014145162887871154 0.076278326101601013 0.99518422130495299 0.51499729324132104 0.063040010631085219 0.14355211518704791 6.8379665268585077 0.012613820843398571 0.68177801743149835 0.063560568727552891 6.5999013166874638 0.096039096824824699 0.066284749656915665 5.3263424569740883 0.055235162377357372 1.1925631472840894 0.048344589769840129 0.069603189826011658 0.074622310698032379 0.053784898482263088 8.9646627707406861 0.042150161229073002 0.043312531895935535 1.8950617080554364 2.8290482470765719 0.037719810381531715 0.064152703620493412 0.097233241423963501 28.031373909674585 0.073987867683170672 0.11630769725888968 1.3426916636526582 0.0672000506892797 0.040152754634618759 0.097495662048458942 0.038989551365375519 0.1805704543367036 0.87379803229123365 0.070754790678620338 1.7043060613796104 0.08001396618783374 0.033062014728783562 6.4953297907486549 0.066582684405150583 24.540444298647344 0.1347659882158041 10.890828096307823 10.562000202015041 0.067840797826647758 0.075713115744292736 0.059023425914347061 0.10538132768124164 0.091507497243583202 0.64562309905886639 0.041145514696836472 1.6059742989018562 0.14331819582730532 5.0843066321685901 0.15125385019928206 0.037663458846509457 0.27120816148817539 0.35667664464563131 0.15580090507864952 72.496251312084496 0.039743274450301125 0.42917219456284961 0.098464571870863438 0.098919846117496379 1.0934344567358492 0.10056002624332894 0.12796289566904306 1.6664640242233879 20.15924686845392 0.15643412712961224 7.3332958994433284 0.51478968746960174 0.072554897516965755 0.1266964403912425 0.089163400232791901 0.22564475797116756 0.17273664474487294 7.1499411920085612 0.26218139380216599 0.10372093506156943 0.075021369382739067 4.3230468900874257 0.037705806083977222 0.7712637549266218 0.037580471485853195 0.050204219296574593 0.046285917051136494 4.895511279813948 0.40607026591896733 0.098169839009642601 0.11997328139841557 8.8046848662197572 17.76963690947742 0.25961172208189964 0.1025067251175642 1.9647947968915076 0.58600945211946853 20.576176821254194 9.3653430910781008 0.34348278865218151 0.042817171663045883 0.060306902974843979 0.042597831226885319 0.037591487169265747 0.58420923352241516 0.034551806747913361 0.15387104265391816 0.034209419041871914 0.04232360702008009 2.5776914749294519 0.67355522420257408 0.16003239993005991 0.15967521257698536 0.16156963445246209 0.1065574586391449 0.075499731115996838 802.9084417661652 455.09373935312033 0.038430866785347462 1.5895481836050747 0.06202639266848553 1.7362393550574768 0.14991952385753426 21.939599036239091 2.0971835535019636 0.084545775316655636 0.042792890220880397 0.045197669416666031 5.206192210316658 0.038652216084302249 2.4551118314266205 0.067329517565667962 0.044918267987668514 0.11556534655392159 0.064403265714645386 0.43377076741307863 1.0475973132997749 2.7000806070864192
leaf_count=495 775 1557 19598 4 316 2111 1492 3807 7760 114 2784 9922 26 4615 3 93 790 6218 1371 841 4 1 7 43 16 2 10 372 1 27 4 504 6 4 418 5 58 3 7 5 4 907 4 4 135 143 4 4 3 2654 8 13 121 3 4 8 4 4 39 8 142 5 4 314 5 1454 8 861 591 4 6 6 9 7 35 4 87 6 394 4 4 8 19 13 2195 4 45 7 6 92 6 2 129 1247 8 315 18 6 6 4 8 3 512 15 5 8 455 4 59 4 5 5 462 23 6 4 557 1742 23 3 165 47 2378 1025 28 5 7 5 4 55 4 7 4 5 291 57 5 18 5 6 4 98406 53136 4 92 2 74 2 1601 72 6 4 4 479 4 124 5 4 5 5 19 30 113
internal_value=-0.00119796 -0.0153619 0.013896 0.0663427 0.0496373 0.0926613 0.0783291 0.0355336 -0.0213661 0.105688 0.0472872 -0.00028621 0.05725 0.0195337 0.115287 0.0500503 0.0671263 0.0225023 0.0980955 -0.0239516 0.0895418 0.286437 1.22009 0.175472 0.0442717 0.0933113 0.111003 0.153005 0.0892777 0.313345 0.0629779 0.0137896 0.0807566 0.0373287 0.0906647 0.0180541 -0.0044864 0.148917 0.732657 0.520982 0.729515 0.0471311 0.0850403 0.671729 0.0840234 0.179314 0.0037326 0.268339 0.0456771 0.026841 0.0626932 0.0943991 0.212867 0.3485 1.02104 0.281646 0.848821 0.0658093 0.205134 0.621842 0.0910778 0.097631 -0.0151859 0.0990807 0.0893811 0.0675278 0.565318 0.0434461 0.0743856 0.654401 0.0235315 0.0737495 0.189991 0.687192 0.0345154 0.568679 0.145163 0.451644 0.0960539 0.0318571 0.076563 0.203326 0.351349 0.531049 0.131832 0.0592494 0.249174 0.807671 0.0940981 0.132941 0.160224 0.492567 0.0943905 0.0778861 0.146561 0.181788 0.345763 0.15715 0.520838 0.64836 0.826354 0.103758 0.07161 0.333681 0.0474671 0.492513 0.0424915 0.0853834 0.255338 1.16515 0.176403 0.90244 0.0533237 0.0664177 0.0987873 0.368064 0.0828765 -0.00214842 0.272343 0.538736 0.0683015 0.0173262 0.00811784 0.0300993 0.0646318 0.133181 0.439699 0.279996 0.102779 0.247725 0.513893 0.396564 0.0629609 0.753716 0.0476558 0.208431 0.148714 0.256381 0.156487 0.405308 0.601232 -0.0249849 -0.0199266 0.0254315 0.120511 0.221501 0.131026 0.0825474 0.0624474 0.159127 0.606031 0.163539 0.651552 0.00388065 0.00390177 0.145682 0.205829 0.7714 0.181921 0.63607 0.133556 0.251552 0.131231
internal_weight=2247.17 1857.61 316.301 389.558 153.419 210.09 74.5702 179.468 1541.31 160.902 145.703 168.393 118.546 82.1774 131.374 49.1883 100.077 78.8485 58.9218 1372.91 50.5239 1.12929 0.119959 1.00933 49.5531 12.9945 49.1095 15.8012 12.9314 0.694392 29.5274 70.3252 6.69594 42.6436 52.7987 5.48408 43.9363 1.31051 0.117948 0.271959 0.197337 38.2411 49.3947 0.0854627 49.3092 2.98364 18.4685 0.401548 23.6463 36.5587 29.2765 13.9086 2.70399 1.26238 0.114141 1.14824 0.136485 11.2046 1.01175 0.137955 33.3083 31.604 33.7648 47.3146 40.4756 24.7418 0.201349 23.549 12.6582 0.131401 36.0437 8.01231 2.02189 0.167221 5.99042 0.100169 1.85467 0.2487 31.524 5.23556 12.237 1.40736 0.783686 0.427009 78.5754 11.024 0.643944 0.214772 1.44161 6.54469 5.45126 0.228523 8.52329 46.3256 15.5293 8.51858 1.11273 7.40585 0.597939 0.441505 0.314808 7.0107 16.9073 0.328466 10.3801 0.114765 10.2653 5.94227 0.94304 0.0752863 0.867754 0.0964901 4.99923 16.5788 9.4289 0.526044 8.90285 18.067 0.297332 0.157742 12.5268 0.623673 42.857 22.2808 12.9154 4.94692 0.446388 0.386081 4.50053 0.969899 0.38569 0.351138 3.53063 0.076533 3.4541 0.876405 0.833588 0.313546 6.83896 0.343627 0.237069 1330.06 527.149 5.89025 6.85682 1.65157 78.4139 44.4305 24.2712 2.33165 0.234465 2.91704 0.0879906 5.24462 15.6484 5.22273 2.76762 0.112248 2.65537 0.179969 76.6777 1.48137 75.1963
internal_count=240562 214202 31811 26360 12213 10461 4946 15899 182391 6893 12088 18350 9304 8428 5151 3568 7505 7267 3450 164041 3281 55 11 44 4224 911 2675 759 909 28 1742 6728 510 3232 2717 426 4683 68 10 19 14 3745 3226 8 3218 155 1799 30 1628 3313 2838 1281 201 74 12 62 12 1080 50 11 1916 1774 3811 2291 1962 1467 13 1625 764 8 3297 643 115 13 528 10 102 15 1769 398 881 91 40 21 2434 1076 65 20 127 336 244 8 539 3063 740 365 44 321 26 18 12 375 1121 19 1011 12 999 544 77 8 69 10 467 1102 590 27 563 1769 27 8 756 51 4739 2361 1336 495 40 33 455 88 33 29 367 9 358 67 62 25 329 15 9 159302 60896 518 410 94 2431 2928 1681 80 8 151 8 483 1496 236 112 9 103 10 2357 49 2308
is_linear=0
shrinkage=0.03


Tree=5
num_leaves=164
num_cat=0
split_feature=42 8 21 53 27 20 8 134 55 99 112 100 15 55 98 6 20 27 127 27 15 20 49 107 102 77 147 19 80 80 107 90 124 125 54 19 125 55 20 31 15 127 54 129 1 125 53 20 37 21 56 91 34 42 44 63 63 112 70 51 44 63 1 112 34 11 148 63 21 42 31 83 27 148 54 148 124 54 21 105 129 109 44 83 1 63 122 43 88 34 18 19 1 49 11 90 112 98 103 77 113 134 87 53 124 147 112 90 105 127 124 20 117 51 11 37 51 129 54 134 20 122 71 44 70 51 148 55 148 83 77 83 130 83 37 99 146 37 112 125 86 124 21 125 19 134 130 63 54 125 51 91 54 51 127 19 133 44 52 67 125 42 130
split_gain=2138.54 305.169 356.965 284.26 110.121 112.879 103.106 101.216 93.3263 69.371 69.0737 63.8858 57.7683 55.3357 55.2328 54.5182 54.1238 54.2424 53.6381 51.1773 46.3969 41.1023 47.3054 39.3585 38.5037 38.277 37.5895 45.1062 37.0897 33.8188 33.7425 33.5317 34.0429 33.1628 32.8819 32.7729 53.6051 54.2677 56.7659 78.7364 34.002 39.1272 32.4268 37.7434 35.5338 45.1077 62.8725 43.8604 33.6318 32.1409 38.1235 38.4577 35.9172 34.9896 31.6356 47.2069 91.6122 92.6447 30.4121 30.9565 37.0215 29.9312 29.7396 59.9291 87.6939 201.55 29.6639 47.5378 76.6232 63.6015 33.6326 29.636 29.5139 28.4719 30.0169 28.0655 26.8002 66.4426 28.3189 26.7759 26.3172 30.494 26.31 29.0686 76.2696 53.3745 32.782 26.2391 25.8978 41.649 25.4624 25.4143 24.8302 58.7398 79.8778 29.2955 49.2836 28.1535 24.4961 24.471 23.4906 61.6238 23.3113 25.9399 24.8464 47.6472 108.623 23.2476 23.1957 22.8768 22.7994 95.0809 125.813 25.8993 27.2642 26.329 25.8428 22.1937 42.5045 42.1149 24.716 27.0601 21.6869 21.6532 43.9026 24.6829 21.6196 58.0988 23.0624 26.1504 22.8877 27.5474 40.8139 68.0463 162.02 23.5421 69.3579 31.8983 24.9317 24.4819 21.2757 21.2735 26.8422 27.7866 116.587 22.8035 40.2938 23.3714 22.1694 24.7099 39.2549 21.2496 49.811 43.6604 90.7652 25.4507 28.5342 28.2851 50.0709 24.88 39.9313 21.0457 78.2278
threshold=28.500000000000004 1.0000000180025095e-35 0.14292774089136945 0.035921582135206541 0.10025912346825767 -0.14269022253269933 1.0000000180025095e-35 0.0043859641385193835 0.20743080440853517 -1.0000000180025095e-35 -1.4999999999999998 -1.0000000180025095e-35 8.0000000000000018 0.17306693643820623 -1.4999999999999998 1.0000000180025095e-35 -0.095334571905992621 0.16623911441461672 0.42216730150188903 0.19924252636798928 8.0000000000000018 -0.71396299298025012 1.0000000180025095e-35 1.0000000180025095e-35 -5.4999999999999991 -0.33429958556888179 -0.046888397761076443 0.60802218615770498 0.50348521171167693 -0.7617785446117854 2.5000000000000004 0.17312233018149278 -0.14102535539248015 0.0027054215822208687 -1.0000000180025095e-35 0.57218387638122026 -0.052855055605960738 0.069380389273772103 1.0000000180025095e-35 8.5000000000000018 1.0000000180025095e-35 -0.1070914856410607 0.3334382480559413 0.0063065913684826344 202106.50000000003 -0.041448263684810145 0.17895238794685439 0.12534091041072423 5.5000000000000009 0.35699484037364593 1.0000000180025095e-35 5.5000000000000009 109.50000000000001 190.50000000000003 4083.5000000000005 60.500000000000007 62.500000000000007 3.5000000000000004 1.0000000180025095e-35 0.32218491964633417 5095.5000000000009 40.500000000000007 202105.50000000003 -24.499999999999996 62.500000000000007 22.500000000000004 -0.09021073753437496 62.500000000000007 0.53498561701497549 11.500000000000002 9.5000000000000018 -1.0000000180025095e-35 0.19924252636798928 -0.18924215008093651 0.20885537037143267 -0.013979066506739661 0.040374021227910763 0.12543478183896051 0.28544025002957718 6.5000000000000009 -0.032451813232276548 4.5000000000000009 202.50000000000003 1.0000000180025095e-35 202104.50000000003 30.500000000000004 1.0000000180025095e-35 8.0000000000000018 0.10754266420456628 89.500000000000014 0.079789781331565182 0.10724144762789618 202106.50000000003 0.82205338611643641 18.500000000000004 1.0000000180025095e-35 -1.4999999999999998 -1.0000000180025095e-35 15.500000000000002 0.39191395965727371 27.500000000000004 0.026490572821010475 1.0000000180025095e-35 0.10753392069290904 0.0053422225927961123 -0.14667431635955189 4.5000000000000009 0.13869431411133462 -1.4999999999999998 0.30375997648867509 0.10327487582055167 -0.047446613473390166 60.000000000000007 0.036463541786341418 18.500000000000004 4.5000000000000009 0.71468387834051794 -0.01890626083643791 0.58346459656991401 -0.01185612238598127 0.25115409588073967 -0.039577105073818973 11.500000000000002 3808.5000000000005 1.0000000180025095e-35 0.14416895165100294 -0.09021073753437496 0.034933980591658094 -0.12481174326057869 0.71530344241518995 0.26169475590277419 0.036940295656947626 0.064745453389272636 1.0000000180025095e-35 1.0000000180025095e-35 -1.0000000180025095e-35 -0.0098791430448044153 8.5000000000000018 4.5000000000000009 0.18416270056652512 1.0000000180025095e-35 0.032593111406026866 0.53498561701497549 0.0027054215822208687 0.71540690082895575 -0.029859870745377767 0.2724681961766891 45.500000000000007 0.41664055413115125 0.072357835761923797 0.46487462272929253 10.500000000000002 -0.79981691538460031 0.46487462272929253 0.10641681902268264 0.57218387638122026 0.36892726823912925 111.50000000000001 -0.33335739724708818 4.5000000000000009 0.038789680038606993 35.500000000000007 0.20328472380644125
