tree
version=v4
num_class=1
num_tree_per_iteration=1
label_index=0
max_feature_idx=151
objective=binary sigmoid:1
feature_names=numero_de_cliente foto_mes internet cliente_edad cliente_antiguedad cproductos cdescubierto_preacordado ctarjeta_visa_transacciones cpayroll_trx ccomisiones_mantenimiento ccallcenter_transacciones chomebanking_transacciones ctrx_quarter Master_status Master_fechaalta Visa_status Visa_fechaalta mrentabilidad_rank mrentabilidad_annual_rank mcomisiones_rank mactivos_margen_rank mpasivos_margen_rank mcuenta_corriente_rank mcaja_ahorro_rank mcuentas_saldo_rank mtarjeta_visa_consumo_rank mtarjeta_master_consumo_rank mprestamos_personales_rank mpayroll_rank Master_mpagominimo_rank Visa_mpagominimo_rank kmes internet_lag1 cliente_edad_lag1 cliente_antiguedad_lag1 cproductos_lag1 cdescubierto_preacordado_lag1 ctarjeta_visa_transacciones_lag1 cpayroll_trx_lag1 ccomisiones_mantenimiento_lag1 ccallcenter_transacciones_lag1 chomebanking_transacciones_lag1 ctrx_quarter_lag1 Master_status_lag1 Master_fechaalta_lag1 Visa_status_lag1 Visa_fechaalta_lag1 mrentabilidad_rank_lag1 mrentabilidad_annual_rank_lag1 mcomisiones_rank_lag1 mactivos_margen_rank_lag1 mpasivos_margen_rank_lag1 mcuenta_corriente_rank_lag1 mcaja_ahorro_rank_lag1 mcuentas_saldo_rank_lag1 mtarjeta_visa_consumo_rank_lag1 mtarjeta_master_consumo_rank_lag1 mprestamos_personales_rank_lag1 mpayroll_rank_lag1 Master_mpagominimo_rank_lag1 Visa_mpagominimo_rank_lag1 kmes_lag1 internet_lag2 cliente_edad_lag2 cliente_antiguedad_lag2 cproductos_lag2 cdescubierto_preacordado_lag2 ctarjeta_visa_transacciones_lag2 cpayroll_trx_lag2 ccomisiones_mantenimiento_lag2 ccallcenter_transacciones_lag2 chomebanking_transacciones_lag2 ctrx_quarter_lag2 Master_status_lag2 Master_fechaalta_lag2 Visa_status_lag2 Visa_fechaalta_lag2 mrentabilidad_rank_lag2 mrentabilidad_annual_rank_lag2 mcomisiones_rank_lag2 mactivos_margen_rank_lag2 mpasivos_margen_rank_lag2 mcuenta_corriente_rank_lag2 mcaja_ahorro_rank_lag2 mcuentas_saldo_rank_lag2 mtarjeta_visa_consumo_rank_lag2 mtarjeta_master_consumo_rank_lag2 mprestamos_personales_rank_lag2 mpayroll_rank_lag2 Master_mpagominimo_rank_lag2 Visa_mpagominimo_rank_lag2 kmes_lag2 internet_delta1 internet_delta2 cliente_edad_delta1 cliente_edad_delta2 cliente_antiguedad_delta1 cliente_antiguedad_delta2 cproductos_delta1 cproductos_delta2 cdescubierto_preacordado_delta1 cdescubierto_preacordado_delta2 ctarjeta_visa_transacciones_delta1 ctarjeta_visa_transacciones_delta2 cpayroll_trx_delta1 cpayroll_trx_delta2 ccomisiones_mantenimiento_delta1 ccomisiones_mantenimiento_delta2 ccallcenter_transacciones_delta1 ccallcenter_transacciones_delta2 chomebanking_transacciones_delta1 chomebanking_transacciones_delta2 ctrx_quarter_delta1 ctrx_quarter_delta2 Master_status_delta1 Master_status_delta2 Master_fechaalta_delta1 Master_fechaalta_delta2 Visa_status_delta1 Visa_status_delta2 Visa_fechaalta_delta1 Visa_fechaalta_delta2 mrentabilidad_rank_delta1 mrentabilidad_rank_delta2 mrentabilidad_annual_rank_delta1 mrentabilidad_annual_rank_delta2 mcomisiones_rank_delta1 mcomisiones_rank_delta2 mactivos_margen_rank_delta1 mactivos_margen_rank_delta2 mpasivos_margen_rank_delta1 mpasivos_margen_rank_delta2 mcuenta_corriente_rank_delta1 mcuenta_corriente_rank_delta2 mcaja_ahorro_rank_delta1 mcaja_ahorro_rank_delta2 mcuentas_saldo_rank_delta1 mcuentas_saldo_rank_delta2 mtarjeta_visa_consumo_rank_delta1 mtarjeta_visa_consumo_rank_delta2 mtarjeta_master_consumo_rank_delta1 mtarjeta_master_consumo_rank_delta2 mprestamos_personales_rank_delta1 mprestamos_personales_rank_delta2 mpayroll_rank_delta1 mpayroll_rank_delta2 Master_mpagominimo_rank_delta1 Master_mpagominimo_rank_delta2 Visa_mpagominimo_rank_delta1 Visa_mpagominimo_rank_delta2 kmes_delta1 kmes_delta2
feature_infos=[29186441:187434871] [202005:202107] [0:4] [0:92] [1:379] [3:18] [0:1] [0:344] [0:55] [0:24] [0:199] [0:2507] [0:2164] [0:9] [1:7724] [0:9] [1:11946] [-1:1] [-1:1] [-1:1] [-1:1] [-1:1] [-1:1] [-1:1] [-1:1] [0:1] [0:1] [0:1] [-1:1] [0:1] [0:1] [1:12] [0:3] [0:92] [1:378] [3:18] [0:1] [0:351] [0:49] [0:30] [0:199] [0:2328] [0:2152] [0:9] [1:7693] [0:9] [1:11915] [-1:1] [-1:1] [-1:1] [-1:1] [-1:1] [-1:1] [-1:1] [-1:1] [0:1] [0:1] [0:1] [-1:1] [0:1] [0:1] [1:12] [0:4] [0:92] [1:377] [4:18] [0:1] [0:328] [0:49] [0:30] [0:199] [0:2328] [0:2141] [0:9] [1:7663] [0:9] [1:11885] [-1:1] [-1:1] [-1:1] [-1:1] [-1:1] [-1:1] [-1:1] [-1:1] [0:1] [0:1] [0:1] [-1:1] [0:1] [0:1] [1:12] [-3:4] [-3:3] [-2:58] [-2:52] [-40:12] [-39:13] [-6:4] [-7:4] [-1:1] [-1:1] [-252:215] [-180:230] [-32:41] [-42:41] [-28:24] [-28:24] [-154:127] [-182:136] [-945:1406] [-1604:1572] [-502:863] [-872:823] [-9:9] [-9:9] [-4875:947] [-4844:1313] [-9:9] [-9:9] [-4394:4803] [-4846:4834] [-1.9979006945800117:1.998453407007919] [-1.9958908699294005:1.9958704839100512] [-1.8096653083872156:1.8859952083006033] [-1.9367038284970786:1.8852478506999859] [-1.9982562969232456:1.998104864181933] [-1.9928903319632549:1.9979958534899791] [-1.9995098110737184:1.9975544142822206] [-1.9993364928909951:1.9959123243140764] [-1.9714838644927204:1.9941026207031873] [-1.9621907441490323:1.9967532804835577] [-1.9383830863922153:1.9370360277681202] [-1.9318383968972204:1.9625703400070251] [-1.2658442660400757:1.1852390714899808] [-1.3261257686966872:1.2484013448480453] [-1.9720715767185344:1.9643000261312453] [-1.9624741896617222:1.9576253793259308] [-0.99992874447769697:0.99985387594067365] [-0.99985438660356751:0.99985387594067365] [-1:1] [-1:0.99982859101816934] [-0.99213025780189956:1] [-1:1] [-1:1.712465304062579] [-1:1.9511437095972153] [-1:1] [-1:0.99980503022031586] [-0.99984853617542446:1] [-0.99984891514603946:1] [-11:5] [-10:6]
tree_sizes=17499 17559 17574 17581 17583 17663 17678 17684 17699 17744 17725 17708 17673 17784 17772 17821 17811 17805 17773 17774 17853 17934 17822 17817 17833 17846 17873 17876 17848 17892 17895 17834 17890 17871 17872 17952 17881 17895 17874 17890 18044 17983 17944 17948 17982 18028 17951 17988 17973 17959 18021 18017 17989 17914 17973 17995 18009 18026 18027 18101 18000 18107 18079 18007 17963 18129 17976 18102 18046 18055 18018 18117 18058 18097 17974 18147 18083 18074 18042 18136 18078 18143 18123 18120 17964 18162 18143 18066 18080 18054 18070 18077 18097 18167 18018 18134 18115 18082 18120 18139 18087 18082 18119 18091 18184 18207 18137 18135 18226 18185 18109 18172 18013 18182 18131 18131 18254 18188 18217 18198 18194 18131 18168 18224 18142 18153 18107 18127 18187 18201 18159 18200 18261 18155 18059 18231 18179 18300 18180 18208 18188 18129 18188 18096 18218 18176 18153 18169 18155 18159 18031 18218 18141 18099 18203 18128 18228 18153 18205 18279 18218 18294 18207 18261 18052 18266 18174 18229 18276 18124 18231 18286 18217 18221 18268 18221 18165 18234 18104

Tree=0
num_leaves=164
num_cat=0
split_feature=42 54 15 42 101 27 46 107 101 15 15 1 31 90 54 131 1 27 54 4 131 37 130 13 7 28 31 108 44 85 144 57 114 110 127 109 42 42 112 18 78 5 149 86 149 14 34 1 65 4 99 30 130 127 34 114 5 84 5 149 78 1 114 103 127 1 149 149 2 146 131 2 125 127 83 125 4 83 110 31 14 136 78 136 42 107 109 18 47 63 131 117 136 54 78 75 47 14 42 18 44 136 63 83 64 36 67 46 14 37 84 103 44 112 60 63 14 27 15 15 63 44 34 2 131 109 18 144 44 131 136 31 14 44 127 31 63 14 28 113 113 14 63 78 9 113 5 4 1 125 90 113 75 76 30 136 99 44 18 4 63 147 84
split_gain=5801.72 2462.11 1416.41 976.51 826.602 737.364 773.424 679.827 617.028 588.958 490.677 520.629 437.444 387.271 344.798 333.963 328.582 320.668 318.575 347.218 284.056 281.059 270.751 330.474 259.477 517.129 229.397 246.626 249.961 223.051 222.982 220.408 218.415 214.814 208.76 247.169 204.562 200.663 197.36 193.356 190.604 188.604 186.166 184.611 200.286 181.66 219.146 292.049 184.809 182.569 181.621 229.707 224.088 181.543 177.318 363.385 175.373 173.808 170.593 167.045 166.626 610.456 166.226 164.654 163.532 162.433 161.105 169.028 158.174 156.668 153.796 152.996 165.236 151.665 149.659 209.823 145.276 169.729 169.726 144.838 188.046 143.683 220.314 139.262 161.365 160.626 189.504 176.397 204.829 165.719 229.494 148.712 264.377 137.933 267.295 203.139 134.464 199.379 139.412 209.538 133.524 197.889 131.161 190.007 217.724 227.693 176.331 214.906 141.276 177.346 134.287 131.117 170.91 157.725 136.094 129.186 139.003 159.358 174.225 340.842 234.024 300.429 166.992 183.496 276.403 163.46 155.89 331.266 137.696 128.077 165.236 141.631 147.532 127.95 232.186 127.772 124.169 209.823 122.732 122.02 120.786 154.607 118.764 118.695 118.324 133.568 116.21 115.665 114.127 132.4 123.927 113.392 135.223 277.688 116.516 137.617 226.115 240.541 118.484 146.501 164.258 112.887 112.851
threshold=11.500000000000002 -0.19926870161071492 1.0000000180025095e-35 35.500000000000007 -1.0000000180025095e-35 0.03312439817793085 5578.5000000000009 1.0000000180025095e-35 -1.0000000180025095e-35 8.0000000000000018 8.0000000000000018 202101.50000000003 5.5000000000000009 0.75909108251479274 0.041936718881317961 0.0059528236903802151 202105.50000000003 1.0000000180025095e-35 -0.79981691538460031 60.500000000000007 0.014692648338016924 1.0000000180025095e-35 -1.0000000180025095e-35 1.0000000180025095e-35 2.5000000000000004 1.0000000180025095e-35 8.5000000000000018 6.5000000000000009 464.50000000000006 0.035534231506367732 -0.22089473830279088 0.68881071283739415 8.0000000000000018 -7.4999999999999991 0.048581426441284686 -1.0000000180025095e-35 28.500000000000004 129.50000000000003 3.5000000000000004 0.44048243412997645 0.40274600022406859 7.5000000000000009 0.30546123528125463 1.0000000180025095e-35 1.0000000180025095e-35 3817.5000000000005 62.500000000000007 202103.50000000003 5.5000000000000009 20.500000000000004 -1.0000000180025095e-35 0.17194819555118099 0.038187036840603657 -0.1070914856410607 207.50000000000003 8.0000000000000018 5.5000000000000009 -0.20008125537658719 6.5000000000000009 1.0000000180025095e-35 0.12099256938037768 202105.50000000003 6.5000000000000009 -1.4999999999999998 -0.18241109090629373 202008.50000000003 0.018741540918128931 1.0000000180025095e-35 1.0000000180025095e-35 0.062122082148341189 -0.037921003314041989 1.0000000180025095e-35 0.072357835761923797 -1.0000000180025095e-35 0.036940295656947626 0.01930913386220565 163.50000000000003 0.036940295656947626 -1.0000000180025095e-35 6.5000000000000009 472.50000000000006 -0.02711453311753868 0.12099256938037768 -0.02711453311753868 20.500000000000004 1.0000000180025095e-35 1.0000000180025095e-35 1.0000000180025095e-35 -0.50037358755772698 56.500000000000007 -1.0000000180025095e-35 60.000000000000007 -0.23932570377624132 -0.60054925384619884 0.40274600022406859 6.5000000000000009 0.56585027937223431 2087.5000000000005 20.500000000000004 0.56054191290952005 3386.5000000000005 -0.02711453311753868 52.500000000000007 0.072852649728199007 70.500000000000014 1.0000000180025095e-35 1.5000000000000002 3990.5000000000005 206.50000000000003 1.0000000180025095e-35 1.0000000180025095e-35 -1.4999999999999998 757.50000000000011 2.5000000000000004 0.069728898868202729 41.500000000000007 583.50000000000011 0.10025912346825767 1.0000000180025095e-35 6.5000000000000009 40.500000000000007 757.50000000000011 79.500000000000014 1.0000000180025095e-35 -0.4340317685877419 8.5000000000000018 0.2396875963131069 -0.15260460929445288 2084.5000000000005 -1.0000000180025095e-35 -0.23932570377624132 10.500000000000002 472.50000000000006 1003.5000000000001 -0.062474247838237122 10.500000000000002 27.500000000000004 754.50000000000011 1.0000000180025095e-35 2.5000000000000004 -1.0000000180025095e-35 1550.5000000000002 76.500000000000014 0.84138650873598853 1.0000000180025095e-35 -5.4999999999999991 6.5000000000000009 20.500000000000004 202103.50000000003 1.0000000180025095e-35 1.0000000180025095e-35 -3.4999999999999996 6.5000000000000009 6952.5000000000009 0.13741047282779587 -0.075030770365453858 -1.0000000180025095e-35 3808.5000000000005 0.19961538654106364 245.50000000000003 30.500000000000004 -0.03652523866680827 1.0000000180025095e-35
decision_type=8 8 10 8 8 2 8 10 8 10 10 2 2 8 8 8 2 2 8 2 8 8 10 10 8 2 2 10 8 10 10 10 10 8 10 10 10 10 10 8 10 2 10 10 8 10 8 2 10 2 8 8 10 10 8 10 2 8 2 10 8 2 10 8 10 2 10 10 10 10 10 10 10 10 8 10 2 10 10 2 10 10 10 8 10 10 10 10 10 10 10 10 10 10 8 10 10 10 10 10 10 10 10 10 10 10 8 8 10 8 10 8 10 10 10 10 8 2 8 8 10 10 10 10 8 10 8 8 8 8 10 2 8 10 10 2 8 10 2 10 10 10 10 10 2 8 2 2 2 10 8 8 10 8 10 8 8 10 8 2 10 8 10
left_child=1 2 5 8 29 6 26 54 20 14 24 30 15 37 32 18 -7 33 19 71 34 22 56 40 25 41 27 28 142 38 39 -18 50 -11 35 -2 -37 42 65 -12 -24 115 -13 59 -45 46 47 49 -48 -20 51 52 64 -33 -6 60 -4 -14 73 111 61 148 83 -9 -10 -3 67 96 -40 -64 -21 72 -8 -51 75 -32 77 78 -35 80 -25 -49 -83 84 85 86 136 88 -87 90 -88 -90 -93 95 -95 140 98 139 99 -66 101 146 -65 104 129 -106 107 110 109 135 -107 112 113 -30 -113 116 -5 118 125 -120 122 -122 123 124 -121 126 127 128 -118 130 131 132 -104 134 -42 -105 137 -52 151 -98 141 -59 -1 -55 145 162 -50 -74 -56 -150 -151 152 154 -154 155 156 157 -16 159 160 -158 -146 -129
right_child=3 4 21 10 7 16 12 63 9 17 11 13 57 -15 138 -17 31 -19 45 70 -22 -23 23 79 -26 -27 -28 -29 43 -31 74 53 -34 76 -36 36 -38 -39 68 -41 133 -43 -44 44 -46 -47 48 81 100 58 62 -53 -54 143 55 -57 -58 93 -60 -61 -62 -63 69 102 66 -67 -68 -69 -70 -71 -72 -73 147 -75 -76 -77 -78 -79 -80 -81 -82 82 -84 -85 -86 87 89 -89 91 -91 -92 92 -94 94 -96 -97 97 -99 -100 -101 -102 -103 103 108 105 106 -108 -109 -110 -111 -112 114 -114 -115 -116 -117 117 -119 119 120 121 -123 -124 -125 -126 -127 -128 144 -130 -131 -132 -133 -134 -135 -136 -137 -138 -139 -140 -141 -142 -143 -144 -145 161 -147 -148 -149 149 150 -152 -153 153 -155 -156 -157 158 -159 -160 -161 -162 -163 -164
leaf_value=-4.4748822089991158 -4.713777251985773 -1.6293768080913811 -2.0486847025378427 -4.6423496995077747 -4.5978223480799691 -4.6391916757755292 -2.2352411809992128 -2.8778246068105489 -4.7137772519857739 -1.4090624906704012 -2.610776949330528 -1.9047697048676593 -4.2704618571751656 -4.3006879068213451 -4.094143234239132 -4.2562013619574826 -4.536738961201018 -4.6136343804307609 -3.9793961939156768 -3.8875985616569344 -4.3006879068213442 -4.2827275005098482 -3.9793961939156732 -1.409062490670419 -4.7065026498217701 -4.7057231563450719 -4.4950828927810749 -2.3532667081890923 -4.713777251985773 -4.713777251985773 -2.3532667081890071 -2.8961841332622891 -2.8253688169483766 -3.2679645439102765 -4.3833057758542324 -1.7762530197053965 -4.0528342997226989 -4.2416751432264315 -2.5106340777755172 -4.4383843552094895 -1.9598482842229279 -4.6789828187011526 -4.0528342997226989 -3.8124914079906604 -1.4090624906704012 -1.9598482842229474 -4.1807587420961863 -4.7137772519857739 -2.8253688169484059 -3.2974709257077479 -2.3532667081891576 -4.5392708619493147 -4.7137772519857739 -3.5698375269150473 -4.4634200730982405 -1.4090624906704088 -3.5120627933256241 -3.6122056648806335 -4.0528342997226989 -4.6151290501554625 -4.5132272796632007 -1.4090624906703737 -4.7137772519857739 -4.3615506003095197 -2.6483305261636381 -3.8875985616569344 -4.5072325794035599 -1.409062490670419 -4.713777251985773 -2.0700054429334758 -1.7903757323605851 -4.4383843552094895 -4.713777251985773 -1.5829948465290546 -4.6326088192517103 -4.713777251985773 -4.3249872800663125 -4.1629914584332042 -1.4090624906703293 -4.4595684241922786 -3.7958009293981556 -1.409062490670419 -4.713777251985773 -4.6258927765186444 -4.5997207248253291 -4.4133486373207358 -1.4090624906703888 -4.2827275005098464 -1.4090624906703755 -4.713777251985773 -4.1629914584332086 -1.409062490670419 -4.713777251985773 -3.1401035561212871 -4.5398448961270663 -4.713777251985773 -1.4090624906703737 -4.713777251985773 -4.3990425128128763 -4.713777251985773 -4.713777251985773 -1.7762530197054138 -3.4745092164924989 -4.5301819874682501 -1.4090624906703888 -3.2974709257077479 -4.7137772519857739 -4.0056240888467549 -4.6136343804307609 -2.0700054429334758 -1.4090624906703737 -4.0701623921041143 -1.409062490670419 -2.2352411809992576 -4.6403391461787642 -4.6388385419733877 -1.4090624906704012 -4.661404593327843 -1.9598482842229035 -1.409062490670419 -1.4090624906703826 -4.713777251985773 -4.6214667837926049 -4.479249107634355 -4.0618267208419114 -2.7309483951965072 -4.6022860100382808 -3.4962507609748275 -3.8875985616569344 -4.5249364084820343 -4.7137772519857739 -4.713777251985773 -1.4090624906703888 -1.4090624906703648 -4.2416751432264315 -2.7309483951965499 -4.5298626913560449 -4.713777251985773 -4.7093865769264527 -3.391891347459624 -1.4090624906704012 -1.409062490670419 -3.061419871328078 -4.5635629446532544 -2.7309483951965499 -4.6039252377592215 -4.713777251985773 -2.7309483951965499 -4.713777251985773 -3.8875985616569344 -1.409062490670419 -4.6659864555058075 -4.4383843552094868 -1.409062490670419 -4.6802423235960413 -4.5937341944166228 -2.2352411809992576 -1.8811645994297224 -4.5391885476143923 -2.2352411809992576 -4.313205765765721 -4.2506962026294701 -4.3565107913030232
leaf_weight=3.013875816017396 0.045389696024358273 0.13616908807307482 0.28141611535102118 12.600179616361855 57.436121349222958 5.2288929820060721 0.10893527045845985 0.081701452843844891 0.14524702727794647 0.045389696024358273 0.099857331253588977 0.18155878409743298 2.233173044398427 0.29049405455589294 0.14524702727794647 0.59006604831665788 0.50836459547281243 0.2995719937607646 0.081701452843844113 0.036311756819486618 0.43574108183383942 0.20879260171204816 0.081701452843843669 0.036311756819486618 1554.724179983139 201.13989896234125 3.7037991955876342 0.063545574434102359 0.063545574434101582 0.063545574434101582 0.063545574434100027 0.18155878409743309 0.063545574434100582 0.14524702727794647 0.090779392048716545 0.16340290568768978 0.045389696024358273 0.063545574434101582 0.054467635229229927 0.10893527045845985 0.10893527045845985 39.661516386084259 0.045389696024358273 0.099857331253588089 0.045389696024358273 0.054467635229229816 0.84424834605306387 0.13616908807307482 0.063545574434101582 0.063545574434101582 0.063545574434104135 2.7506155790761113 0.32680581137537956 0.23602641932666302 0.59914398752152842 0.036311756819486507 0.0998573312535882 0.13616908807307482 0.045389696024358273 0.60822192672640074 3.4405389586463571 0.072623513638973236 0.036311756819485619 2.8958626063540569 0.14524702727794669 0.036311756819486618 0.14524702727794647 0.036311756819486618 0.063545574434101582 0.045389696024358273 0.23602641932666302 0.10893527045845985 0.063545574434101582 0.17248084489256144 2.5872126733884224 0.072623513638973236 0.15432496648281813 0.10893527045845985 0.063545574434100582 0.23602641932666302 0.16340290568768978 0.036311756819486618 0.036311756819486618 46.424581093713641 10.258071301504968 0.0998573312535882 0.054467635229229927 0.83517040684819221 0.054467635229229705 0.063545574434101582 0.054467635229229816 0.036311756819486618 0.054467635229229927 0.19063672330230508 0.34496168978512287 0.063545574434101582 0.072623513638973236 0.036311756819486618 0.19063672330230474 0.063545574434101582 0.045389696024358273 0.081701452843844891 0.072623513638973236 0.16340290568768978 0.054467635229229927 0.063545574434101582 0.081701452843844891 0.12709114886820316 0.5991439875215292 0.045389696024358273 0.072623513638973236 4.8476195354014644 0.036311756819486618 0.036311756819486618 0.40850726421922434 36.42977002914995 0.045389696024358273 5.7281796382740131 0.054467635229228928 0.036311756819486618 0.054467635229229816 0.045389696024358273 1.6249511176720259 1.4070805767551062 1.3344570631161334 0.045389696024357273 10.49409772083164 0.17248084489256144 0.036311756819486618 0.31772787217050769 0.081701452843844891 0.036311756819486618 0.054467635229229927 0.090779392048716545 0.063545574434101582 0.045389696024358273 5.2198150428012013 0.072623513638973236 40.995973449200392 0.045389696024358273 0.045389696024358273 0.036311756819486618 0.054467635229229816 0.1997146625071764 0.045389696024358273 3.2771360529586717 0.054467635229229927 0.045389696024358273 0.045389696024358273 0.036311756819486618 0.036311756819486618 79.72246209718287 0.10893527045845885 0.036311756819486618 9.8404860980808717 12.745426643639812 0.036311756819486618 0.063545574434101582 2.4056538892909893 0.036311756819486618 0.5991439875215292 1.4252364551648495 0.67176750116050243
leaf_count=332 5 15 31 1388 6327 576 12 9 16 5 11 20 246 32 16 65 56 33 9 4 48 23 9 4 171264 22157 408 7 7 7 7 20 7 16 10 18 5 7 6 12 12 4369 5 11 5 6 93 15 7 7 7 303 36 26 66 4 11 15 5 67 379 8 4 319 16 4 16 4 7 5 26 12 7 19 285 8 17 12 7 26 18 4 4 5114 1130 11 6 92 6 7 6 4 6 21 38 7 8 4 21 7 5 9 8 18 6 7 9 14 66 5 8 534 4 4 45 4013 5 631 6 4 6 5 179 155 147 5 1156 19 4 35 9 4 6 10 7 5 575 8 4516 5 5 4 6 22 5 361 6 5 5 4 4 8782 12 4 1084 1404 4 7 265 4 66 157 74
internal_value=-4.6835 -4.45231 -4.20856 -4.69384 -4.54953 -4.25947 -4.16563 -4.55723 -4.6334 -4.63646 -4.7008 -4.34659 -3.88256 -3.52615 -4.63952 -3.61909 -4.5391 -3.83252 -3.45669 -2.86113 -3.79153 -3.26933 -3.08724 -3.40726 -4.70146 -4.6767 -4.29549 -4.21581 -4.22865 -3.10379 -4.50915 -4.07416 -4.58335 -3.3803 -3.14839 -2.70734 -2.27116 -2.7516 -2.7516 -3.56431 -2.71356 -4.62601 -2.33438 -4.11825 -3.06142 -3.66466 -3.72056 -3.24502 -3.97022 -2.73095 -4.58501 -4.38785 -4.0429 -3.6932 -4.58396 -4.39737 -2.43195 -4.13349 -2.3685 -4.14383 -4.42302 -4.03004 -4.59732 -4.21306 -3.79391 -2.10479 -3.61221 -3.39189 -3.69694 -3.24502 -2.07001 -3.52041 -3.06142 -2.04458 -4.58159 -3.61221 -3.56984 -3.20305 -2.70221 -3.95645 -3.36185 -4.13904 -3.06142 -4.59907 -4.52524 -4.40963 -4.47501 -4.07505 -3.36741 -3.49625 -2.78603 -2.64833 -3.39189 -3.75908 -4.04163 -3.22133 -3.52191 -2.76983 -3.81249 -3.27694 -3.24502 -2.91121 -4.23622 -4.03631 -3.7473 -3.21163 -3.49625 -3.1184 -4.36221 -3.76957 -2.29032 -4.09067 -3.17158 -3.81249 -4.11448 -4.59819 -4.56032 -4.52131 -4.48268 -4.31879 -4.34733 -2.91121 -4.3799 -4.23859 -3.99155 -4.52874 -4.53379 -4.4071 -2.51063 -4.12746 -3.61221 -3.06142 -2.58932 -2.32071 -2.80052 -4.13904 -4.50653 -3.61221 -4.66532 -2.17169 -2.78603 -3.14839 -4.44979 -4.0253 -4.43481 -4.51724 -3.69694 -3.8876 -4.29546 -3.44273 -2.64833 -4.64824 -4.59386 -3.68105 -4.59898 -4.5491 -4.376 -3.42063 -4.44082 -4.08856 -4.19446 -4.20379 -4.18076
internal_weight=2183.81 93.5119 26.6619 2090.3 66.8499 25.2911 18.9366 66.4959 215.728 214.947 1874.57 3.51316 5.95513 0.580988 214.13 2.90494 6.35456 0.817015 2.31487 0.599144 0.780703 1.37077 1.16198 0.780703 1871.05 316.33 12.9815 9.27765 9.21411 0.35404 2.93217 1.12566 67.3946 0.517443 0.344962 0.254182 0.208793 0.290494 0.290494 0.208793 0.344962 115.19 0.226948 6.14576 0.145247 1.71573 1.66126 0.57191 1.08935 0.363118 67.3311 3.95798 1.20737 0.6173 61.7028 4.26663 0.381273 3.05019 0.281416 6.00052 4.23032 0.789781 63.3731 4.79315 0.88056 0.172481 0.735313 0.590066 0.118013 0.0817015 0.272338 0.326806 0.217871 0.236026 2.72338 0.136169 0.472053 0.317728 0.208793 0.435741 0.199715 0.208793 0.0726235 63.2914 16.8668 6.60874 5.52846 1.08027 0.245104 0.172481 0.108935 0.145247 0.0907794 0.817015 0.535598 0.281416 0.553754 0.154325 0.399429 0.208793 0.245104 0.199715 4.71145 1.81559 0.962262 0.399429 0.344962 0.26326 0.853326 0.254182 0.136169 5.3923 0.136169 0.0998573 5.25613 75.5285 39.0987 26.4985 20.7703 4.55713 4.50266 0.0998573 4.4028 2.77785 1.37077 16.2132 16.1678 5.67371 0.0817015 0.562832 0.245104 0.163403 0.127091 0.26326 0.172481 0.208793 5.35598 0.136169 146.736 0.118013 0.217871 0.172481 3.06834 0.435741 5.59201 4.12138 0.118013 0.108935 0.717157 0.118013 0.0726235 105.74 26.0174 0.145247 25.8721 16.0316 3.28621 0.208793 3.07742 0.671768 0.635456 1.47063 0.844248
internal_count=240562 10301 2937 230261 7364 2786 2086 7325 23764 23678 206497 387 656 64 23588 320 700 90 255 66 86 151 128 86 206110 34846 1430 1022 1015 39 323 124 7424 57 38 28 23 32 32 23 38 12689 25 677 16 189 183 63 120 40 7417 436 133 68 6797 470 42 336 31 661 466 87 6981 528 97 19 81 65 13 9 30 36 24 26 300 15 52 35 23 48 22 23 8 6972 1858 728 609 119 27 19 12 16 10 90 59 31 61 17 44 23 27 22 519 200 106 44 38 29 94 28 15 594 15 11 579 8320 4307 2919 2288 502 496 11 485 306 151 1786 1781 625 9 62 27 18 14 29 19 23 590 15 16164 13 24 19 338 48 616 454 13 12 79 13 8 11648 2866 16 2850 1766 362 23 339 74 70 162 93
is_linear=0
shrinkage=1


Tree=1
num_leaves=164
num_cat=0
split_feature=42 24 25 58 24 57 16 87 58 87 25 142 53 142 78 24 54 135 52 60 76 14 121 137 33 42 51 148 7 20 6 126 57 135 70 16 60 9 79 70 33 113 148 15 113 148 71 50 78 31 14 107 84 78 65 45 142 41 99 130 128 84 31 5 52 92 79 49 51 78 126 60 17 129 16 137 113 135 61 65 132 33 50 61 65 52 67 129 10 54 109 49 126 78 49 65 137 6 78 108 54 16 139 17 31 67 129 25 33 16 14 16 54 9 49 92 5 51 47 50 61 65 137 17 33 33 52 42 113 76 52 147 107 41 46 76 41 126 137 7 95 55 78 49 14 76 14 78 87 20 72 51 61 31 78 61 33 84 113 31 16 137 49
split_gain=3751.26 772.462 553.488 511.982 529.119 284.408 178.433 169.988 157.692 151.424 187.119 173.094 151.368 146.176 151.631 136.965 333.234 134.346 126.905 167.264 146.433 239.994 138.285 151.719 130.881 120.444 118.035 174.039 237.892 119.246 160.314 116.12 161.274 117.218 113.463 105.959 103.098 102.547 125.538 159.833 110.034 116.464 96.4552 95.7634 94.284 117.319 224.428 203.937 121.778 156.803 93.2206 91.2406 89.8062 87.4427 100.92 94.5446 94.0625 132.071 85.4235 126.555 84.3963 79.7021 79.2204 78.3319 73.8802 179.975 131.473 171.324 132.255 108.467 111.148 69.9801 69.792 75.6004 69.6904 84.4338 85.9408 163.072 81.5735 76.4433 68.3463 66.6178 66.2734 66.1231 92.7106 65.9912 81.0054 167.794 134.789 65.1348 62.9217 237.085 68.6691 76.2341 62.236 65.8169 60.9301 60.0941 89.9008 177.002 83.0064 59.2371 59.1491 58.8599 63.1494 102.214 99.8628 64.5902 58.4486 102.531 57.2102 176.042 77.1004 78.2316 119.841 67.9818 90.0939 63.6464 55.7821 98.435 98.1773 55.5918 55.5785 142.774 55.4185 84.093 72.8574 119.617 54.968 68.1981 503.003 55.225 53.5768 53.5751 95.4874 77.0344 154.649 66.086 57.5298 53.2864 52.3074 75.1147 74.1735 69.6414 132.697 165.335 101.92 94.9053 76.1063 69.6219 63.2738 76.987 200.204 89.267 128.201 118.545 113.224 60.5487 53.0649 50.7882 93.6293 90.2483 106.897
threshold=20.500000000000004 -0.20130787113528306 0.069075234896963988 0.035556737021180083 0.083526763983159627 0.24103123176497213 167.50000000000003 0.13880360052477722 1.0000000180025095e-35 0.31041474784891682 0.20630764044555341 -0.046165830754144453 0.10753392069290904 -0.064563319400145522 0.040153486656224965 0.041727033061405731 0.87470166925807424 0.060489655321279083 -0.95808098801536612 1.0000000180025095e-35 3289.5000000000005 4090.5000000000005 60.000000000000007 0.0041572769616698433 56.500000000000007 55.500000000000007 -1.0000000180025095e-35 -0.0026188659532172787 1.0000000180025095e-35 -0.95234421020037174 1.0000000180025095e-35 -0.0057718187826170915 0.17239974973199199 0.014420985765415619 15.500000000000002 4548.5000000000009 1.0000000180025095e-35 1.0000000180025095e-35 0.32202769996887654 3.5000000000000004 76.500000000000014 10.500000000000002 1.0000000180025095e-35 1.0000000180025095e-35 -3.4999999999999996 -0.35501745939088991 43.500000000000007 -0.80946721653265719 0.68220854276394449 4.5000000000000009 583.50000000000011 1.0000000180025095e-35 1.0000000180025095e-35 0.36258437731309229 12.500000000000002 6.5000000000000009 -0.089206446950948814 1.0000000180025095e-35 -1.4999999999999998 0.038187036840603657 -1.0000000180025095e-35 0.084881430331790339 8.5000000000000018 4.5000000000000009 -1.0000000180025095e-35 -1.0000000180025095e-35 1.0000000180025095e-35 0.71523457581871208 0.14416895165100294 0.16082682369357987 0.56765199771401742 1.0000000180025095e-35 0.69603764332665274 -0.0079404261857973762 3995.5000000000005 0.097412099863135121 2.5000000000000004 0.0061233805614398515 8.5000000000000018 4.5000000000000009 0.026332379529910691 58.500000000000007 -0.9523106114992731 5.5000000000000009 9.5000000000000018 -0.41655511187493716 3.5000000000000004 -0.22151997932524345 3.5000000000000004 0.3334382480559413 -1.0000000180025095e-35 0.64289021601947005 -0.0057718187826170915 0.20115517148843612 0.035688268567355332 4.5000000000000009 -0.013437358343405708 1.0000000180025095e-35 0.28194488578228616 1.0000000180025095e-35 -0.79981691538460031 1330.5000000000002 -1.0000000180025095e-35 0.65258449012562159 7.5000000000000009 2.5000000000000004 0.15618966872811854 0.034492841262424738 30.500000000000004 303.50000000000006 1899.5000000000002 5321.5000000000009 0.12543478183896051 1.0000000180025095e-35 0.071551718481054946 -1.0000000180025095e-35 6.5000000000000009 0.036463541786341418 0.13023229514687426 0.25209530100954597 4.5000000000000009 8.5000000000000018 -0.023979696259210051 0.26110718483142864 45.500000000000007 43.500000000000007 -0.16700650814610016 49.500000000000007 -5.4999999999999991 8136.5000000000009 -0.33335739724708818 -0.03652523866680827 1.0000000180025095e-35 4.5000000000000009 4544.5000000000009 2310.5000000000005 11.500000000000002 -0.22148599790240905 0.28612267784871076 9.5000000000000018 1.0000000180025095e-35 0.38006062556188835 0.12099256938037768 0.17898959813653406 375.50000000000006 435.50000000000006 3597.5000000000005 0.28194488578228616 0.2073387055958463 -0.66681164508300161 11.500000000000002 0.072287967951813054 10.500000000000002 6.5000000000000009 -0.25065686814777655 2.5000000000000004 30.500000000000004 0.084881430331790339 -13.499999999999998 5.5000000000000009 638.50000000000011 -0.071322773143424875 0.67921688655946943
decision_type=8 10 8 10 10 10 8 8 10 8 10 10 8 10 10 10 10 10 10 8 10 10 10 10 10 10 8 8 10 10 2 10 10 10 10 10 10 2 10 10 10 10 10 10 10 10 10 8 10 2 10 10 10 10 10 10 10 8 10 10 10 10 2 2 10 8 8 8 8 10 10 8 10 10 8 10 10 10 10 10 10 10 8 8 10 10 10 10 10 10 8 10 10 10 10 10 8 2 10 8 8 8 10 10 2 10 10 10 8 10 8 10 8 2 10 8 2 10 8 8 10 8 8 10 10 10 10 10 8 10 10 8 10 10 8 8 10 10 8 8 10 10 8 8 10 10 10 10 10 8 8 10 10 2 10 10 10 10 10 2 10 10 10
left_child=1 7 3 4 5 6 -2 18 9 10 11 17 25 14 60 16 52 31 19 22 -21 -22 72 50 -25 53 27 28 -8 30 63 32 -3 71 51 -30 90 85 39 64 -40 102 61 -15 45 46 47 -17 -49 -50 -24 128 74 54 55 56 57 -4 59 -53 94 -36 81 -28 83 -66 69 -68 -69 70 -67 -33 73 -1 -13 -76 80 79 -79 -78 -77 -52 -60 -39 108 -31 118 -88 -89 -38 91 -20 93 -93 -9 -96 110 98 100 -100 101 -58 -42 104 107 -106 -107 133 109 -85 111 112 113 114 117 116 -112 -47 119 -87 -121 -117 -114 -124 125 126 -29 -128 129 -6 -131 -132 -14 159 135 137 -137 -135 -136 -46 141 142 -54 144 149 -146 -147 -148 -145 -144 151 153 -153 154 155 -142 -156 -158 -152 -92 161 162 -161
right_child=2 8 12 -5 34 -7 26 13 -10 -11 -12 15 132 43 -16 44 -18 -19 36 20 21 -23 23 24 -26 -27 29 124 35 37 -32 33 -34 -35 42 -37 89 38 40 -41 41 -43 -44 -45 139 96 -48 48 49 -51 62 58 140 -55 -56 -57 97 -59 82 -61 -62 -63 -64 -65 65 66 67 68 -70 -71 -72 -73 -74 -75 75 76 77 78 -80 -81 -82 -83 -84 84 -86 86 87 88 -90 -91 103 92 -94 -95 95 -97 -98 -99 99 -101 -102 -103 -104 -105 105 106 -108 -109 -110 -111 115 -113 122 -115 -116 121 -118 -119 -120 120 -122 -123 123 -125 -126 -127 127 -129 -130 130 131 -133 -134 134 138 136 -138 -139 -140 -141 150 -143 143 148 145 146 147 -149 -150 -151 158 152 -154 -155 156 -157 157 -159 -160 160 -162 -163 -164
leaf_value=1.3482932560057572 0.0080853929776702714 2.6441487622447033 1.8323659077246583 -0.017435424822804697 0.036946194981502298 0.0082689470338176089 2.7118675815739137 -0.030379588239000128 -0.008661008859972506 0.0008343340815527981 0.0028191749125914376 0.072928752373711977 -0.024888622192744129 0.078942985426313492 0.23124360967577526 2.1022636734703499 2.3408088441293176 0.11683707728929066 0.22041850067390822 0.22111841223540896 2.7804496201856801 -0.030348804012095155 -0.030383283146596985 2.1585446680437896 0.55301438081915077 -0.014069145846424488 2.0500744450619379 0.081205580516354472 0.31512383300056485 0.073211340932181818 -0.030321069591494911 1.1339754325198423 0.48633586710218568 1.7166325241592686 1.5672829952653278 1.9383946730903459 0.12526619503309269 0.031306070330683888 0.15051561983153314 1.767291863342066 0.20322714020728386 2.357401747553999 1.950400364142135 0.23725851673239703 0.055294341236575374 1.5386143202623066 2.3644039796030731 0.14675384829654831 2.0355705807868625 0.41163128492698958 1.9899897288615769 -0.030329825305172094 0.12968245609080153 -0.0094893458150845395 1.659831184711841 1.5615346448210945 0.36652054307174736 -0.030280048988395269 1.2235747535457315 2.3651040409006305 2.1109569011968943 -0.030284815529721801 -0.030322366535350694 0.8317389495773575 2.2574191509966455 0.68346897504403537 0.072275377199254587 -0.03029166437712788 2.1775890051840006 -0.030300826504090821 2.7395104334261231 0.09533655413708389 0.71830550085883971 2.9139059025492129 0.14798517311072051 1.0491231769828675 1.1817722382532574 -0.030327507408287085 1.2446170752651644 2.9405120725799261 0.10960882451242164 0.53041162611318715 0.10302831629512973 -0.030293889171693147 1.4720970750418942 0.18608820920924707 1.9912693328771742 0.25606271911763512 1.9228002921960099 1.2419625604871936 0.22212965900877338 1.1674503281472268 0.52389566737810322 2.6263377274827211 1.2257026380435112 0.27223760431616428 0.040775013605988855 0.049429725706965098 -0.030311563684834199 2.3973497551518896 0.1056189362893047 1.6769657411323646 1.5514901496376152 0.13325402724075355 0.15663505295373892 1.8359755694521294 -0.030337788433176582 0.0028782890912667121 0.27527244594295469 2.1151553971714194 1.7866196546360271 1.9161282811001454 0.12809163062519874 -0.030306270639720839 2.3964720144976535 0.057671095668787288 -0.030298499391443072 -0.030303244816885431 0.015343891260929794 1.8543742266328218 -0.030318170538734611 0.99286974622302615 2.2911996478240422 -0.030318986327723892 -0.030284997508442501 1.5665665716993247 2.3194282859219721 -0.030311212874850779 -0.0040530250877770912 2.9358465968729091 1.0301642382528196 0.064377920200377706 0.0088072400238506012 1.3971428623980908 0.19529355185735414 0.54762074424046847 2.1554953192764201 0.37531334220432383 2.1462453721956005 0.93507215309309399 3.0080373728284671 1.5097727868396869 1.0817165756157454 0.13368661905435139 1.9250809883709732 0.4053641842347856 0.54341432524210553 2.3719136627175335 1.446576291598376 0.17166925770270416 0.88322456938965066 0.27184972008025976 2.465715530350491 0.20756067222699276 1.7927015377487063 0.70348184217703902 -0.030308253293722973 1.1249819249450856 -0.030296438483740803 0.46919635141233285 0.19487144285664565 0.25299417602906282 1.1543099023421153
leaf_weight=0.087034737691283226 6.2545904181897631 0.067303731106221676 0.064407860860227539 158.33919489383698 23.56758047640324 14.697356523945926 0.065640158951282501 0.083187151700258255 20.659812474623322 17.31544394697994 15.39890701510012 10.996443336829547 1442.8981130868196 24.912259910255674 3.6267566476017237 0.056268937885761261 0.063260814175008728 0.39885316137224436 0.71524639613926411 2.7123627532273535 0.05336586758494366 0.056056296452879906 0.33437223825603724 0.082232441753149033 0.10284984670579433 112.93164227716625 0.072096779942512512 0.26717165671288967 0.17370012402534485 12.139213685877623 0.15189615823328395 0.077279270626603558 0.058068395592272282 0.068691770546138287 0.037557027302681401 0.045716038905084133 14.681334983557459 0.97189760021865357 15.490646176040169 0.066756282001733669 0.12846064474433661 0.037693335674703121 0.045438980683684349 3.989370744675397 34.57148084230721 0.038243176415562519 0.050110432319342979 1.3393931938335288 0.0726079512387513 0.20347787905484438 0.05939220916479826 0.042081566527485736 6.6996331214904759 24.500830768607557 0.03550080955028434 0.037692629732190563 0.075524225831031799 0.073193439282476902 0.047851943410933018 0.037572149187326431 0.04203086905181308 0.11168394703418016 0.062886053696274757 0.13918610289692879 0.052453286945819855 0.042028433643283125 0.5779187735170126 0.038118033669888973 0.067935998551547527 0.039249558933079243 0.054154512472450733 0.23876949399709702 0.080134415067732334 0.040757838636636179 2.8363580200821175 0.083372000604867824 0.04949845839291811 0.12540655862540007 0.070588475093245506 0.040392864495515823 0.42454128619283438 0.053490431047976017 6.5165741695091119 0.038398269563913234 0.059903908520936855 4.2750353468582025 0.059359545819461346 0.83391555957496155 0.04608101025223732 0.047160460613668742 17.396929556503903 0.075134650804102421 0.054118970409035683 0.05646115355193615 0.19103560969233513 0.098886575549840927 4.6270071649923903 43.264426593668759 0.05964587815105904 0.049430284649133682 1.3157000821083773 0.052714763209223747 0.037931940518320384 6.7054383773356667 10.18909575231373 0.064298014156521144 0.043099792674183846 0.89567410107701917 5.9803029866889119 0.041948485188186169 0.049534276127815247 0.06165090575814236 1.1358888382092116 0.069153270684182644 0.049448347650468349 2.3380838185548791 0.048721186816692352 0.059441078454256058 1.9475301774218676 0.063669873401522525 0.040826177224516869 0.058641290292143711 0.038768094964325317 0.061927138827741146 0.3353468980640173 0.056360812857747078 0.038302414119243622 0.039716421626508236 77.703060456551611 0.06068447045981884 0.056579582393169403 0.91548228636383899 43.756275451742113 0.063038775697350391 1.0458373678848145 0.15551462862640619 0.082344542257487774 0.59104489441960939 0.013782517053187004 0.062071440741418793 0.039495255798101425 0.038959246128798308 0.080832981504499912 1.8181724958121779 0.092052951455116161 0.5503497738391161 0.052288331091403961 0.049953793175518513 0.040625968948006519 1.181999408639965 0.065676725469529629 0.099287157878279797 0.060095611959695816 0.75672742258757353 0.049369069747627004 0.040883295238018036 0.19092932995408773 0.051934408023953438 0.44489875156432401 2.0362789854407315 3.1795984236523509 1.787278665229677 0.22790700010955323
leaf_count=6 674 7 4 17616 2357 1490 6 7 2130 1742 1608 998 162110 2305 91 5 6 18 43 95 5 5 28 7 9 12695 5 19 18 1157 15 5 6 7 4 5 1037 91 1290 7 13 4 5 128 3351 4 5 85 7 15 4 4 552 2661 4 4 5 8 5 4 4 12 6 11 5 4 42 4 6 4 5 24 6 4 219 7 4 12 6 4 29 4 667 4 6 365 6 56 5 5 688 6 4 5 13 4 451 4647 6 5 116 5 4 336 667 6 4 74 529 4 5 6 108 7 5 170 5 6 187 6 4 6 4 6 36 6 4 4 8310 6 6 50 4902 4 33 8 6 41 1 2 4 4 3 150 9 44 5 5 4 96 6 10 6 76 5 4 19 5 46 122 173 92 19
internal_value=-0.0006828 0.11599 -0.0136868 0.0216307 0.0570563 0.124485 0.158127 0.179773 0.0671443 0.0819597 0.0978513 0.117899 -0.0207319 0.124428 0.293411 0.112712 0.166 0.529302 0.208337 0.378257 0.264525 1.3405 0.733598 0.530586 1.26635 0.00505602 0.179208 0.497898 1.12736 0.17172 0.713049 0.851805 1.64472 0.593425 0.0166097 0.653337 0.197807 0.167162 0.208997 0.305466 0.159633 0.851681 0.740212 0.100796 0.0806215 0.160032 0.386147 0.326849 0.26501 0.838712 0.263644 0.0153167 0.16091 0.0361198 0.0609367 0.0596751 0.0584159 0.84158 0.123046 1.09958 0.836517 0.371749 0.822985 1.24748 0.293213 0.55382 0.444766 0.275671 1.38403 1.29875 1.8411 0.349301 1.41239 1.84763 0.110553 0.224526 0.498016 0.914083 0.428849 1.97207 0.263826 1.29836 0.111197 0.261177 0.297679 0.116013 0.187518 0.447477 0.343341 0.128842 0.220191 0.468398 1.42344 1.79339 0.692951 0.900495 0.114951 0.0560114 0.239366 1.06984 0.176631 0.905201 0.510586 0.215163 0.229704 0.166339 1.08701 0.25345 0.286071 1.08983 0.200551 0.345999 0.279372 0.80193 1.19309 0.11226 0.885678 0.583925 0.148923 0.208324 1.11803 0.0805528 0.187974 0.863476 0.254402 0.492153 0.316729 1.12327 0.00832019 0.0474025 0.286017 0.120592 -0.0238969 0.261894 0.413199 0.641922 1.10425 0.473794 0.22067 0.0568711 0.220289 0.194913 0.190065 0.294699 0.417217 0.734849 0.566958 1.43679 0.162381 0.229921 0.369851 0.481829 1.09905 0.394721 0.774819 1.83586 0.48298 0.216741 0.0872123 0.249905 0.316727 0.41236 0.538158
internal_weight=2225.21 223.144 2002.06 332.95 174.611 65.4685 50.7712 96.7751 126.369 105.709 88.3938 72.9949 1669.12 32.9435 4.0419 72.0859 27.094 0.908966 63.8316 3.72494 2.82178 0.109422 0.90315 0.695223 0.185082 182.461 44.5166 1.02195 0.285056 43.4946 0.363179 0.510113 0.125372 0.384741 109.142 0.219416 60.1066 43.1314 23.7258 8.03107 15.6947 0.204086 0.19468 28.9016 44.9919 10.3584 1.72186 1.67175 1.61548 0.276086 0.510141 108.947 27.0308 69.5291 45.0282 44.9927 44.955 0.137601 6.64408 0.0796537 0.41514 0.149241 0.175769 0.211283 7.96431 0.871859 0.819405 0.683973 0.106054 0.135433 0.0961829 0.316049 0.207927 0.127793 14.6266 3.63016 0.7938 0.285886 0.195995 0.0898913 0.507913 0.112883 6.56443 7.09245 6.12055 19.4056 7.26642 0.939356 0.879997 14.7285 45.3781 0.900961 0.185715 0.131596 0.373109 0.289922 8.63651 44.8174 1.55302 0.109076 1.44394 0.128239 0.166393 44.4772 37.7717 10.2965 0.107398 27.4752 6.06065 0.0803468 4.0095 1.51452 1.45287 0.216286 0.147133 2.49498 0.0982555 0.0976843 6.32706 4.37953 0.104496 2.39673 1.23658 0.100695 0.736898 0.401551 0.34519 0.0780188 102.303 24.6003 1.03275 0.972062 1486.65 26.5796 1.95156 0.891943 0.237859 0.654084 1.05962 34.6336 12.4042 10.6049 10.5659 3.86628 2.00748 0.744645 0.652592 0.102242 1.8588 1.26283 1.7993 1.28872 0.159383 1.12934 0.372611 0.0803786 0.292233 0.242864 0.510575 24.628 7.23106 4.05146 2.26419
internal_count=240562 18243 222319 35147 17531 6101 4611 6105 12138 10008 8266 6658 187172 2552 119 6591 2338 67 3553 179 105 10 74 58 16 20160 3937 98 29 3839 31 49 13 36 11430 23 3374 3808 2022 711 1311 21 21 2433 4253 900 117 112 107 22 42 11409 2332 7465 4804 4800 4796 12 680 8 28 16 14 16 704 70 65 52 10 13 9 29 16 10 1279 281 62 26 18 8 36 8 672 634 543 1786 629 67 61 1042 2332 58 15 11 24 17 783 4784 137 11 126 10 17 2274 1938 677 10 1261 537 8 332 146 140 22 15 186 10 10 562 375 10 176 118 10 69 33 27 8 10729 2419 62 56 167012 1187 93 59 14 45 34 3353 1053 872 868 316 162 63 54 10 154 99 181 129 16 113 37 8 29 24 52 1094 406 233 141
is_linear=0
shrinkage=0.03


Tree=2
num_leaves=164
num_cat=0
split_feature=42 24 25 8 24 27 100 42 8 87 25 53 24 52 53 27 37 113 14 100 83 110 136 24 21 41 17 78 51 128 132 87 133 130 132 140 76 14 18 51 76 53 127 148 18 78 130 132 95 17 3 52 21 8 78 127 14 30 51 83 110 67 37 110 135 25 10 4 110 18 3 147 110 53 37 147 24 29 10 127 52 3 17 78 49 136 88 149 17 14 3 76 58 126 3 78 149 52 76 52 18 80 110 35 47 136 50 18 78 24 51 136 18 14 127 34 41 47 3 41 37 113 4 67 135 126 94 37 67 51 149 120 51 49 127 49 51 81 45 25 18 127 76 49 128 128 3 52 34 76 67 18 126 148 127 77 136 52 18 3 17 14 4
split_gain=3060.13 523.96 513.229 688.422 355.341 332.253 155.516 139.653 139.109 105.42 124.14 103.647 99.0836 93.7875 88.9314 87.2645 81.6382 70.6317 97.5134 92.0358 67.8353 66.4428 157.07 123.657 75.0389 132.762 62.2609 57.842 56.5343 149.39 56.354 56.0587 53.2143 99.5162 105.135 96.3323 50.2907 47.6964 52.1063 48.4867 47.3297 47.2707 47.2169 56.0274 46.29 59.6464 69.5106 91.9163 54.9921 45.5895 112.688 66.4604 50.0957 45.1481 62.0045 58.9388 47.9575 144.326 246.307 150.55 84.555 44.327 44.2644 40.4036 56.3737 39.9895 86.0887 50.2225 77.4454 131.176 70.4336 143.922 65.1803 51.8455 42.7571 72.874 39.9564 45.6923 45.5939 39.8751 42.4527 47.9661 45.7486 73.977 196.204 118.504 39.6848 39.4617 44.167 51.9485 39.3548 43.7837 52.7104 120.371 41.7727 60.283 84.1056 43.3523 49.0709 93.4854 118.829 165.954 111.76 69.9007 54.1451 40.6103 38.8674 101.861 208.012 71.2544 84.1527 267.054 38.2473 38.1046 42.3835 37.8366 122.323 122.036 37.289 37.2027 148.666 36.3421 36.0776 35.9454 53.9443 100.437 41.2119 60.0491 35.9161 47.5998 35.322 51.8978 41.7977 48.0519 37.8425 37.9009 51.5615 34.9709 34.8465 34.432 34.3119 34.1755 50.0533 33.6242 43.6956 97.1216 152.958 33.6212 38.1372 64.5142 149.487 33.0983 32.5063 72.7178 149.723 63.973 32.3843 77.474 34.5639 45.414 61.278 62.0377 41.8354
threshold=20.500000000000004 -0.20130787113528306 0.069075234896963988 1.0000000180025095e-35 0.083526763983159627 0.19924252636798928 -1.0000000180025095e-35 49.500000000000007 1.0000000180025095e-35 0.31041474784891682 0.20630764044555341 0.071999739585150921 0.33296775783611637 0.39849827229325946 0.10753392069290904 0.10025912346825767 1.0000000180025095e-35 -5.4999999999999991 206.50000000000003 -1.0000000180025095e-35 0.036940295656947626 20.500000000000004 0.2447574053204529 -0.80090185947302295 0.17853186822032241 4.5000000000000009 -1.0000000180025095e-35 0.44250416211926563 0.53608389277215684 0.04651700322328902 -0.12323068278171397 0.24121083025711412 -0.030528460662425847 -0.24427927971013733 0.19259855216387842 -0.14146308120029266 3768.5000000000005 290.50000000000006 0.36011195038067362 0.78585154614576214 1891.5000000000002 0.75067412413410406 0.42216730150188903 0.11538448345984718 0.079789781331565182 -1.0000000180025095e-35 -1.0000000180025095e-35 -0.31585814728673856 1.0000000180025095e-35 -0.66508369919370691 64.500000000000014 -0.91595797486582498 0.10713706949170131 1.0000000180025095e-35 0.32208745756843443 0.30375997648867509 inf 0.27549564787069986 0.14416895165100294 0.14480187104658285 65.500000000000014 4.5000000000000009 8.5000000000000018 65.500000000000014 -0.015777137587080041 0.13799324301921403 8.5000000000000018 96.500000000000014 24.500000000000004 0.11976589947694338 38.500000000000007 0.074406645980352085 3.5000000000000004 0.035921582135206541 4.5000000000000009 -0.10834984431618676 -1.0000000180025095e-35 1.0000000180025095e-35 1.5000000000000002 -0.046068006104294242 -0.83271142984530833 32.500000000000007 0.5225407284159812 0.16082682369357987 0.64289021601947005 0.10057623345702722 0.75059242634438983 0.092475710739526457 0.56600732975135615 5104.5000000000009 34.500000000000007 4250.5000000000009 0.10736804700960684 0.0061360287959877366 60.500000000000007 -0.25065686814777655 -0.0089506688981784554 0.20098848464245805 4539.5000000000009 -0.29198515523354801 0.15978269208798065 -1.0000000180025095e-35 10.500000000000002 6.5000000000000009 0.43463636553487711 -0.0091625776734569186 -1.0000000180025095e-35 -0.24831894440527255 -0.50055062105002313 0.20864510153826379 0.14416895165100294 0.0028365211683894502 -0.24831894440527255 1206.5000000000002 -1.0000000180025095e-35 264.50000000000006 4.5000000000000009 0.43463636553487711 68.500000000000014 79.500000000000014 11.500000000000002 -5.4999999999999991 155.50000000000003 3.5000000000000004 -0.066405557068210122 0.033936498825217321 1.0000000180025095e-35 8.5000000000000018 4.5000000000000009 0.10799270164331688 0.053614877502281721 29.000000000000004 0.96434653280804172 0.035688268567355332 0.30375997648867509 0.60655016974498299 0.46487462272929253 -1.0000000180025095e-35 8.0000000000000018 0.10353636772234465 0.31999411191098986 0.61281481894092238 637.50000000000011 1.0000000180025095e-35 -0.021088277689655873 -0.082938213703362337 40.500000000000007 -0.87373568808641566 169.50000000000003 4792.5000000000009 3.5000000000000004 0.96005117325478873 -0.097539598071746059 -0.019161563694397917 -0.046068006104294242 0.78461047480855806 -0.099694306649144235 -0.49918138497838305 0.19961538654106364 60.500000000000007 0.43515189152475525 1718.5000000000002 106.50000000000001
decision_type=8 10 8 2 10 2 8 8 2 8 10 10 10 8 10 2 10 10 8 8 8 8 10 10 8 10 8 10 10 8 10 10 10 8 10 8 10 8 10 10 10 10 10 10 8 8 10 8 10 8 2 8 10 2 8 10 8 8 8 10 10 10 10 10 8 8 8 2 10 10 2 10 10 10 10 8 10 10 8 10 10 2 10 8 8 8 10 10 8 8 2 8 8 10 2 8 8 8 10 8 10 8 10 10 8 10 10 10 10 10 10 10 10 8 10 8 10 8 2 10 10 10 2 10 10 10 8 10 10 10 8 8 10 10 8 10 10 8 10 10 10 10 10 8 10 10 2 10 10 10 8 8 8 8 10 10 10 10 10 2 10 10 2
left_child=1 11 3 4 5 17 13 14 9 10 12 15 90 28 27 16 37 18 36 -19 32 79 23 24 -23 -26 -17 65 -4 -30 62 41 33 -6 35 -35 118 -1 39 44 -40 76 61 86 -39 46 47 -46 -48 50 52 -51 -11 54 55 -9 -57 58 59 -58 -60 -22 115 121 -65 66 67 -8 70 -70 71 72 73 -69 -72 -76 77 156 -78 -20 -81 82 83 -82 85 140 -44 88 -77 -90 106 92 -92 -94 128 96 -96 98 99 100 101 -97 104 -102 -101 -106 -3 108 -108 137 -111 -112 -98 114 -42 -13 -117 -118 -2 -12 -121 152 -80 -18 125 -125 -126 139 -93 -130 -14 -132 134 -134 -133 -136 -137 -109 -67 -128 -85 -37 -143 144 145 -34 -147 -21 149 -149 -151 -53 153 154 155 -63 158 -158 159 162 161 -161 -25
right_child=2 8 6 -5 20 -7 7 53 -10 49 119 30 130 -15 -16 26 123 19 21 147 42 22 -24 31 25 -27 -28 -29 29 -31 -32 -33 143 34 -36 141 -38 38 40 -41 113 -43 43 -45 45 -47 48 -49 -50 51 -52 151 -54 -55 -56 56 57 -59 60 -61 -62 63 -64 64 -66 138 -68 68 69 -71 74 -73 -74 -75 75 87 78 -79 122 80 81 -83 -84 84 -86 -87 -88 -89 89 -91 91 94 93 -95 95 97 112 -99 -100 102 103 -103 -104 -105 105 -107 107 109 -110 110 111 -113 -114 -115 -116 116 117 -119 -120 120 -122 -123 -124 124 126 -127 127 -129 129 -131 131 132 133 -135 135 136 -138 -139 -140 -141 -142 142 -144 -145 -146 146 -148 148 -150 150 -152 -153 -154 -155 -156 -157 157 -159 -160 160 -162 -163 -164
leaf_value=0.077700593426605888 0.0093418692075756763 0.092854914949900835 0.20232006765255414 -0.020516418901721824 1.4816071223030709 -0.00034625314928777803 0.028797044122160304 -0.008240599302207845 -0.013364062506012095 0.051104757065762854 -0.0059164156902891786 0.10490339593683332 0.012833994239259345 3.3969723239713732 -0.010842098047550826 0.17386047823931489 0.072200768594333262 0.9191310289237965 0.091520273262034102 -0.030328486409488077 0.0063457269707352789 0.40862563798729284 1.6708682464466569 0.38274694263449882 1.746548815607055 -0.03038470049001675 0.054021929357109776 -0.014591323004637542 -0.030284180224214533 1.6585300242382834 0.0096479835552486203 1.2266136484050953 -0.030324427455377785 1.256914047578755 1.4483070657522423 0.07170982003377932 0.85469378368392113 0.144749658819463 0.174225483296686 0.73691855713109256 -0.030453286334622815 1.0803602892236579 0.075131217402882408 0.74954214876617298 1.2368817375338383 0.2203008685956413 0.49707079205155369 -0.030582438921775295 1.7665018099788823 1.0032862287995128 1.4669632616342547 -0.01549131496934289 0.94023798938099235 -0.028471364157844278 -0.023181058983967242 0.0359606271448904 3.3814667312263325 0.0087331788638011186 0.09882244942294488 0.7826917098129581 1.6781626722315803 -0.030296554594997693 0.93992537845436452 1.6049085113346246 0.24507433698026154 0.038995492329852138 1.5585520849507171 0.96148921490182404 1.9651556017599687 0.2331440957315212 -0.030299413091221961 2.2738486398680364 1.4835808532988075 -0.030292667021042934 1.5557094276066097 -0.030409576354817464 0.060090321003523565 0.011901199310618716 0.30341878533314665 0.036308192499995146 0.22304385138166008 0.18519067054782221 -0.032939802670393141 0.58252643260573289 2.5081952418535414 2.656291494011362 0.76853316106973402 0.67374372621033418 -0.03029556729739338 1.5266739809164023 0.081360225003027267 0.093402806309027434 1.9085767789608419 -0.030291077788103971 1.7168829668418708 -0.030343907000729364 0.14706769492053845 0.7509827534480179 0.11277307303288642 0.045793306216257011 1.0184052786993214 2.2690494677090216 1.4534442861777119 0.1547294638475161 0.25034327318417332 0.81092520381895528 -0.030353442821163937 0.66072436111197097 2.7200883215950613 0.15697085726429963 -0.030314391888973741 2.4745452018690308 1.0575350399528405 0.06095720880897168 0.95428280914569674 0.07151863979686704 -0.030351998844296135 1.9386569148132802 0.43748059418922558 0.091750132060326686 1.8383984636136121 -0.015969176159943008 1.1861527424062555 -0.030338665188124045 0.12986099560806136 1.8477346521716833 0.536588501462261 1.2208081447843651 -0.030316039250368201 0.81848234916157525 1.0209921202118355 0.00074377679531904644 0.86104456362892612 -0.030356294966516317 0.1375901707833356 -0.030360492509991281 1.0082303806100352 0.16274707598526245 0.62559343564888514 -0.030370309708885077 0.11142762406833071 1.4584860032555835 -0.03031418127340791 0.045010897317344034 0.063337068555176165 0.3599944784497276 2.536330111523398 0.12814340285709649 0.040693285255999141 0.27020760589432169 1.8253557021707405 0.99385223204453077 0.084781347013973649 0.14173078239674472 2.104109018797883 1.2797070238752788 0.23079154447842354 1.6003772631102786 0.18669499995728095 -0.030408540023071133 1.6281805488970418 1.0966200533500956 0.039505458837317695
leaf_weight=3.8604565542191258 3.7817541649565132 3.8796103065833449 1.1481654588133094 181.33942558150738 0.059527208097279072 16.994855037890375 2.5265540750697246 121.16243017185479 21.14859486464411 0.7361499834805727 14.767810127697881 4.1971599562093616 14.574662000872193 0.0087534002959729351 137.40409454889596 5.7742373282089829 10.429000181145968 0.1262547941878438 4.8430529152974549 1.4997520772740305 74.264403650537133 1.8378438698127855 0.070536992512644114 1.3047778038307978 0.10129392612725485 0.060410487465560436 12.032370764762165 17.210968056693673 0.10049918945878733 0.088789614848792553 7.4724042275920493 0.047732754610479655 0.11413692682981491 0.069918056018650532 0.060852306894957908 1.1763635147362945 0.067694449797272571 8.2614178163930791 23.126729679293934 0.15625937655568023 0.069068249315023422 0.054014602676034751 6.8110613822937003 0.11529209464788426 0.071009274572134018 28.416436545550823 0.056869415566325188 0.18737990967929363 0.066777121275663376 0.058044546283781528 0.060109330341219902 16.151338735595345 0.061820076778531075 853.17976745218039 440.31904249731451 19.022831715643409 0.04396589659154293 0.76916532684117567 0.23238564934581518 0.036901549436151981 0.035119946114718914 0.12550463061779737 0.061819342896342167 0.036693005822598934 0.10877717006951559 40.647333978675306 0.037763364613056072 0.060496169142425837 0.060136422514915355 0.11388015281409025 1.0236870367079971 0.039059989154338837 0.039633139036595821 0.21976015623658895 0.037831026129424572 0.44265074934810389 2.641249526292087 0.70701651740819205 0.26862394623458374 1.3495923383161486 0.82242836523799923 8.272615463472901 0.23456009663641442 0.43937267921864975 0.047270897775888443 0.02233277540653944 0.075103280134498962 0.12763881683349609 0.038610081188380718 0.038536389358341694 37.636813774704933 11.720143333077431 0.046419010497628643 0.076003449037671089 0.051510966382920742 0.044198873452842236 0.1680575106292963 0.11515203397720775 5.5843046624213457 1.5380969224497658 0.11437878385186195 0.078281504102051258 0.060656909830868133 0.32110971212387085 0.63586334604769945 0.14234098512679438 0.057180942036211491 0.12988647539168596 0.043629650026559719 0.16018986236304034 0.082040082663297653 0.071860309690237045 0.055153427645564079 5.1723458906635642 0.091382453218101456 0.28951239679008711 0.04510177206248045 0.076178276911377907 0.19240006152540434 0.49070267751813013 0.048162001185119152 2.0962764695286742 0.049320369027554989 0.055089556612074264 5.8785889465361825 0.047920429147779942 0.21069130860269059 0.071932205930352211 0.10268739797175008 0.14125846140086651 0.057061706669631285 1.9077834971249104 0.13447363767772902 0.091431552544236183 0.70325434394180875 0.068576475605368614 0.11544314678758383 5.5570130264386517 0.091347188688813641 0.17772835679352283 0.20363056100904942 0.040301047265529522 0.040999607183039188 4.3146699564531446 0.31906521227210782 0.076817600056529045 0.046754169277846813 15.755363062955443 4.6197333671152583 0.39807109255343753 0.064666068181395531 0.029292551800618294 2.3220575451850896 0.68468044698238373 0.05622198898345232 0.045791109092533588 0.11386075895279646 0.055190467275679 2.7494497196748853 0.097776828333735355 0.054257931187748909 0.079858608543872833 0.42325513437390316
leaf_count=273 384 302 57 20547 6 1709 236 13847 2199 70 1542 316 1375 1 15549 185 746 5 290 141 7593 83 6 81 7 5 1002 1889 11 6 672 4 11 7 4 121 2 308 808 6 5 4 638 7 4 1125 4 11 4 5 6 1628 6 98428 50550 2148 5 87 26 4 4 13 4 4 8 4098 4 6 6 12 105 4 4 23 4 42 202 55 13 120 34 447 11 15 4 2 7 5 4 4 3001 761 5 8 5 4 9 7 344 100 7 7 6 9 25 6 5 5 4 16 8 7 5 277 5 13 4 6 20 46 5 229 4 5 292 4 5 6 10 7 4 156 7 8 33 6 6 360 3 15 5 4 4 354 22 6 5 1087 360 20 6 3 180 26 6 3 3 5 168 8 3 7 22
internal_value=-0.000911239 0.0966591 -0.0135276 0.0197332 0.0643709 0.115199 -0.0205373 -0.0208027 0.0575197 0.0701521 0.0817527 0.143691 0.095723 0.301773 0.00267201 0.153356 0.165818 0.151933 0.181291 0.111428 0.0258914 0.201898 0.259875 0.250526 0.463139 1.08271 0.0928826 0.0322612 0.281515 0.761887 0.06074 0.201358 0.120786 0.280465 0.228967 0.173077 0.0438804 0.180181 0.186205 0.209573 0.155648 0.195666 0.0189781 0.0936746 0.207349 0.225307 0.597666 0.317736 1.18265 0.00123221 0.214344 -0.010029 0.119987 -0.0240775 -0.0176322 -0.000341162 0.0471811 0.238176 0.744758 2.19559 0.306169 0.0124195 0.142496 0.0947905 0.588075 0.0499663 0.131808 0.120509 0.223865 0.83169 0.172716 0.554743 0.344832 0.183794 0.0924746 0.275881 0.190074 0.237294 0.100947 0.163628 0.194284 0.215515 0.357276 0.416903 0.640638 0.507952 0.0826937 0.201098 0.0850369 0.747446 0.112031 0.102657 0.0833818 0.704871 0.137525 0.186705 0.624198 0.172786 0.16497 0.264286 0.613748 1.43928 0.182253 0.381569 0.148964 0.352879 0.167097 0.214302 1.16001 0.198415 0.638287 1.13927 0.372036 0.0750813 0.530389 0.131797 0.40658 1.20642 0.0300693 0.00301767 0.24786 0.0813288 0.440351 0.106617 0.162334 0.843344 0.151267 0.424615 0.100902 0.461186 0.0323358 0.124678 0.107748 0.500264 0.0760239 0.237888 0.621191 0.174121 0.0403108 0.277166 0.433336 0.112822 0.70769 0.0733238 0.292732 0.600638 1.18342 0.106863 0.116737 0.138398 0.487535 -0.0136641 0.144392 0.296136 0.760794 0.319896 0.269959 0.677923 0.255315 0.351576 0.745787 0.476264 0.298675
internal_weight=2237.33 256.174 1981.16 344.853 163.513 70.4519 1636.31 1634.96 139.819 118.67 101.573 116.356 86.2665 1.34621 200.16 104.214 86.4071 53.457 30.9932 22.4638 93.0613 26.9513 10.7165 10.6459 1.99955 0.161704 17.8066 62.7559 1.33745 0.189289 12.1422 8.64638 6.31941 1.44796 1.38843 1.32758 4.04185 69.5361 65.6757 37.2161 28.4595 8.59865 86.7419 7.00146 37.0599 28.7985 0.382036 0.258389 0.123647 17.0968 0.858079 16.2387 0.79797 1434.8 581.622 141.303 20.1404 1.11754 0.348373 0.0808674 0.267506 79.7404 4.66977 5.476 0.14547 45.5449 4.80624 4.76847 2.24192 0.174017 2.0679 0.358949 0.319889 0.280256 1.70895 0.685267 8.54464 5.58544 2.95919 16.2349 11.3918 10.0422 1.7696 1.53504 0.712607 0.665336 6.88616 0.647436 0.519797 0.0771465 68.6138 58.6324 37.7592 0.122422 20.8732 8.90911 0.274722 8.63438 8.51923 2.93493 0.557969 0.12248 2.37696 0.435488 2.3163 0.778204 9.98141 6.1018 0.100811 6.00099 0.31409 0.1539 0.223211 5.3328 0.160451 4.60795 0.410792 0.12128 3.97415 15.3067 0.538865 5.33053 0.317944 16.871 6.44195 0.10301 6.33894 0.460352 11.9641 0.243946 17.6527 3.07802 3.02096 0.225905 2.79506 0.887274 0.18402 5.6869 40.7387 0.38842 0.643003 1.25766 0.0813007 4.87144 0.556774 0.237709 0.123572 22.3376 20.8378 16.2181 0.462737 16.1806 3.23426 0.912198 0.227518 0.171296 4.87843 0.169051 4.70938 1.95993 0.231893 0.177635 1.72803
internal_count=240562 18243 222319 35147 14600 5342 187172 187097 12138 9939 8221 6105 6628 75 21998 5090 3903 3633 2014 1619 9258 1608 680 674 95 12 1187 6449 74 17 1015 579 544 146 140 136 406 2830 2557 1462 1095 575 8714 652 1456 1148 23 15 8 1718 82 1636 76 165099 66671 16121 2274 126 39 9 30 8062 343 469 12 4560 459 455 219 18 201 37 33 29 164 59 571 352 219 928 638 518 71 60 26 22 645 55 50 8 5033 4326 3014 13 1312 534 19 515 508 164 27 11 137 16 131 31 707 405 9 396 31 15 14 287 10 339 23 10 404 1593 51 457 17 1073 327 9 318 26 778 17 1595 220 216 15 201 45 12 365 4101 20 20 129 8 398 44 22 11 1614 1473 1113 26 1631 228 48 22 16 297 8 289 121 18 15 103
is_linear=0
shrinkage=0.03


Tree=3
num_leaves=164
num_cat=0
split_feature=42 25 8 52 21 27 134 42 107 25 8 142 124 21 128 109 142 27 51 17 42 60 79 1 25 98 107 1 62 128 122 142 52 79 40 13 19 76 134 139 27 1 148 122 139 79 67 122 50 82 124 50 17 123 67 60 5 109 64 109 85 5 76 130 64 25 131 124 3 1 137 14 48 134 25 111 133 1 3 18 110 3 64 122 14 131 18 48 18 0 79 76 39 50 0 16 48 60 13 91 3 123 124 133 137 35 64 0 0 16 17 5 17 17 3 16 128 18 98 3 103 60 131 15 128 79 107 131 25 107 134 21 76 1 51 8 25 5 137 126 48 18 49 126 123 111 85 1 14 139 29 25 50 36 124 126 91 110 3 3 21 8 103
split_gain=2632.2 482.263 592.111 283.598 195.44 207.962 156.427 143.778 130.992 100.199 92.3287 88.9223 76.7464 74.4646 141.445 101.005 73.9449 71.6185 78.0055 70.2166 98.9838 68.5007 82.6082 116.316 139.416 65.4346 60.8203 59.4746 64.4616 59.2922 110.212 154.712 64.1944 58.935 58.1619 53.6122 56.6072 52.8053 78.0998 57.6167 52.7098 58.9074 58.3024 51.8042 51.4968 129.533 185.862 79.5794 61.1741 49.5714 48.7326 97.1291 136.393 48.0973 47.7988 52.6658 47.3056 73.1428 163.746 209.05 103.447 44.6706 43.9528 96.3903 42.9496 40.5984 42.6217 50.0647 64.2441 40.5333 84.6646 125.865 193.642 75.1006 151.303 69.1403 39.9296 76.6893 59.7297 40.9618 39.8422 50.0565 52.9962 118.946 48.9012 79.4055 118.659 61.1098 54.3447 57.7673 66.7292 42.0911 39.1641 38.7766 36.6807 62.3132 36.4818 35.8067 35.7583 35.6773 35.6002 35.1285 50.6345 60.0223 97.607 55.2755 47.7197 103.974 36.1876 34.3641 41.4254 33.7579 76.1255 46.3693 33.6762 52.7649 48.3434 43.6297 33.4736 33.2492 33.0455 41.5177 35.1613 32.7211 32.6833 32.6026 32.0416 34.0297 31.9183 56.6336 31.7696 31.7262 31.614 31.4207 32.8268 31.0912 36.375 53.7563 103.654 31.6154 78.6264 30.3932 53.4865 69.8065 53.2536 126.067 34.3163 37.4932 58.9639 81.7317 91.896 88.8886 57.1289 43.8355 35.6255 65.1195 30.8538 33.8051 30.306 30.1816 48.999 29.9137 31.7817
threshold=20.500000000000004 0.069075234896963988 1.0000000180025095e-35 -0.12544516526459656 0.17853186822032241 0.10025912346825767 0.010598317785338653 49.500000000000007 1.0000000180025095e-35 1.0000000180025095e-35 1.0000000180025095e-35 -0.027678606758290366 0.040374021227910763 0.14292774089136945 -0.52923330165359428 11.500000000000002 -0.064563319400145522 0.19924252636798928 0.14416895165100294 0.43515189152475525 11.500000000000002 0.24210469632249634 0.64288473814772662 202106.50000000003 0.17220542284249199 -1.0000000180025095e-35 1.0000000180025095e-35 202006.50000000003 1.0000000180025095e-35 -0.021088277689655873 0.0054797635330021419 -0.046165830754144453 -0.79086123907287897 0.53503295400064532 14.500000000000002 1.0000000180025095e-35 0.28606160879358172 5303.5000000000009 -0.15354470859041899 0.059174924361446508 0.03312439817793085 202105.50000000003 0.23947952806980108 -0.055604803376610668 0.0058896696225540788 0.1082647476251913 4.5000000000000009 -1.0000000180025095e-35 -0.23873398812627428 -0.9577712233145409 -0.04629093122716043 0.25209530100954597 -0.33186330078492671 0.22742501465089279 13.500000000000002 0.58588173192323001 6.5000000000000009 1.0000000180025095e-35 109.50000000000001 1.5000000000000002 0.34580373532672232 4.5000000000000009 1503.5000000000002 1.0000000180025095e-35 99.500000000000014 0.20630764044555341 -1.0000000180025095e-35 0.10327487582055167 62.500000000000007 202104.50000000003 -0.16668546378381263 1899.5000000000002 -0.24843893480257115 0.1659832621882831 0.62046260631060868 1.0000000180025095e-35 -0.030528460662425847 202105.50000000003 62.500000000000007 0.88019226567768383 13.500000000000002 38.500000000000007 39.500000000000007 -0.055604803376610668 997.50000000000011 -1.0000000180025095e-35 0.56054191290952005 0.32095784647557085 0.11976589947694338 113309846.00000001 0.67885026258317838 637.50000000000011 5.5000000000000009 0.12599201490103992 32032431.000000004 5066.5000000000009 0.84083876732528229 0.034900567823518705 8.0000000000000018 3.5000000000000004 50.500000000000007 -0.0084593426806348279 1.0000000180025095e-35 -0.048751896252650466 -0.036691578579864971 5.5000000000000009 70.500000000000014 74549216.000000015 141895041.00000003 1695.5000000000002 -1.0000000180025095e-35 6.5000000000000009 0.56600732975135615 -0.8323993265132329 40.500000000000007 1892.5000000000002 -0.021088277689655873 1.0000000180025095e-35 -2.4999999999999996 58.500000000000007 -1.0000000180025095e-35 0.48308887371123643 0.51668752740491686 1.0000000180025095e-35 0.0040876057196426044 0.1795027498318586 1.0000000180025095e-35 -0.4340317685877419 0.17220542284249199 1.0000000180025095e-35 -0.15354470859041899 0.071503405935712791 1.0000000180025095e-35 202106.50000000003 0.89306917869769353 1.0000000180025095e-35 0.20630764044555341 5.5000000000000009 -0.29339451228619712 0.12065224674012014 0.28055823633087024 0.44048243412997645 0.53506219119609855 0.20110677864831678 0.37403302438449354 5.5000000000000009 0.31134171717478226 202010.50000000003 1718.5000000000002 -0.0037511372542068408 0.13697762648557776 0.034492841262424738 0.25209530100954597 1.0000000180025095e-35 0.10327487582055167 0.033936498825217321 9.5000000000000018 -38.499999999999993 74.500000000000014 32.500000000000007 0.035784055337760648 1.0000000180025095e-35 -8.4999999999999982
decision_type=8 8 2 10 10 2 10 8 10 10 2 8 10 8 10 10 10 2 8 10 10 10 10 2 10 8 10 2 8 8 8 10 10 10 10 8 8 10 8 10 2 2 10 10 10 8 10 10 10 10 8 10 10 10 10 10 2 10 10 10 10 2 10 10 10 10 8 10 2 2 10 8 10 10 10 10 10 2 2 8 8 2 10 10 10 10 10 8 8 2 10 10 8 10 2 10 10 8 10 10 2 8 10 10 10 10 10 2 2 10 8 2 10 8 2 10 10 10 10 2 10 8 8 10 8 8 10 8 10 10 10 8 10 2 10 2 8 2 8 8 10 8 10 8 10 10 10 2 8 10 8 10 10 10 8 10 8 8 2 2 10 2 8
left_child=3 2 4 6 5 11 9 12 10 40 16 29 61 14 -14 -15 19 18 54 -5 -21 22 23 44 -25 118 135 35 120 30 32 -32 -2 64 98 36 -13 -23 -39 43 49 42 50 -40 45 46 47 -16 -48 62 51 -42 -53 -28 65 -56 57 69 -59 -60 -61 97 96 -64 -34 66 67 125 -69 -55 71 -71 -73 -72 -75 -74 77 101 80 -80 81 82 -79 -84 85 86 88 119 -83 93 91 -91 99 100 95 -38 -1 -3 126 114 -90 102 -51 105 124 106 108 -108 -104 110 -96 -37 113 -113 115 -78 -117 -116 -6 -87 121 122 -29 -98 -105 -18 -27 -128 129 -47 -36 -33 -119 134 -8 136 137 138 -9 -140 -141 142 156 146 -143 -146 147 148 -144 151 -151 152 -150 -149 158 -156 -11 -158 -155 160 -112 -63 -163
right_child=1 7 -4 8 25 -7 133 26 -10 141 -12 27 13 15 21 -17 17 -19 -20 20 -22 37 -24 24 -26 34 53 28 -30 -31 31 131 33 -35 130 111 94 38 39 -41 41 -43 -44 -45 -46 128 48 -49 -50 76 -52 52 -54 56 55 -57 -58 58 59 60 -62 161 63 -65 -66 -67 -68 68 -70 70 73 72 75 74 -76 -77 92 78 79 -81 -82 84 83 -85 -86 87 -88 -89 89 90 -92 -93 -94 -95 109 -97 123 -99 -100 -101 -102 -103 103 104 -106 -107 107 -109 -110 -111 159 112 -114 -115 117 116 -118 132 -120 -121 -122 -123 -124 -125 -126 -127 127 -129 -130 -131 -132 -133 -134 -135 -136 -137 -138 -139 139 140 -142 144 143 -145 145 -147 -148 153 149 150 -152 -153 -154 154 155 -157 157 -159 -160 -161 -162 162 -164
leaf_value=0.18048202875512234 0.99316378585765108 0.70907357791182657 -0.020312190242665132 0.21305065843306956 0.35788190336332099 0.0071053568619963746 0.017964797353349767 1.413663152633597 0.13703854596771334 -0.00015334405877312314 -0.014232504233987154 0.038616516499496649 1.6942522708197159 0.016774104391219607 1.582927737530923 1.5809374878469495 0.14232963037837051 -0.012251453639183611 0.030753882074863799 1.7239212491534399 -0.030311700969140664 0.010569054764983652 -0.030295982155981636 0.46027983537656847 2.1485021554448336 0.0063992608624963239 -0.016167896861283899 0.17895692086191578 0.050845754111245089 0.14781598580421931 -0.030480211435093999 2.5100337125673011 0.85230140523321618 0.09393521388986377 1.5462665946684619 0.2148831423705185 1.3350250365921943 1.6593072157016464 1.0034954080017835 1.2243953626533388 0.14157360270723246 0.1583281701895459 1.0000751667620555 0.065886838813419807 0.030904618893367947 0.21676358284333219 1.3935474723471633 -0.030296793322329655 3.0415659035011333 0.11465575745454763 0.033603045670341149 -0.030360665924990298 2.1806186050777097 0.01147663096720958 0.18867547150282402 1.1815553854123155 0.023048503034618296 -0.030276138653836427 2.7046185190424743 1.5843662119346156 -0.030276575602726046 0.0029511710665155221 1.2235298258889029 0.12792200558909694 0.1762294498242846 -0.0025116334359586317 0.067312098101062978 0.24507068590475503 1.0559225494574112 0.14148670958269857 0.0034259268551862072 3.2076241606284919 -0.030281500882323259 2.384175125350493 -0.03027320095903652 1.6700529380372706 0.19290786038166952 0.017903175250894222 0.020119125891594047 1.3219142458543862 0.87447537770015982 0.40193350550588391 1.0410998249276338 0.17791395880992816 0.16764360201275372 0.10261402431645876 -0.030970296929616774 0.65018711718899369 -0.030633496700541465 1.2122643549094951 0.61109777358396844 2.1710082885319379 0.62086945422176099 1.0390974593055216 1.110795198943453 -0.030383352332087155 0.29846567815039865 0.1380995873896414 0.5896184417035043 0.093242192968711946 0.7154405219857598 0.12067541349184414 0.08636957638964457 0.78547055012872757 1.4570831371601707 0.16863235565663312 -0.030497609163696995 1.3970880176470752 0.64390218107791986 0.094945682983302929 0.98079482669482165 0.93023223453353199 1.252178714353215 -0.030588251848371946 0.88919210308215779 0.17078932571746092 0.88969711912009097 0.1739335818015858 0.093226375959488725 0.4228687231977033 0.096907345828975963 0.010260024379006232 0.87134339872592914 0.78465579660961815 -0.031111743570849608 0.057567228105844373 0.67074051252438127 0.068479619899501867 -0.030307174884422222 1.1006123886046584 0.29531769493603033 1.3804844973539017 0.045190699104193252 0.17533516800648871 0.39434482534477017 -0.02854750705062821 -0.021884996413282849 0.00015861803371023604 -0.030351010044464562 0.20944740923734115 1.7053357479703544 -0.0045492452881908301 0.12803339516543386 0.98299950463832697 -0.030351692699298934 1.8273675225238799 0.036536873496497195 0.69482003759078537 1.4668896894665715 2.1711538472381475 0.46947928699650038 -0.030377404864721087 0.33814674978480852 0.089060622680946513 1.2324513141044591 -0.030395601309761818 0.74246795127815768 0.10633423344932455 0.49805615051088981 0.20669924014491003 -0.030373317661549364 0.45547990354108919 -0.026381940728859743
leaf_weight=11.507393063046033 0.11719876248389471 0.12144425231963296 177.7227882258594 1.1002984670922149 0.45963383931666602 22.409565510228276 17.076157823205001 0.062329648062586784 15.302033890038727 5.8824396636337051 20.457515953108668 4.3479309156537029 0.052186810411512741 16.569830425083644 0.037192860618233681 0.037238762713967755 14.262693347409369 13.274729422293602 39.134659423492842 0.068391148000955471 0.050196158699691296 3.6687562102451921 0.63408200442790974 0.12211307045072306 0.068845099769532681 68.183570866473019 25.530048184096813 9.2197972228750551 21.606506397016346 1.4827278228476646 0.056365880183875561 0.047236641868948825 0.20369436033070065 0.69895187579095364 0.019028795883059502 5.2146966736763725 0.065903202630578916 0.035511806607246399 0.058038739487528801 0.047820652835071087 0.52332843001931906 7.940474501810967 0.058177892118693175 0.6151908729225396 0.48949242755770683 0.36302391160279512 0.042138242162764072 0.10582099016755842 0.039064193144440651 2.8347091833129525 11.157665606588123 0.046732150018215179 0.054275230504572392 2.0944683216512239 0.13660766091197629 0.074196160770952702 15.166114435531197 0.24381448421627272 0.05484665185213089 0.055735672824084759 0.099399775266647339 132.40625655464828 0.11959367990493852 0.18264468014240265 0.14460834674537182 4.313108596019446 24.759131736122079 0.43180514592677255 0.11043169349431992 0.17465344816446304 0.88993360288441159 0.03706097137182951 0.05517855565994978 0.037275398150086403 0.062568089924752712 0.035287421196699142 4.0686526522040349 1.1933113960549229 1.1340490756556389 0.022179327905177959 0.099443421699106582 0.34596125781536091 0.16789114661514759 0.99616920016705968 1.1993742389604447 1.1123625468462712 0.23861890193074931 0.3082464719191188 0.1102063925936817 0.16893924959003925 0.14014162123203278 0.054509998299181461 0.1381388520821919 0.11214281618595123 0.052579436451196671 0.055342162027955055 0.81396165583282787 0.53130370751023293 0.096727297641335919 22.995665245689452 0.12049801461398602 21.45789315272123 0.2552311550825842 0.073522577993571758 0.10082400776445855 1.9427686147391794 0.072215941734611988 0.12607957143336535 0.17774093989282846 1.9140343908220527 0.11865152604877982 0.062448886223137379 0.093559988774359226 0.16371312271803606 0.065236092545091995 0.14783430565148592 0.1955300960689782 3.4396801637485623 6.6968502243980765 0.39550151117146004 22.883819801732898 1.4298936137929565 0.066486158408223583 0.14709724485874176 0.11028182972222567 5.7226728610694435 0.085577475838363171 6.3336030505597583 0.28764530457556248 0.079543530009686947 0.45914561022072931 0.042528284713625908 3.4268377292901278 1.3029265031218518 0.21113258413970371 824.68657813966274 479.59787352196872 53.195693647488952 0.43941622134297986 0.37103293091058731 0.034570181742310524 5.7336071543395546 0.56379225663840649 0.088807746767997631 0.10229732934385527 0.048445883207023144 2.1825304329395294 0.12392647471278895 0.08013805840164423 0.054505831561982743 0.060005616396665573 0.21786041557788849 0.081294292584061623 3.9365325579419741 0.071249266155063107 0.075895664282143116 0.077638567425310612 2.3784261951223029 0.17010087985545386 1.389287789352238 0.067762299440801144 0.12352030072361231 46.045155384577811
leaf_count=404 7 3 20547 47 11 2208 1225 7 707 457 2141 385 5 1813 4 4 823 1312 3417 4 5 375 66 6 7 6610 2901 475 1681 55 4 4 7 30 2 196 4 4 6 5 43 233 2 50 47 23 4 11 4 111 883 4 5 196 9 3 1671 27 6 5 11 14202 6 3 8 436 1937 20 6 19 97 4 6 4 7 4 79 36 44 1 6 10 6 27 39 39 9 11 6 7 5 4 7 4 5 5 23 40 6 926 3 837 9 4 5 82 5 7 6 148 7 4 7 10 4 6 8 61 402 8 1604 95 3 5 4 397 7 500 29 5 22 4 133 78 7 97852 56160 6101 46 25 4 440 28 7 9 4 130 6 5 4 4 18 4 221 4 6 7 136 9 78 6 14 5292
internal_value=-0.00103592 -0.0133652 0.0183294 0.0846911 0.0572852 0.0868548 0.114423 -0.0203538 0.0542289 0.126586 0.0440014 0.111834 0.00327159 0.0544253 0.138473 0.0202815 0.0555185 0.0527487 0.0624498 0.287803 0.981382 0.126345 0.260367 0.373099 1.06893 0.0235421 -0.0237653 0.105093 0.0912711 0.277762 0.424776 1.20137 0.327318 0.252803 0.0152904 0.161422 0.111816 0.0576289 0.285834 0.21819 0.139083 0.09511 0.0527136 0.146718 0.281076 0.409381 1.04009 0.389246 2.18636 0.149649 0.0480356 0.305964 1.15769 0.0107318 0.0873522 0.538137 0.0468645 0.140921 0.49858 1.11264 0.549818 -0.00339379 0.203977 0.561447 0.57161 0.0854363 0.0938125 0.125776 0.410208 0.0929927 0.225143 0.664668 1.38119 0.0909556 0.871133 0.632956 0.139673 0.162212 0.244353 0.0450908 0.278418 0.269523 0.158392 0.30241 0.330356 0.393164 0.57304 0.265296 0.709992 0.860856 1.12429 1.44615 0.116747 0.581485 0.19869 0.711788 0.195312 0.24433 0.0131792 0.114719 0.359045 0.138253 0.204499 0.29359 0.706984 0.247878 0.491763 0.877185 0.315244 0.181128 0.282435 0.233229 0.532457 0.234718 0.158257 0.223047 0.580174 0.117019 0.110224 0.186614 0.117267 0.160743 0.183914 0.372881 0.295525 0.118058 0.0124318 0.0765087 0.215717 0.375619 0.345099 1.97488 0.109683 0.033269 0.0225616 -0.0248963 -0.0192545 0.00406409 0.233033 0.145948 0.336944 0.0684044 0.0897925 0.146767 0.0100844 0.566682 0.137019 0.177367 0.337672 0.577024 1.27945 0.364956 0.898476 0.138639 0.122436 0.581089 0.037135 0.126443 0.106002 0.254794 0.61323 -0.00429929 -0.0250928
internal_weight=2241.34 1959.52 354.012 281.818 176.289 93.9553 142.619 1605.51 139.198 124.029 123.896 71.5457 202.581 23.3535 6.74647 16.6071 103.439 102.22 88.9453 1.21889 0.118587 6.69428 2.26896 1.63488 0.190958 82.3341 1402.92 68.7524 55.2065 2.79331 1.31058 0.146131 1.16445 1.04725 75.1777 13.5459 8.01149 4.42532 0.756562 0.72105 102.1 19.7807 11.8402 0.67323 1.44392 0.954429 0.224216 0.143014 0.0812024 82.3191 11.782 0.624336 0.101007 44.5364 49.8106 0.210804 19.0063 3.84022 0.453797 0.209982 0.155135 179.228 12.7707 0.302238 0.348303 49.5998 45.2867 20.5276 0.542237 3.38643 1.29196 0.30218 0.127527 0.989777 0.0998435 0.090466 69.5484 35.0708 7.91955 1.15623 6.76332 6.66387 2.35737 1.16406 4.3065 3.10713 1.29102 1.81611 1.0524 0.706438 0.363591 0.223449 34.4776 0.342847 3.66356 0.121245 12.4685 0.652748 74.6995 34.3394 0.230704 27.1513 5.69337 2.85866 0.284628 2.57404 0.631268 0.198296 0.432972 3.54232 1.62828 5.53442 0.319722 0.226162 11.3438 4.41202 0.343364 6.93175 7.15648 1.50786 33.6 10.7162 9.28628 0.961059 0.183804 19.9854 74.6028 6.41918 0.730213 0.442567 0.478174 0.0897649 6.86652 18.5902 17.2873 1358.39 533.701 54.103 0.907349 0.845019 0.405603 21.9295 16.0451 7.70664 5.88435 0.150743 7.61783 5.4353 1.0576 0.493804 0.114511 0.379293 0.161432 4.3777 4.25378 0.147145 8.3385 2.45606 4.10663 1.5757 0.186414 178.575 46.1687
internal_count=240562 222319 35147 18243 14600 7040 6979 187172 11264 5669 10557 4832 22019 2468 651 1817 8416 8360 7048 56 9 646 206 140 13 7560 165153 4713 3858 119 64 12 52 45 7147 855 638 440 65 61 4170 1170 937 56 127 80 23 15 8 3000 935 52 9 4958 3631 12 2057 386 49 22 16 19551 441 9 15 3619 3183 1246 26 337 141 33 14 108 11 10 2559 1335 265 45 220 214 69 33 145 106 48 58 39 29 16 11 1224 13 253 9 432 43 7123 1217 9 1070 233 122 13 109 27 12 15 244 96 217 21 14 291 93 14 198 413 47 2177 573 478 28 8 1220 7117 507 57 28 24 8 194 1310 1232 160195 62343 6183 82 75 29 1499 1046 446 453 13 439 309 63 35 8 27 9 246 240 10 600 143 230 91 13 19508 5306
is_linear=0
shrinkage=0.03


Tree=4
num_leaves=164
num_cat=0
split_feature=12 22 8 25 12 24 8 79 100 78 1 78 66 22 24 12 1 149 103 149 64 147 71 125 82 129 52 32 133 83 11 148 129 79 79 18 128 62 14 51 103 11 74 143 72 148 14 76 74 71 51 136 40 25 14 40 64 21 48 9 48 24 79 14 50 147 14 136 48 51 132 82 14 72 14 136 26 130 111 125 48 61 64 24 83 72 1 11 42 21 9 78 10 145 24 14 148 74 79 108 111 91 76 50 10 48 71 83 39 48 1 147 48 24 50 11 71 139 18 132 1 132 59 65 14 21 91 24 12 66 74 78 84 125 48 1 81 82 110 125 66 91 51 125 95 49 61 24 38 130 22 40 79 14 55 24 133 85 130 49 131 128 127
split_gain=2862.19 479.278 215.276 315.628 203.247 130.848 129.985 100.821 97.1062 89.8469 69.8195 66.2349 65.6592 56.5941 51.2991 66.0838 66.181 52.0523 65.5233 56.713 54.5485 132.358 129.688 224.783 52.32 94.5068 50.3822 50.3115 47.0964 119.379 148.259 195.148 179.683 60.1847 46.9713 42.2428 42.0284 71.0034 41.2235 57.3453 76.0709 61.4977 40.1069 39.6039 165.373 199.934 68.1776 40.4626 37.5197 132.257 37.0601 36.5976 62.4066 36.2015 35.9055 39.9028 43.8811 70.5743 35.7711 34.6726 51.8246 32.7271 59.9226 32.7018 32.112 35.2673 70.3827 192.101 37.5119 42.8682 57.2825 40.267 47.1718 52.0515 87.5268 38.2907 65.4173 36.6973 44.6221 42.2712 152.611 34.1935 50.8163 31.855 38.6211 62.5422 207.851 34.6105 55.1549 99.1525 36.8975 31.5992 83.8715 31.5877 83.6884 113.825 35.3122 40.8851 64.86 31.4419 46.6919 30.7458 61.4039 33.4141 30.0833 34.9459 29.8409 29.75 29.605 29.2533 37.1749 74.2091 50.575 92.0312 135.133 29.2381 28.8987 82.6274 67.7329 29.2145 28.6894 122.972 55.756 39.1366 30.9487 47.1524 63.2688 35.3592 28.982 51.0225 68.9733 37.4228 43.0485 103.954 47.2542 53.3537 31.5714 28.4312 53.8913 102.643 42.2759 28.216 27.9304 73.2718 43.7362 47.1405 182.446 34.0154 27.8929 27.483 28.8511 27.1468 27.0712 27.0151 26.8841 30.2865 32.3339 44.2823 54.6022 31.891 27.9302 41.8037 39.938
threshold=28.500000000000004 -0.079935573779647676 1.0000000180025095e-35 0.13799324301921403 11.500000000000002 0.083526763983159627 1.0000000180025095e-35 0.25074037183311643 -1.0000000180025095e-35 0.36258437731309229 202105.50000000003 0.64196482006234812 1.0000000180025095e-35 -0.92011721765644594 0.083526763983159627 66.500000000000014 202103.50000000003 -0.0703809507091087 7.5000000000000009 0.053614877502281721 126.50000000000001 -0.10834984431618676 59.500000000000007 0.0099495374410534815 -0.62305512326721224 0.37830526715482343 -0.41655511187493716 1.5000000000000002 -0.030528460662425847 1.0000000180025095e-35 18.500000000000004 0.16122230167296606 0.089232364492638439 0.92917299726155178 0.28648987366977546 0.36011195038067362 0.13057278187304705 1.0000000180025095e-35 375.50000000000006 0.21553929328715635 -6.4999999999999991 1.0000000180025095e-35 197.50000000000003 -1.0000000180025095e-35 54.500000000000007 -1.0000000180025095e-35 1899.5000000000002 6952.5000000000009 2744.5000000000005 38.500000000000007 0.10799270164331688 -0.075030770365453858 15.500000000000002 0.17220542284249199 112.50000000000001 1.0000000180025095e-35 62.500000000000007 1.0000000180025095e-35 0.60143951498761283 1.0000000180025095e-35 0.44141074807810399 -0.6018564932853584 0.28648987366977546 472.50000000000006 -0.28689268780166266 -0.021804078159129384 997.50000000000011 0.013216886701878055 0.12016478343626598 0.036463541786341418 0.24456577167461077 -0.66476275814018304 472.50000000000006 42.500000000000007 583.50000000000011 0.0073567399731795944 1.0000000180025095e-35 -1.0000000180025095e-35 66.500000000000014 0.024896385184612933 0.36124667474340294 10.500000000000002 109.50000000000001 0.49979253617862029 0.78619693351602793 28.500000000000004 202011.50000000003 7.5000000000000009 35.500000000000007 0.10713706949170131 2.5000000000000004 0.32208745756843443 1.0000000180025095e-35 -0.3584235996009672 0.54134009625836388 2087.5000000000005 0.08538668150369004 2523.5000000000005 0.14394001073515486 20.500000000000004 41.500000000000007 10.500000000000002 435.50000000000006 -0.04791723014484902 1.5000000000000002 0.64141582556787824 65.500000000000014 -1.0000000180025095e-35 1.0000000180025095e-35 0.32095784647557085 202102.50000000003 -0.50803293213784395 0.28055823633087024 0.41632194535035572 -1.0000000180025095e-35 3.5000000000000004 79.500000000000014 -0.16426116750481201 -0.24831894440527255 0.061812585531124904 202106.50000000003 0.013725196182876475 0.034063048146838283 6.5000000000000009 1899.5000000000002 0.46381932326615488 9.5000000000000018 0.87485083909949324 20.500000000000004 1.0000000180025095e-35 454.50000000000006 0.040153486656224965 0.084881430331790339 0.014336325765295839 0.20001522143566397 202102.50000000003 1.0000000180025095e-35 -0.16636991800792336 7.5000000000000009 0.12109065366889951 1.0000000180025095e-35 2.5000000000000004 1.0000000180025095e-35 -0.11715420465217123 1.0000000180025095e-35 0.14315239143233141 7.5000000000000009 1.0000000180025095e-35 6.5000000000000009 -0.14351867905645863 -0.1200483158146962 12.500000000000002 0.28648987366977546 2748.5000000000005 0.17306693643820623 -1.0000000180025095e-35 -0.20533598105134529 0.79316521036500076 -0.041330881009646735 0.035688268567355332 1.0000000180025095e-35 0.02183794879025747 -0.52123647339305546
decision_type=2 2 2 8 2 10 2 8 8 8 2 8 10 2 10 2 2 10 10 8 8 8 10 10 8 10 10 10 8 8 10 10 10 8 8 10 10 8 10 8 8 10 8 8 8 10 10 10 10 10 8 8 10 10 8 8 10 10 10 2 10 10 10 8 10 8 8 10 8 8 8 10 10 10 10 10 10 10 8 10 10 10 10 8 10 10 2 10 10 10 2 8 10 10 10 8 10 8 10 10 10 10 10 8 10 8 10 8 10 8 2 8 8 10 10 10 10 10 10 10 2 10 10 10 10 8 10 8 2 8 10 10 8 10 10 2 10 10 10 10 10 10 10 10 8 10 10 10 8 8 2 10 8 10 8 8 10 10 8 8 8 8 8
left_child=1 4 3 5 12 11 7 38 91 14 59 26 13 36 15 16 -10 18 20 -19 24 -22 61 -24 25 106 -2 42 29 30 31 32 -21 48 51 54 50 -38 115 41 -41 63 -14 44 47 -46 -47 -12 -31 -50 -1 52 93 83 -15 101 -57 -58 -52 -6 154 62 -23 142 -28 66 67 -66 71 70 77 -67 -73 -74 -75 81 -77 78 79 -70 -81 108 -83 84 87 141 -87 90 -89 -90 -9 92 152 94 -7 -96 -95 -98 -99 148 -101 -56 -103 -104 105 -68 -18 -4 -76 110 -53 -112 -113 114 -114 -3 119 -118 -119 120 124 122 -122 -123 125 127 -127 128 129 130 -43 -131 133 134 135 -133 -136 -45 -139 140 -140 -86 -40 -144 147 146 -146 -145 -16 -142 -151 -13 -5 -153 160 156 157 159 -159 -156 -61 162 -162
right_child=2 6 107 8 10 34 -8 53 9 -11 43 151 27 35 99 -17 17 19 -20 28 21 22 23 -25 -26 -27 64 -29 -30 33 -32 -33 -34 -35 -36 -37 37 -39 39 40 -42 116 -44 137 45 46 -48 -49 49 -51 58 109 -54 -55 55 56 57 -59 -60 60 -62 -63 -64 -65 65 68 104 -69 69 -71 -72 72 73 74 75 76 -78 -79 -80 80 -82 82 -84 -85 85 86 -88 88 89 -91 -92 -93 -94 96 95 -97 97 98 -100 100 -102 102 103 -105 -106 -107 -108 -109 -110 -111 111 112 113 -115 -116 -117 117 118 -120 -121 121 123 -124 -125 -126 126 -128 -129 -130 131 -132 132 -134 -135 136 -137 -138 138 139 -141 149 -143 143 144 145 -147 -148 -149 -150 150 -152 153 -154 -155 155 -157 -158 158 -160 -161 161 -163 -164
leaf_value=0.16928043327435935 0.048706085418324274 0.064582669377560215 0.86923808824113213 0.6924490696183585 0.023062151200406798 0.11473730971596756 -0.018963289139229875 0.023252307587060199 0.021104228224628253 -0.023591694667501485 0.153125290651041 0.019866880980012363 0.008291119280771822 -0.030315779965126896 -0.010987567245671901 -0.0060099220456073512 0.070509004199159384 0.015233335982282412 1.4145771625984063 -0.030296503217333477 1.9930005173294463 -0.030311554920119894 -0.030266505063381039 2.587272542472816 -0.0042739174068978413 1.503683741633657 0.05234615544636196 0.023866850684431153 0.0657753283437955 0.029512028241814457 -0.030313075777534452 2.8974323627104859 2.1048037276661411 1.1959589107271669 -0.0027822311846550287 0.066136492504866071 1.2258714868737708 -0.030366217320967261 -0.030380917978012654 1.2452854866612331 0.036352656034853 -0.030305342863141065 0.11825774208153389 0.063562931785778667 -0.030293896937046001 3.1043096884989159 1.3639816289479862 0.91729893165613541 0.16136191978386841 1.8609666331979138 0.26090128690956671 0.012337405662382768 1.1352041739033312 -0.0160326548625449 0.12337177622383866 0.22039350016596321 1.0802438397279623 -0.030451985833745851 0.58829367658024789 0.0828959385032631 0.033454940225657266 0.10279475700102293 1.6585679286319723 0.050453353012879926 0.34576603795861921 0.97225797704401917 0.10316698338729192 2.4024470179083459 0.10371126734598853 0.072737892072954835 0.82053907094883005 0.11170327885555149 0.1293956686950018 1.3870488944035944 0.095428111797855986 1.6051707870579919 -0.030419998909142376 0.01694979489800497 1.9314243957597184 0.22034109843709623 1.8840509483010395 1.0522731438358714 -0.030389577763108831 0.0066034629204055331 0.59898812847810778 1.9441328714152117 -0.030346031934865045 0.076494092266779584 -0.03033794006561227 1.3284406656156917 0.44320182331737756 0.1863961867058081 1.6213795926573997 0.057431116502635778 1.8924038680711248 -0.030306829415729382 0.095986277973502468 1.2043064769777736 -0.030362226593632129 -0.030259150671669604 1.1813456036412895 0.18768370013378724 1.0820488908444361 0.38418586149130179 0.58433146289334637 1.2929573879794045 0.72602004709647672 -0.026766762132968237 0.71947753296481287 -0.0054244203138097699 1.3475534230432287 0.079546895180161212 2.269617172102758 0.17397732232340374 -0.030318408890826463 0.0039084422115026329 1.842964124743055 1.4877924795376869 0.20711271117066801 -0.030377363810407818 0.08028076185873971 0.79863795934745396 1.1008796941452887 1.9159929203527999 0.11007214544329373 -0.030317398843564578 1.1955173164623396 0.88898435804690734 0.034786965733818724 0.079730081918688162 1.2826318485652639 0.41470150773101067 0.17418305842106063 1.5007954673091288 0.60146747384387156 1.4207794116376917 -0.031588811307683803 0.11219714046554086 1.1127831109640927 1.6990662078154 0.72828917878468857 0.050321068699415661 1.5754898284261389 0.41686800074725633 2.4007401078946273 0.1957381202888239 -0.030395386063472158 0.015310106497465555 0.8448826554622707 -0.030410583371892081 0.55044231603746674 -0.030621653736145154 -0.030385545980464709 0.47328132439545773 0.71291675259908815 -0.0078684490981191738 0.041352727509198065 1.2463779168048155 0.2052057238926219 0.11274216502757356 0.56474448079484896 0.23146941500942067 0.066357283113431031
leaf_weight=6.1640197914093706 15.450331802479921 28.438587137497962 0.033352140337228775 0.082894951105117798 23.370774254202843 0.41219755820929904 34.228653547354043 29.413600518368188 19.742147837765518 440.93609058856964 4.1980240056291223 21.260136177763346 3.0908278916031113 0.90718367137015476 122.74459750298411 34.501014715060592 0.2959956219419837 5.2685721032321444 0.041525449603795894 0.096180706284940021 0.04448238480836153 0.040417954325675964 0.060912790708243847 0.057305151596665382 1.1149378465488551 0.058670762926340103 5.0015814993530503 5.8721548095345488 1.8686536448076361 0.98538466915488221 0.12096960004419088 0.051233916543424129 0.05620365496724844 0.048929231241345295 73.84136367496103 6.2980996416881672 0.095507238060236754 0.070297236554324627 0.36967150028795082 0.047026386484503746 12.099189517088231 0.05943553801625967 87.150969497859478 8.3913717139512318 0.066962379030883312 0.038282345980405696 0.043031837791204453 0.063301183283328899 0.3073127968236804 0.047587301582098007 2.6501598935574289 7.6955682281404751 0.05143911391496736 16.809644039720297 13.823735069483524 4.2829399537295094 0.13496309146285046 0.083243994042277336 0.33874872792512167 9.0283918827772123 24.937438510358334 0.67321430146694172 0.03552734013646841 9.8443215563893318 0.23853225633501973 0.059819428250193485 1.1126722581684587 0.04932510107755661 0.43156548868864764 9.6994591364637017 0.14077000506222237 2.7104804906994131 0.74192468449473359 0.084636321291327477 0.47302710637450218 0.055027912370860577 0.036677241325378418 0.63195570465177331 0.015291317366063595 0.23816924262791872 0.062681287527084351 0.1108098728582263 0.060222477652132511 25.957199462689459 0.095294956117867313 0.075969879515469074 0.130251151509583 13.376324173994359 0.10680190473795015 0.088289087638258934 0.1895111259073009 0.68344268389046192 0.054488817229866982 7.4714378723874662 0.062410947866737843 0.049840589053928852 0.2342933490872382 0.097158529795706272 0.063202978111803532 0.067912807688116028 0.049484295770525932 2.1478753061965103 0.10782589949667454 0.14450244233012188 0.14605594892054807 0.022670323960482963 0.079232791438698769 1015.2383311316371 0.079986957833170891 15.594606622122226 0.043544738553464413 5.1746009644120932 0.052175272256135941 0.29258672799915075 0.041105277836322673 9.5477917259559018 0.032029141671955585 0.039509674534201622 0.62692090217024166 0.71149399224668819 0.52556311897933561 0.072374944575130939 0.053036796860396862 0.046235892921686172 5.8777888286858797 0.061840396374463924 0.097858220338821411 0.065265712328255066 0.90648618061095465 1.3443594081327255 0.091371685266494751 0.20186719670891728 1.1633427971974015 0.078372698277235031 0.094721287488937378 0.062013375572860241 0.28193671721965075 2.8887286856770511 0.052464786916971207 0.052038637921214104 0.079025670886039734 0.73493907134979963 0.037362643517553695 0.26715619768947363 0.049359947443008201 0.13084253761917353 0.06355009600520134 0.65614592283964157 0.034280059859155609 0.30351210478693247 0.10310577787458886 0.1605105372145762 0.10659125167876482 0.23734174761921167 0.080714860931039856 4.0004245517775443 6.9940708298236105 0.070464399643242359 0.12710058130323876 6.2211261764168739 0.15118428133428097 3.7587878573685893 3.3785288734361552
leaf_count=145 1222 2029 4 2 1914 35 3791 2428 2009 52382 218 1733 215 91 14113 3942 24 560 4 10 5 4 7 6 103 6 344 310 180 85 12 5 6 5 7535 244 6 6 30 3 1036 6 3076 469 7 4 4 4 17 5 72 726 2 1771 550 180 5 6 9 405 1836 63 4 625 11 3 76 4 17 590 4 149 28 5 28 5 3 52 1 9 5 6 5 2483 6 7 12 1052 10 6 6 28 5 653 6 5 12 5 6 8 2 43 4 5 4 2 4 122958 6 1549 4 447 5 22 4 796 3 2 25 61 26 6 4 3 325 6 6 6 68 78 5 11 56 7 2 4 13 131 2 4 4 53 3 8 4 3 5 50 4 25 5 11 9 5 6 384 488 4 8 388 11 205 204
internal_value=-0.00113186 0.0687549 -0.0175639 -0.00593434 0.0979272 0.0302799 0.0341276 0.0454131 -0.015729 -0.016181 0.0652206 0.0662627 0.122059 0.155872 0.00115465 0.0225766 0.0542939 0.112007 0.232821 0.0778529 0.212878 0.396965 0.315114 1.23856 0.104499 0.384 0.0903064 0.108955 0.169945 0.283527 0.80152 1.29571 0.757189 0.162498 0.0110835 0.134513 0.219891 0.693256 0.0711413 0.0941164 0.0410333 0.12108 0.114491 0.121977 0.198747 1.18364 2.18332 0.164477 0.12477 0.389256 0.211316 0.0385065 0.0934563 0.0235105 0.15442 0.162506 0.241536 0.656524 0.298006 0.0539689 0.066264 0.169393 0.759749 0.0707547 0.119254 0.138708 0.274286 0.698184 0.125099 0.0959548 0.244065 0.199202 0.188578 0.315452 0.468764 0.373489 0.95102 0.185246 0.327488 0.294002 0.56697 0.300341 0.671055 0.0329836 0.0484719 0.229442 0.697033 0.0441275 0.0837979 0.584582 0.0259407 0.291023 0.584112 0.0870697 0.312501 1.0387 0.0720398 0.348605 0.717689 -0.0102794 0.480447 0.14058 0.239692 0.682399 0.179061 0.126925 0.208926 -0.0267373 0.185689 0.0224519 0.0551386 0.113914 0.104254 0.435577 1.25612 0.0493323 0.167073 0.354572 0.283038 0.155971 0.167933 0.354224 0.173833 1.2342 0.155428 0.214554 0.720835 0.195963 0.185405 0.22583 0.765182 0.200622 0.286966 0.469473 0.343286 0.651135 0.127611 0.0934575 0.165566 0.426803 0.303766 0.113298 0.197719 0.26773 0.225863 0.583295 1.0324 0.1315 -0.0107486 0.216367 0.116876 0.0244615 0.285835 0.269985 0.0904626 0.0646271 0.0861199 0.134294 0.576555 0.120429 0.118162 0.161846 0.0877041
internal_weight=2243.13 427.013 1816.12 800.845 231.762 170.489 195.251 161.023 630.356 629.429 98.3989 59.3117 133.363 37.2491 188.493 65.5964 31.0954 11.3533 2.50222 8.85103 2.4607 0.91186 0.867378 0.118218 1.54884 0.433899 37.6537 96.114 3.58246 1.7138 0.324588 0.203618 0.152384 1.38921 111.178 27.9304 9.31873 0.165804 74.0448 36.0585 12.1462 23.9122 90.2418 16.2798 4.4096 0.148277 0.0813142 4.26133 1.34028 0.3549 9.15293 37.3362 8.44198 86.9778 21.6323 20.7251 4.50115 0.218207 2.98891 82.119 58.7482 0.74916 0.0759453 11.4184 22.2033 17.2018 1.56926 0.287857 15.6325 11.2199 1.52043 4.41261 4.35279 1.64231 0.900388 0.815752 0.0917052 1.37966 0.747707 0.732416 0.300851 0.724046 0.171032 70.1682 44.211 1.03646 0.206221 43.1745 13.5714 0.195091 29.6031 0.927418 0.243975 8.39054 0.524449 0.112252 7.86609 0.394655 0.160362 122.896 0.117397 16.2239 2.4002 0.252328 1.2814 1.13534 0.375228 1015.27 0.553014 28.8942 13.2996 5.60401 5.56047 0.385867 0.0932806 37.9864 12.4938 0.69846 0.666431 11.7954 11.0839 0.697211 0.5786 0.118611 10.3867 4.50887 0.159699 4.34917 4.28391 3.37742 0.150807 3.22661 1.88225 0.718911 0.640539 0.263881 0.376658 11.8702 3.47888 0.590147 0.538108 0.830234 1.57409 1.20442 1.16705 0.243753 0.11291 0.923302 122.779 0.485644 0.406618 21.658 0.189486 0.397852 33.8108 17.4939 13.4935 6.49941 0.197565 6.30184 16.3169 7.2885 3.52971
internal_count=240562 28637 211925 88963 11697 15344 16940 13149 73619 73575 6730 4328 4967 1366 21193 7066 3124 1115 230 885 226 89 84 13 137 34 2579 3601 325 145 33 21 16 112 11016 1128 238 12 5315 2490 1039 1451 3291 877 237 15 8 222 107 22 226 3481 724 7834 884 793 191 11 81 5853 3939 71 8 728 1357 1013 97 15 916 678 88 238 235 86 58 53 8 84 32 31 14 45 11 6063 3580 78 19 3502 1068 16 2434 44 16 722 46 11 676 23 11 14127 10 602 52 9 82 78 28 122962 34 2757 1208 482 478 31 9 2825 723 30 27 693 632 39 30 9 593 268 12 256 250 182 11 171 93 37 30 15 15 640 171 40 36 59 103 73 70 12 9 58 14117 34 30 1749 11 16 2103 1278 894 406 12 394 825 420 215
is_linear=0
shrinkage=0.03


Tree=5
num_leaves=164
num_cat=0
split_feature=12 23 23 25 25 28 27 27 28 25 99 28 79 25 12 31 28 45 112 137 136 27 143 68 88 17 67 133 33 111 91 110 3 30 3 52 66 40 129 21 137 5 29 83 17 17 129 121 82 93 12 52 100 47 112 3 21 79 99 125 18 28 5 11 125 125 12 21 83 122 54 83 31 3 102 31 99 126 47 143 47 11 11 88 141 40 94 125 79 32 52 18 53 83 3 38 18 79 74 133 74 95 77 126 3 38 57 137 122 15 43 102 143 137 18 17 30 67 54 25 102 85 108 40 122 111 72 74 122 17 112 18 33 18 79 102 74 129 18 129 18 133 136 112 52 38 72 12 23 112 125 52 18 21 3 95 54 110 125 3 126 74 31
split_gain=2555 465.289 232.958 143.638 107.741 96.8277 90.9268 87.7687 80.016 119.761 74.8348 64.5707 60.4959 53.0758 50.9962 49.8354 46.5514 110.988 45.942 44.3658 43.8313 41.7188 49.71 40.9891 79.5101 38.8644 37.1739 36.13 35.8116 34.3399 33.2987 34.8804 70.2098 32.7447 41.3172 32.481 31.9791 31.2464 100.556 32.6254 36.6693 33.7136 36.3533 60.7558 96.093 35.6552 77.9726 33.828 79.7145 30.333 33.6189 55.2782 30.2181 29.9588 29.5398 28.8679 49.7524 28.3632 28.1329 59.0825 27.8284 100.29 59.4331 49.2385 27.4749 27.1284 30.6576 146.457 26.8838 69.5234 26.8656 26.8394 30.1107 103.603 26.6113 62.7404 26.4848 54.412 86.0523 26.2021 26.4119 84.1339 26.1845 29.2969 26.8972 26.1313 26.0013 38.1444 25.9828 37.6533 25.3824 25.3671 25.2566 33.4536 75.6344 27.2732 24.8768 29.6714 25.1604 35.0809 53.0178 35.6499 28.1655 24.8084 24.6605 25.6724 24.4677 24.3409 26.019 24.2249 26.0495 24.2248 23.8638 146.889 25.513 42.3875 48.7561 142.296 29.085 68.3657 72.8861 83.3205 38.8175 26.5679 23.9654 23.7929 23.5183 42.6335 60.7187 70.6796 23.4151 23.3317 28.836 81.2297 23.1248 23.4913 92.9722 22.3534 34.7432 35.3055 51.2595 40.1607 22.5945 22.2987 24.5266 22.2957 22.2634 21.9281 73.5594 36.2048 21.8075 28.2478 46.1655 50.7221 33.0701 23.7867 52.831 72.2183 39.352 22.6086 21.6877 26.7689 22.0348
threshold=28.500000000000004 0.034328411630806042 0.10337150273230684 0.13799324301921403 0.10353636772234465 1.0000000180025095e-35 0.16623911441461672 0.10025912346825767 0.034607164600835329 0.20630764044555341 -1.0000000180025095e-35 1.0000000180025095e-35 0.28648987366977546 0.20630764044555341 66.500000000000014 7.5000000000000009 1.0000000180025095e-35 8.0000000000000018 -2.4999999999999996 0.018898022224520142 -0.099694306649144235 0.19924252636798928 -0.069794601779616924 5.5000000000000009 0.42887827394404104 -0.8323993265132329 5.5000000000000009 -0.048751896252650466 49.500000000000007 1.0000000180025095e-35 6.5000000000000009 -50.499999999999993 54.500000000000007 1.0000000180025095e-35 66.500000000000014 -0.74922797052024903 1.0000000180025095e-35 9.5000000000000018 0.19453346075430528 0.035784055337760648 -0.21935588657194102 4.5000000000000009 0.20660999918951159 0.25179982901003511 0.39166051414803688 0.087494855469053681 0.19453346075430528 60.000000000000007 -0.58124734524542199 1.0000000180025095e-35 11.500000000000002 -0.70737343132249741 -1.0000000180025095e-35 0.17398903399205659 2.5000000000000004 68.500000000000014 0.035784055337760648 0.75055548717692344 -1.4999999999999998 0.0061309041585656541 0.96005117325478873 0.44899691487086363 5.5000000000000009 18.500000000000004 0.072357835761923797 0.038789680038606993 1.0000000180025095e-35 0.14292774089136945 0.9643461488162931 -0.25841683024107504 0.54166664607579851 0.072852649728199007 11.500000000000002 30.500000000000004 -3.4999999999999996 6.5000000000000009 -1.0000000180025095e-35 0.56765199771401742 0.17398903399205659 -0.16906064345365338 -0.66558348478889329 26.500000000000004 1.0000000180025095e-35 0.10754266420456628 -0.48705046499156918 7.5000000000000009 1.0000000180025095e-35 -0.011688567240245416 0.03603834458140432 1.0000000180025095e-35 -0.95808098801536612 0.079789781331565182 0.035921582135206541 0.57260385172491912 54.500000000000007 4.5000000000000009 0.60028622864608205 0.21535265856802221 763.50000000000011 -0.098231833747733241 570.50000000000011 1.0000000180025095e-35 0.47951070881848867 -0.029852766868094262 47.500000000000007 7.5000000000000009 0.17239974973199199 0.64568896199011672 -0.015543782537186931 1.0000000180025095e-35 6.5000000000000009 15.500000000000002 -0.10086812912825947 -0.0050153254196305111 0.60028622864608205 0.5225407284159812 0.72420112936041858 21.500000000000004 -0.60054925384619884 0.79308820167140193 -1.4999999999999998 0.58707853280997579 10.500000000000002 4.5000000000000009 -0.075673964635515525 14.500000000000002 60.500000000000007 4757.5000000000009 0.054581289020622391 0.21792323794439594 -1.4999999999999998 0.48051103487121721 74.500000000000014 0.40020173478009241 0.42873096630052376 28.500000000000004 1206.5000000000002 0.1071779792239111 0.96005117325478873 0.12901152541627883 0.48051103487121721 -0.25408975433205822 0.58351263463185898 -24.499999999999996 -0.95808098801536612 9.5000000000000018 128.50000000000003 108.50000000000001 0.58633318478957797 -24.499999999999996 0.058739581980996262 -0.49918138497838305 -1.0000000180025095e-35 1.0000000180025095e-35 54.500000000000007 1.0000000180025095e-35 0.083526763983159627 1.5000000000000002 1.0000000180025095e-35 30.500000000000004 0.0061360287959877366 360.50000000000006 2.5000000000000004
